SVM-light Version V6.02
2 # kernel type
3 # kernel parameter -d 
1 # kernel parameter -g 
1 # kernel parameter -s 
1 # kernel parameter -r 
empty# kernel parameter -u 
31 # highest feature index 
12924 # number of training documents 
9732 # number of support vectors plus 1 
-2.9804058 # threshold b, each following line is a SV (starting with alpha*y)
-0.790988351204539585914687904733 1:2.07922e-07 2:0.00092121901 3:0.00028708699 4:0.00063515099 5:-0.00042516601 6:-1.0188e-05 7:-1.52999e-05 8:0.00239116 9:0.0069064801 10:0.000845926 11:-0.0036505 12:-0.000379251 13:0.000282219 14:0.0010879301 15:0.00097955496 16:7.3575597e-05 17:0.00163612 18:0 19:0 20:0 21:0 22:0 23:0 24:0 25:0 26:0 27:0.00083646103 28:0.00331669 29:0.99995399 30:0.00257578 31:-0 #
0.790988351204539585914687904733 1:6.2965302e-07 2:0.000900471 3:7.6867902e-05 4:0.00082498498 5:0.000181799 6:5.01574e-06 7:-1.79582e-05 8:0.0459533 9:0.290681 10:0.00031204399 11:0.0141734 12:0.00056345802 13:-0.0020042299 14:0.00107041 15:0.00090463797 16:0.000164711 17:-0.00113766 18:0 19:0 20:0 21:0 22:0 23:0 24:0 25:0 26:0 27:0.00099281606 28:0.00296736 29:0.95559698 30:0.0026867599 31:-0 #
-0.790988351204539585914687904733 1:2.61052e-08 2:0.00034695701 3:3.9597398e-05 4:0.00030740199 5:-9.6076401e-05 6:7.52669e-07 7:1.8936e-06 8:0.129145 9:0.72513801 10:0.000103361 11:0.050213899 12:-0.00075421599 13:0.0027115 14:0.00040553301 15:0.00033605701 16:6.9427901e-05 17:-0.0003668 18:0 19:0 20:0 21:0 22:0 23:0 24:0 25:0 26:0 27:0.000475056 28:0.000287987 29:0.67451203 30:0.000327238 31:-0 #
0.790988351204539585914687904733 1:2.58548e-07 2:0.00098560599 3:0.000179075 4:0.00080747501 5:-0.00037959099 6:-8.7980698e-06 7:-1.8652199e-05 8:0.000245473 9:7.9738697e-05 10:0.000226021 11:-4.3104599e-05 12:0.0001091 13:-5.5317701e-05 14:0.00088165101 15:0.00056971202 16:0.000163882 17:-0.00173339 18:0 19:0 20:0 21:0 22:0 23:0 24:0 25:0 26:0 27:0.00100492 28:0.00522106 29:0.99997801 30:0.0029472001 31:-0 #
-0.790988351204539585914687904733 1:2.5908801e-07 2:0.00052794599 3:1.35697e-05 4:0.00051548198 5:-8.1859202e-05 6:-2.6815701e-06 7:-1.6868e-05 8:1.94801e-05 9:4.9922301e-06 10:1.25086e-08 11:9.8432201e-06 12:4.93627e-07 13:2.49397e-07 14:0.00074226799 15:0.000741822 16:4.4675301e-07 17:-0.0010846501 18:0 19:0 20:0 21:0 22:0 23:0 24:0 25:0 26:0 27:0.00064217398 28:0.0276224 29:0.99961698 30:0.00050208298 31:-0 #
0.790988351204539585914687904733 1:4.9581399e-08 2:0.000330835 3:0.000138925 4:0.00019208201 5:0.000109245 6:-3.1204399e-06 7:2.5601601e-06 8:0.084413499 9:0.93856502 10:0.000121502 11:-0.055519 12:0.00060975301 13:-0.0011154599 14:0.00038808401 15:0.00035479199 16:3.3243901e-05 17:0 18:0 19:0 20:0 21:0 22:0 23:0 24:0 25:0 26:0.00050818198 27:0.00026087399 28:0.000807976 29:0.32997301 30:0.00086439599 31:0.00132394 #
-0.790988351204539585914687904733 1:3.9056299e-06 2:0.000829875 3:0.000183162 4:0.00065036502 5:-0.000165241 6:-1.84497e-07 7:-7.18109e-06 8:0.0348382 9:0.100699 10:0.00047661 11:0.0108629 12:-0.00062694203 13:0.00045615801 14:0.00081561098 15:0.00055202999 16:0.00025991301 17:-0.000179564 18:0 19:0 20:0 21:0 22:0 23:0 24:0 25:0 26:0 27:0.00072010799 28:0.00237046 29:0.99423599 30:0.0015393 31:0.00340191 #
0.790988351204539585914687904733 1:7.6476198e-07 2:0.00096289901 3:0.00018741 4:0.00077798002 5:-0.00037925801 6:-1.49471e-05 7:-3.05822e-05 8:0.00077507697 9:0.00100813 10:7.2567098e-05 11:-0.00073241 12:-1.28966e-05 13:1.95961e-05 14:0.00115195 15:0.0010461099 16:5.4988999e-05 17:-0.00164207 18:0 19:0 20:0 21:0 22:0 23:0 24:0 25:0 26:0 27:0.00100808 28:0.0065937499 29:0.99996901 30:0.0028720701 31:-0 #
-0.790988351204539585914687904733 1:2.6471099e-07 2:0.00052526401 3:6.6879902e-06 4:0.00051925302 5:-5.73937e-05 6:-1.46602e-06 7:-1.32537e-05 8:9.3423996e-06 9:1.33357e-06 10:6.8148601e-08 11:3.52969e-06 12:7.9791698e-07 13:3.0146401e-07 14:0.00074097398 15:0.00074097398 16:1.6675699e-20 17:-0.00083792501 18:0 19:0 20:0 21:0 22:0 23:0 24:0 25:0 26:0 27:0.00061585498 28:0.0230987 29:0.99973202 30:0.00050032203 31:-0 #
0.790988351204539585914687904733 1:1.53921e-08 2:0.00018035099 3:1.20252e-05 4:0.000168361 5:-4.41429e-05 6:-4.3754099e-07 7:-1.52921e-06 8:0.032154098 9:0.96622801 10:7.2419598e-06 11:0.174481 12:0.00018803999 13:0.0012595101 14:0.00025077499 15:0.00025061701 16:1.5715599e-07 17:-0.00026735 18:0 19:0 20:0 21:0 22:0 23:0 24:0 25:0 26:0 27:0.00019357599 28:0.0026795999 29:0.186859 30:0.00054939301 31:-0 #
0.790988351204539585914687904733 1:3.38159e-07 2:0.00098675105 3:0.00041805199 4:0.00057078799 5:-0.000487204 6:-2.0315099e-05 7:-2.3746799e-05 8:0.00069394201 9:0.00036113401 10:0.000228883 11:-0.000368785 12:5.9078498e-05 13:6.0783299e-05 14:0.00095046702 15:0.00067104498 16:0.000200649 17:-0.0022376699 18:0 19:0 20:0 21:0 22:0 23:0 24:0 25:0 26:0 27:0.00100803 28:0.0042108698 29:0.999982 30:0.0028721101 31:-0 #
0.790988351204539585914687904733 1:2.33447e-07 2:0.00097183598 3:9.8877397e-05 4:0.00087343698 5:-0.000292351 6:-4.69321e-06 7:-1.42362e-05 8:0.0082014697 9:6.9095797e-05 10:8.3671897e-05 11:-0.000752786 12:-0.00082839199 13:7.6035401e-05 14:0.00134269 15:0.00134269 16:9.06243e-21 17:-0.00133819 18:0 19:0 20:0 21:0 22:0 23:0 24:0 25:0 26:0 27:0.0010358 28:0.0149307 29:0.99984598 30:0.0029396899 31:-0 #
-0.790988351204539585914687904733 1:1.43063e-06 2:0.000782319 3:0.00024490501 4:0.00058056402 5:-0.00035327399 6:-6.9408998e-05 7:-0.000109818 8:7.0058799e-05 9:2.59851e-06 10:8.3959299e-07 11:1.12006e-05 12:7.5038702e-06 13:1.36053e-06 14:0.00106079 15:0.00104891 16:1.18286e-05 17:-0.00416573 18:0 19:0 20:0 21:0 22:0 23:0 24:0 25:0 26:0 27:0.00105656 28:0.0094487797 29:0.99993801 30:0.00153215 31:0.0033700599 #
0.790988351204539585914687904733 1:6.7598499e-08 2:0.00037972399 3:5.4438401e-06 4:0.00037436801 5:7.5594098e-06 6:3.02562e-07 7:-3.44808e-06 8:0.029878801 9:0.90542799 10:5.7549e-06 11:0.15482099 12:2.7419301e-05 13:-9.5894e-05 14:0.00053143897 15:0.00052955199 16:1.8839499e-06 17:-0.00042706501 18:0 19:0 20:0 21:0 22:0 23:0 24:0 25:0 26:0 27:0.000400775 28:0.00653227 29:0.39407101 30:0.00114473 31:-0 #
-0.790988351204539585914687904733 1:2.38142e-06 2:0.00081876002 3:0.000147017 4:0.00067340099 5:-0.000127388 6:-4.3271898e-06 7:-2.12819e-05 8:0.054572999 9:0.041469999 10:3.6888701e-05 11:0.0023667701 12:-2.44887e-05 13:0.000201366 14:0.00061696803 15:0.00015630601 16:0.00046025901 17:-0.00060390198 18:0 19:0 20:0 21:0 22:0 23:0 24:0 25:0 26:0 27:0.00107803 28:0.00097871502 29:0.99763602 30:0.00155474 31:0.0033867401 #
0.790988351204539585914687904733 1:3.04249e-07 2:0.000887167 3:0.00074415299 4:0.000144128 5:0.00032671 6:-1.81696e-05 7:8.0208501e-06 8:0.00049710198 9:1.82473e-05 10:0.00054122199 11:1.8300299e-05 12:-0.000443089 13:1.24818e-05 14:0.00110437 15:0.00100927 16:8.2664999e-05 17:-0.00147125 18:0 19:0 20:0 21:0 22:0 23:0 24:0 25:0 26:0 27:0.000963889 28:0.0042228899 29:0.99998403 30:0.00262263 31:-0 #
-0.790988351204539585914687904733 1:2.8181299e-07 2:0.00051788101 3:3.2646301e-05 4:0.00048882299 5:0.00012254401 6:-7.34183e-06 7:2.92362e-05 8:4.3837801e-05 9:1.9707801e-05 10:0.000121893 11:2.37602e-05 12:-4.2592601e-05 13:-1.43134e-05 14:0.000565372 15:0.000421987 16:0.000128167 17:-0.0018064301 18:0 19:0 20:0 21:0 22:0 23:0 24:0 25:0 26:0 27:0.000483671 28:0.0051269201 29:0.99998403 30:0.00051461603 31:-0 #
0.790988351204539585914687904733 1:5.24497e-08 2:0.00030992099 3:0.000111331 4:0.000198754 5:9.51482e-05 6:-2.7481001e-06 7:2.4192e-06 8:0.075329103 9:0.94388402 10:7.1846e-05 11:-0.064315803 12:0.00030318499 13:-0.00077800697 14:0.00036878101 15:0.00034133799 16:2.7416099e-05 17:0 18:0 19:0 20:0 21:0 22:0 23:0 24:0 25:0 26:0.000465519 27:0.00022939 28:0.00092635601 29:0.31506899 30:0.000812396 31:0.00124486 #
-0.790988351204539585914687904733 1:2.28056e-06 2:0.00056903699 3:0.000229083 4:0.00034593101 5:-4.2543601e-05 6:-1.8913801e-05 7:-1.44497e-05 8:0.030230301 9:0.083103098 10:0.000100025 11:-0.017115399 12:0.0001267 13:0.000110266 14:0.00054864201 15:0.00039197499 16:0.000156051 17:-0.00076322898 18:0 19:0 20:0 21:0 22:0 23:0 24:0 25:0 26:0 27:0.000704634 28:0.00056056102 29:0.99593401 30:0.00053316198 31:-0 #
0.790988351204539585914687904733 1:2.5776799e-07 2:0.00098606199 3:0.000182023 4:0.00080502901 5:-0.000382144 6:-9.22853e-06 7:-1.9409301e-05 8:0.000130021 9:2.4918099e-05 10:0.000154607 11:5.3021198e-05 12:5.7587e-05 13:5.01963e-06 14:0.00090684998 15:0.000474339 16:0.00043022499 17:-0.00180818 18:0 19:0 20:0 21:0 22:0 23:0 24:0 25:0 26:0 27:0.0010049 28:0.00524214 29:0.99997801 30:0.0029472001 31:-0 #
-0.790988351204539585914687904733 1:1.86953e-06 2:0.000523136 3:1.77491e-05 4:0.000516031 5:-7.9035803e-05 6:-8.07779e-06 7:-5.21324e-05 8:0.00016356399 9:4.6189398e-06 10:7.26434e-07 11:2.74862e-05 12:1.09004e-05 13:1.83176e-06 14:0.00074115302 15:0.00074115302 16:4.2781002e-21 17:-0.00125039 18:0 19:0 20:0 21:0 22:0 23:0 24:0 25:0 26:0 27:0.00061600801 28:0.0070775198 29:0.999973 30:0.00050044298 31:-0 #
0.790988351204539585914687904733 1:5.9283401e-08 2:0.00028876 3:9.5077099e-05 4:0.000193791 5:6.0448499e-05 6:-2.0564801e-06 7:1.5058999e-06 8:0.0087158699 9:0.95656198 10:5.3186799e-05 11:0.00209607 12:-2.4516501e-06 13:-0.00105633 14:0.00036224601 15:0.000358947 16:3.27919e-06 17:0 18:0 19:0 20:0 21:0 22:0 23:0 24:0 25:0 26:0.000319174 27:0.00017427601 28:0.00066472997 29:0.29138401 30:0.00075175299 31:0.00114846 #
-0.790988351204539585914687904733 1:3.82514e-07 2:0.00081300602 3:0.00038367801 4:0.00043536301 5:-0.00039933299 6:3.26343e-05 7:3.5803801e-05 8:0.0753645 9:0.019569101 10:2.79791e-05 11:0.031605899 12:3.4577999e-05 13:-8.10649e-05 14:0.00101629 15:0.00095606601 16:5.99263e-05 17:0.00301962 18:0 19:0 20:0 21:0 22:0 23:0 24:0 25:0 26:0 27:0.00107682 28:0.00100401 29:0.996454 30:0.00155316 31:-0 #
-0.790988351204539585914687904733 1:3.44532e-07 2:0.00051423302 3:7.9723002e-05 4:0.00043491999 5:0.00016510701 6:3.05769e-06 7:-6.1639298e-06 8:0.0290155 9:0.17055801 10:0.00013005501 11:-0.028127501 12:-4.3160799e-05 13:-0.00178105 14:0.00061504298 15:0.00053242402 16:8.2246399e-05 17:-0.000447097 18:0 19:0 20:0 21:0 22:0 23:0 24:0 25:0 26:0 27:0.00069387502 28:0.000543239 29:0.98451298 30:0.00052633003 31:0.0021929501 #
0.790988351204539585914687904733 1:5.1699001e-08 2:0.00028227401 3:7.8474099e-05 4:0.00020387799 5:7.5383003e-05 6:-1.56837e-06 7:1.42391e-06 8:0.00559637 9:0.95666403 10:5.1964402e-05 11:-0.0139191 12:-4.0427499e-06 13:0.00042513499 14:0.00036275099 15:0.00036070601 16:2.0247601e-06 17:0 18:0 19:0 20:0 21:0 22:0 23:0 24:0 25:0 26:0.00028567301 27:0.000168321 28:0.00066793 29:0.29080299 30:0.00075037498 31:0.0011461 #
-0.790988351204539585914687904733 1:4.5569499e-07 2:0.00053504499 3:4.8689701e-05 4:0.00048795599 5:-0.00015273799 6:-6.18985e-06 7:-1.9741899e-05 8:5.1791399e-06 9:1.66552e-07 10:7.0612899e-08 11:9.2875899e-07 12:6.0474298e-07 13:1.08447e-07 14:0.00074195798 15:0.00074195798 16:1.23073e-21 17:-0.00098309503 18:0 19:0 20:0 21:0 22:0 23:0 24:0 25:0 26:0 27:0.00064618402 28:0.0199527 29:0.99979901 30:0.00050126901 31:-0 #
-0.790988351204539585914687904733 1:5.4668899e-06 2:0.00084639702 3:0.00027153699 4:0.00058063201 5:8.30016e-05 6:9.6131798e-06 7:-1.6526699e-05 8:0.037290599 9:0.0810588 10:0.000457032 11:0.0056092902 12:-0.00061438303 13:0.0013990999 14:0.00073325698 15:0.000405122 16:0.00032437901 17:-0.000334791 18:0 19:0 20:0 21:0 22:0 23:0 24:0 25:0 26:0 27:0.00068002898 28:0.00225303 29:0.99598402 30:0.00148559 31:0.0033462599 #
-0.790988351204539585914687904733 1:7.21123e-08 2:0.00051267003 3:9.4586401e-05 4:0.000418204 5:0.00019671601 6:1.85248e-06 7:-3.58434e-06 8:0.023339899 9:0.17214701 10:0.000195154 11:-0.045078501 12:0.000751263 13:-0.0042836 14:0.00065809098 15:0.00061975798 16:3.80606e-05 17:-0.00052146998 18:0 19:0 20:0 21:0 22:0 23:0 24:0 25:0 26:0 27:0.000625104 28:0.00061703299 29:0.983751 30:0.00052812998 31:-0 #
0.790988351204539585914687904733 1:2.5867601e-07 2:0.00098557502 3:0.000178428 4:0.00080793002 5:-0.00037909599 6:-8.0733998e-06 7:-1.71429e-05 8:0.000343274 9:8.8216599e-05 10:0.000155879 11:-3.8126698e-05 12:0.000125433 13:-3.6978701e-05 14:0.000945726 15:0.00070892199 16:7.7685698e-05 17:-0.00159197 18:0 19:0 20:0 21:0 22:0 23:0 24:0 25:0 26:0 27:0.00100491 28:0.0052106599 29:0.99997902 30:0.0029472001 31:-0 #
0.790988351204539585914687904733 1:2.1056701e-06 2:0.000962099 3:0.000245117 4:0.00072505599 5:-0.00041557301 6:-3.01333e-05 7:-5.2461699e-05 8:0.000467712 9:0.00064066198 10:0.000135054 11:-0.000249515 12:-0.00010383 13:1.0381e-05 14:0.00086218998 15:0.000526177 16:0.000235067 17:-0.00174987 18:0 19:0 20:0 21:0 22:0 23:0 24:0 25:0 26:0 27:0.00100752 28:0.00479083 29:0.99998099 30:0.0027955 31:-0 #
-0.790988351204539585914687904733 1:1.6272101e-06 2:0.00079241401 3:0.000104549 4:0.00070180697 5:-8.5275897e-05 6:-4.87029e-06 7:-6.5772001e-05 8:0.062101699 9:0.051164798 10:2.91621e-05 11:0.026673701 12:8.4421299e-05 13:0.00025704701 14:0.00079136802 15:0.00051388302 16:0.00027722301 17:-0.0022058401 18:0 19:0 20:0 21:0 22:0 23:0 24:0 25:0 26:0 27:0.00105294 28:0.00109157 29:0.99638897 30:0.00152712 31:0.0033587301 #
0.790988351204539585914687904733 1:2.5711199e-07 2:0.00098586897 3:0.00018038601 4:0.00080633297 5:-0.00038075901 6:-8.4654403e-06 7:-1.78678e-05 8:0.00031756601 9:9.7551601e-05 10:0.000164574 11:-4.8457601e-05 12:9.9726203e-05 13:-7.1164701e-05 14:0.00089484098 15:0.00056740298 16:0.00020807001 17:-0.00166653 18:0 19:0 20:0 21:0 22:0 23:0 24:0 25:0 26:0 27:0.0010049 28:0.00521009 29:0.99997902 30:0.0029472001 31:-0 #
0.790988351204539585914687904733 1:2.5756199e-07 2:0.00098585 3:0.000180584 4:0.000806225 5:-0.00038086501 6:-9.0758303e-06 7:-1.9152199e-05 8:0.000391754 9:9.3986499e-05 10:0.000132956 11:-1.58899e-05 12:0.000107289 13:-4.4520501e-05 14:0.00093927002 15:0.00065920397 16:0.000157756 17:-0.00178443 18:0 19:0 20:0 21:0 22:0 23:0 24:0 25:0 26:0 27:0.00100491 28:0.00522725 29:0.99997801 30:0.0029472001 31:-0 #
-0.790988351204539585914687904733 1:4.5156901e-07 2:0.00054137502 3:8.1746803e-05 4:0.00046129999 5:-0.00019301 6:-8.2227598e-06 7:-1.96167e-05 8:3.69761e-05 9:4.34497e-06 10:3.44907e-08 11:1.26752e-05 12:1.12931e-06 13:3.87119e-07 14:0.00074180402 15:0.00074180402 16:1.74787e-20 17:-0.00100914 18:0 19:0 20:0 21:0 22:0 23:0 24:0 25:0 26:0 27:0.00064605998 28:0.0285419 29:0.99959099 30:0.00050116499 31:-0 #
0.790988351204539585914687904733 1:6.6941297e-08 2:0.00030457901 3:0.000106483 4:0.00019822799 5:5.66913e-05 6:-2.3948e-06 7:1.67642e-06 8:0.0076899701 9:0.95218301 10:5.9817401e-05 11:0.011242 12:-0.000109679 13:-0.0018952 14:0.00037987801 15:0.00037686399 16:2.99259e-06 17:0 18:0 19:0 20:0 21:0 22:0 23:0 24:0 25:0 26:0.00034850201 27:0.000180676 28:0.00071331701 29:0.305213 30:0.00078741601 31:0.00120296 #
-0.790988351204539585914687904733 1:2.0391501e-06 2:0.00054359197 3:0.000126682 4:0.00043094601 5:-0.000225229 6:-2.8979801e-05 7:-5.4545599e-05 8:2.4144799e-06 9:5.8792301e-07 10:4.3217099e-08 11:1.19144e-06 12:3.2302799e-07 13:1.594e-07 14:0.00074283499 15:0.00074283499 16:0 17:-0.0013781 18:0 19:0 20:0 21:0 22:0 23:0 24:0 25:0 26:0 27:0.00064227899 28:0.0209927 29:0.99977797 30:0.00050216401 31:-0 #
0.790988351204539585914687904733 1:5.8569199e-08 2:0.00031599801 3:0.000109345 4:0.00020681501 5:8.8650901e-05 6:-2.6912401e-06 7:2.36548e-06 8:0.0475072 9:0.94558901 10:7.4075702e-05 11:-0.028328501 12:9.2223301e-05 13:-0.00106425 14:0.00038411 15:0.00036519201 16:1.8888e-05 17:0 18:0 19:0 20:0 21:0 22:0 23:0 24:0 25:0 26:0.00044076299 27:0.000225524 28:0.00088713598 29:0.32062 30:0.00082692201 31:0.00126624 #
0.790988351204539585914687904733 1:2.5745999e-07 2:0.00098593906 3:0.000180709 4:0.00080604601 5:-0.00038105299 6:-8.3127297e-06 7:-1.75319e-05 8:0.00033445799 9:8.8769899e-05 10:0.00014968999 11:-4.1637799e-05 12:9.2119699e-05 13:-4.7115998e-05 14:0.00089799397 15:0.00060144602 16:0.000149443 17:-0.001634 18:0 19:0 20:0 21:0 22:0 23:0 24:0 25:0 26:0 27:0.00100491 28:0.0052222698 29:0.99997902 30:0.0029472001 31:-0 #
-0.790988351204539585914687904733 1:2.3728401e-06 2:0.00053898199 3:0.00046325801 4:8.0507198e-05 5:0.000189553 6:3.3197e-05 7:-1.36607e-05 8:7.8331199e-05 9:3.7716902e-05 10:3.82759e-08 11:5.4354499e-05 12:-1.73153e-06 13:-1.20152e-06 14:0.00074082002 15:0.00074082002 16:5.4197199e-23 17:-0.00074372703 18:0 19:0 20:0 21:0 22:0 23:0 24:0 25:0 26:0 27:0.000615731 28:0.0308122 29:0.999524 30:0.00050021801 31:-0 #
0.790988351204539585914687904733 1:6.4224999e-08 2:0.00030862101 3:9.7492601e-05 4:0.000211267 5:7.1980503e-05 6:-2.3774101e-06 7:2.0536199e-06 8:0.0114439 9:0.94949001 10:5.75388e-05 11:0.0112393 12:-7.47218e-05 13:-0.00128172 14:0.000388513 15:0.00038388601 16:4.6043001e-06 17:0 18:0 19:0 20:0 21:0 22:0 23:0 24:0 25:0 26:0.00037921499 27:0.000189887 28:0.00073162199 29:0.31337899 30:0.00080852001 31:0.00123516 #
0.790988351204539585914687904733 1:2.0935099e-06 2:0.00096174399 3:0.000242845 4:0.00072702498 5:-0.00041427399 6:-3.00187e-05 7:-5.2642099e-05 8:0.00047082501 9:0.00055356597 10:0.000143187 11:-0.00019034 12:-0.000119704 13:1.5543499e-05 14:0.00080176099 15:0.00041432999 16:0.00027747199 17:-0.00175816 18:0 19:0 20:0 21:0 22:0 23:0 24:0 25:0 26:0 27:0.00100752 28:0.0047870502 29:0.99998099 30:0.0027955 31:-0 #
-0.790988351204539585914687904733 1:1.7941099e-06 2:0.00056343101 3:0.00024117201 4:0.00032842299 5:-2.1916299e-05 6:-2.0623e-05 7:-6.4191399e-06 8:0.039646201 9:0.118437 10:8.1450802e-05 11:-0.0117739 12:0.000336472 13:-0.00045685301 14:0.000528773 15:0.000361877 16:0.00016655499 17:-0.00088056101 18:0 19:0 20:0 21:0 22:0 23:0 24:0 25:0 26:0 27:0.000653859 28:0.00052226102 29:0.99209797 30:0.00054534699 31:-0 #
-0.790988351204539585914687904733 1:1.32139e-06 2:0.00052920601 3:2.94005e-05 4:0.00050599797 5:0.000114924 6:9.01764e-06 7:-3.94608e-05 8:3.8858601e-05 9:6.5967001e-06 10:4.3408001e-08 11:1.6010599e-05 12:1.29876e-06 13:5.3511599e-07 14:0.00074283598 15:0.00074283598 16:4.85447e-20 17:-0.0011371 18:0 19:0 20:0 21:0 22:0 23:0 24:0 25:0 26:0 27:0.00064227602 28:0.020946 29:0.99977899 30:0.00050216401 31:-0 #
0.790988351204539585914687904733 1:6.3160101e-08 2:0.00030648499 3:9.5871997e-05 4:0.000210756 5:7.2774099e-05 6:-2.3846401e-06 7:2.1150199e-06 8:0.0119663 9:0.95010799 10:6.2977597e-05 11:0.00635663 12:-0.000127523 13:-0.0013963199 14:0.000386089 15:0.000381244 16:4.82115e-06 17:0 18:0 19:0 20:0 21:0 22:0 23:0 24:0 25:0 26:0.00038616199 27:0.000191243 28:0.00073455402 29:0.31161699 30:0.00080400001 31:0.00122823 #
0.790988351204539585914687904733 1:2.10495e-06 2:0.00096194702 3:0.000243417 4:0.00072644203 5:-0.000414632 6:-2.9608e-05 7:-5.1753599e-05 8:0.00047215799 9:0.00055926898 10:0.00015163299 11:-0.00024372899 12:-0.000100201 13:-2.8929101e-06 14:0.00084519701 15:0.00050903001 16:0.00021838 17:-0.00172534 18:0 19:0 20:0 21:0 22:0 23:0 24:0 25:0 26:0 27:0.0010075 28:0.0047910698 29:0.99998099 30:0.0027955 31:-0 #
0.790988351204539585914687904733 1:2.5858901e-07 2:0.00098562904 3:0.000179439 4:0.00080721301 5:-0.00037986101 6:-9.22649e-06 7:-1.95434e-05 8:0.00024945801 9:0.000123163 10:0.00021047299 11:-5.2949701e-05 12:0.000103648 13:-5.9000398e-05 14:0.00083135703 15:0.00053601101 16:8.0402198e-05 17:-0.00181642 18:0 19:0 20:0 21:0 22:0 23:0 24:0 25:0 26:0 27:0.00100492 28:0.0052111102 29:0.99997801 30:0.0029472001 31:-0 #
-0.790988351204539585914687904733 1:1.43063e-06 2:0.000782319 3:0.00024490501 4:0.00058056402 5:-0.00035327399 6:-6.9408998e-05 7:-0.000109818 8:7.0058799e-05 9:2.59851e-06 10:8.3959299e-07 11:1.12006e-05 12:7.5038702e-06 13:1.36053e-06 14:0.00106079 15:0.00104891 16:1.18286e-05 17:-0.00416573 18:0 19:0 20:0 21:0 22:0 23:0 24:0 25:0 26:0 27:0.00105656 28:0.0094487797 29:0.99993801 30:0.00153215 31:0.0033700599 #
0.790988351204539585914687904733 1:6.0744902e-08 2:0.0002984 3:8.8654e-05 4:0.00020983 5:7.2957497e-05 6:-1.77204e-06 7:1.45169e-06 8:0.0039410298 9:0.95237201 10:4.4334702e-05 11:-0.00183418 12:4.1121399e-05 13:4.0854498e-05 14:0.00038084501 15:0.00037927099 16:1.55718e-06 17:0 18:0 19:0 20:0 21:0 22:0 23:0 24:0 25:0 26:0.00029205799 27:0.000171625 28:0.00069997401 29:0.30490199 30:0.00078675698 31:0.00120146 #
-0.790988351204539585914687904733 1:5.63821e-07 2:0.00081562001 3:0.00032616901 4:0.00049067201 5:-0.00038180599 6:1.30347e-05 7:1.69785e-05 8:0.084468603 9:0.0096408399 10:3.7752201e-05 11:0.023630099 12:-0.00026773801 13:-9.6407101e-05 14:0.0010439201 15:0.00101186 16:3.16326e-05 17:0.00110186 18:0 19:0 20:0 21:0 22:0 23:0 24:0 25:0 26:0 27:0.00107639 28:0.00097876904 29:0.99608898 30:0.00155245 31:0.0033815801 #
0.790988351204539585914687904733 1:2.5823601e-07 2:0.00098593498 3:0.00018096399 4:0.000805863 5:-0.00038127601 6:-8.7268199e-06 7:-1.8394399e-05 8:0.000203706 9:2.69089e-05 10:0.00015243101 11:6.4770204e-05 12:0.000122058 13:2.2722799e-05 14:0.00111125 15:0.00088945299 16:0.000213209 17:-0.0017108599 18:0 19:0 20:0 21:0 22:0 23:0 24:0 25:0 26:0 27:0.00100491 28:0.00521135 29:0.99997801 30:0.0029472001 31:-0 #
0.790988351204539585914687904733 1:2.57518e-07 2:0.00098604499 3:0.00018196899 4:0.00080508197 5:-0.00038208999 6:-9.3006802e-06 7:-1.9564501e-05 8:0.000124211 9:2.91465e-05 10:0.00015674801 11:5.1199e-05 12:5.2500902e-05 13:-8.5845304e-06 14:0.00086134102 15:0.00038516999 16:0.000472035 17:-0.0018237 18:0 19:0 20:0 21:0 22:0 23:0 24:0 25:0 26:0 27:0.0010049 28:0.0052189799 29:0.99997801 30:0.0029472001 31:-0 #
0.790988351204539585914687904733 1:8.8569698e-07 2:0.00094037497 3:2.5228601e-06 4:0.000941034 5:-1.74996e-05 6:-8.0307399e-07 7:-3.7290902e-05 8:0.00089314999 9:0.0013095899 10:0.00014401499 11:-0.00080736802 12:0.000126867 13:-0.00028272401 14:0.00112556 15:0.00095908 16:0.000127508 17:-0.0017300399 18:0 19:0 20:0 21:0 22:0 23:0 24:0 25:0 26:0 27:0.00104526 28:0.0043240101 29:0.99998099 30:0.0028624299 31:-0 #
-0.790988351204539585914687904733 1:2.22638e-06 2:0.00081514899 3:0.00013697099 4:0.00068492303 5:-1.18517e-05 6:9.31469e-07 7:-4.5230099e-05 8:0.064399898 9:0.036409199 10:3.1863499e-05 11:0.0114988 12:-2.31875e-05 13:0.00022091399 14:0.00073008199 15:0.00038599299 16:0.00034376601 17:-0.00130956 18:0 19:0 20:0 21:0 22:0 23:0 24:0 25:0 26:0 27:0.00103861 28:0.00099061802 29:0.99718398 30:0.00154118 31:0.0033756299 #
0.790988351204539585914687904733 1:3.2154199e-07 2:0.00086887099 3:0.000109061 4:0.00075999799 5:0.00028762899 6:-2.54474e-06 7:6.7215601e-06 8:0.000298695 9:0.000118819 10:0.000132505 11:7.9359001e-05 12:-2.63528e-05 13:7.2686198e-05 14:0.00071396399 15:0.00029912801 16:0.00034897699 17:-0.00051515998 18:0 19:0 20:0 21:0 22:0 23:0 24:0 25:0 26:0 27:0.00093292003 28:0.00411584 29:0.99998599 30:0.0025783801 31:-0 #
-0.790988351204539585914687904733 1:1.34799e-06 2:0.00053165498 3:3.9393599e-05 4:0.00049821101 5:0.000134184 6:1.03986e-05 7:-3.8384798e-05 8:3.3739299e-05 9:4.51199e-06 10:1.15971e-07 11:1.23081e-05 12:1.96155e-06 13:7.2137698e-07 14:0.00074256602 15:0.00074216397 16:3.94398e-07 17:-0.00110376 18:0 19:0 20:0 21:0 22:0 23:0 24:0 25:0 26:0 27:0.00064239599 28:0.0080183595 29:0.99996603 30:0.000502259 31:-0 #
0.790988351204539585914687904733 1:1.03874e-08 2:0.00015797401 3:9.7370303e-06 4:0.000148256 5:-3.7627698e-05 6:-2.84691e-07 7:-1.04956e-06 8:0.035263699 9:0.96862799 10:2.4666799e-06 11:0.183391 12:-0.000166178 13:-0.00070587901 14:0.000219993 15:0.00021987699 16:1.15181e-07 17:-0.000213286 18:0 19:0 20:0 21:0 22:0 23:0 24:0 25:0 26:0 27:0.000169794 28:0.0043735602 29:0.16390499 30:0.000481903 31:-0 #
-0.790988351204539585914687904733 1:1.18362e-07 2:0.00094605901 3:0.00082919397 4:0.000122421 5:-0.00031443901 6:-4.7846399e-05 7:-1.8204701e-05 8:8.7851704e-06 9:4.33518e-05 10:0.000114959 11:-1.11431e-05 12:-2.23075e-05 13:-1.18476e-05 14:0.00094097102 15:0.00057959202 16:0.00036024599 17:0 18:0 19:0 20:0 21:0 22:0 23:0 24:0 25:0 26:-0.00630613 27:0.00076290203 28:0.0021976 29:0.999964 30:0.0026171 31:0.0040950198 #
0.790988351204539585914687904733 1:4.9949499e-08 2:0.00039794599 3:0.00025263801 4:0.000145649 5:0.000120704 6:-6.1670398e-06 7:2.88307e-06 8:0.113626 9:0.91152602 10:0.000150889 11:-0.045726702 12:0.000385149 13:0.00070002303 14:0.00045288101 15:0.00039788199 16:5.4925302e-05 17:0 18:0 19:0 20:0 21:0 22:0 23:0 24:0 25:0 26:0.00089675898 27:0.0003817 28:0.00112118 29:0.39256999 30:0.0010297 31:0.00159578 #
-0.790988351204539585914687904733 1:1.27522e-06 2:0.000976237 3:0.00031057899 4:0.00067929598 5:-0.000421415 6:-4.1068201e-05 7:-5.6994199e-05 8:0.016739801 9:0.055613901 10:0.00145319 11:-2.64597e-05 12:0.00172376 13:-0.00077502697 14:0.00098075904 15:0.00068223098 16:0.00027648101 17:0 18:0 19:0 20:0 21:0 22:0 23:0 24:0 25:0 26:-0.00267706 27:0.00117342 28:0.00148969 29:0.99829 30:0.00263475 31:0.0040882598 #
0.790988351204539585914687904733 1:3.2633301e-07 2:0.00087938702 3:0.000168276 4:0.00071130099 5:0.000345768 6:-3.08888e-06 7:6.3337402e-06 8:0.0002025 9:0.00016646599 10:0.000145736 11:5.8799102e-05 12:-1.5424701e-05 13:0.000104657 14:0.000646147 15:0.000178869 16:0.00038605 17:-0.00049883599 18:0 19:0 20:0 21:0 22:0 23:0 24:0 25:0 26:0 27:0.00093287497 28:0.0053452598 29:0.99998099 30:0.00257836 31:-0 #
-0.790988351204539585914687904733 1:1.93184e-06 2:0.00054513698 3:0.000134842 4:0.00042372101 5:-0.00023113401 6:-2.9327401e-05 7:-5.2909301e-05 8:1.8607399e-05 9:6.9359902e-07 10:1.64388e-07 11:3.5925e-06 12:1.74896e-06 13:3.3766801e-07 14:0.00074295502 15:0.00074295502 16:4.81822e-21 17:-0.00138495 18:0 19:0 20:0 21:0 22:0 23:0 24:0 25:0 26:0 27:0.000642384 28:0.0107663 29:0.99993998 30:0.00050224498 31:-0 #
0.790988351204539585914687904733 1:9.4349302e-09 2:0.000134127 3:8.3606201e-06 4:0.000125787 5:-3.19588e-05 6:-2.6663699e-07 7:-9.53138e-07 8:0.033909801 9:0.97314602 10:8.1988998e-07 11:0.180131 12:-0.000124681 13:-0.00058561697 14:0.000186726 15:0.00018662499 16:1.01802e-07 17:-0.00019402 18:0 19:0 20:0 21:0 22:0 23:0 24:0 25:0 26:0 27:0.000144124 28:0.0057603498 29:0.13912299 30:0.00040904101 31:-0 #
-0.790988351204539585914687904733 1:1.75125e-08 2:0.00024209201 3:4.0245399e-05 4:0.00020185301 5:-5.7988102e-05 6:-2.78404e-07 7:-7.0732602e-07 8:0.163165 9:0.90610099 10:5.47434e-06 11:-0.249988 12:-0.00062291097 13:0.000452159 14:0.00029676399 15:0.00027051801 16:2.6245199e-05 17:-0.000133758 18:0 19:0 20:0 21:0 22:0 23:0 24:0 25:0 26:0 27:0.00031223299 28:0.00046893701 29:0.29976901 30:0.00046330399 31:0.00101477 #
0.790988351204539585914687904733 1:3.6451499e-07 2:0.00093711098 3:2.16027e-05 4:0.00091667601 5:-0.000110245 6:-2.3476e-06 7:-2.19867e-05 8:0.033780001 9:0.037984699 10:0.00014157 11:0.0260274 12:-0.00065932597 13:-0.00083172199 14:0.00113484 15:0.00095603598 16:0.000176559 17:-0.0016089201 18:0 19:0 20:0 21:0 22:0 23:0 24:0 25:0 26:0 27:0.000947188 28:0.00359829 29:0.998353 30:0.0028393599 31:-0 #
-0.790988351204539585914687904733 1:3.5400899e-07 2:0.00052781502 3:1.7353899e-05 4:0.00051149499 5:-9.2386799e-05 6:-2.9446001e-06 7:-1.62545e-05 8:0.00046554499 9:4.1469601e-05 10:1.17766e-06 11:0.00013894599 12:2.3406699e-05 13:6.9859402e-06 14:0.00074116403 15:0.00074116298 16:1.18762e-09 17:-0.00089562702 18:0 19:0 20:0 21:0 22:0 23:0 24:0 25:0 26:0 27:0.00061599398 28:0.0043840399 29:0.99998897 30:0.00050045102 31:-0 #
0.790988351204539585914687904733 1:6.75725e-08 2:0.00043204601 3:0.000161155 4:0.000270955 5:0.000180345 6:-1.2207501e-06 7:1.3859e-06 8:0.17883199 9:0.85270798 10:0.000171805 11:-0.222853 12:-0.000439606 13:0.000122004 14:0.00050316902 15:0.00044200401 16:6.10719e-05 17:0 18:0 19:0 20:0 21:0 22:0 23:0 24:0 25:0 26:0.00023385001 27:0.00042035899 28:0.00122882 29:0.43730599 30:0.00116615 31:0.0017732 #
0.790988351204539585914687904733 1:3.3832799e-07 2:0.00098696398 3:0.00042459799 4:0.000564638 5:-0.00048818899 6:-2.13601e-05 7:-2.45917e-05 8:0.00076364499 9:0.00064199202 10:0.000255363 11:-0.00051016198 12:0.00017907 13:-1.2532399e-07 14:0.00097316102 15:0.00071076298 16:0.00018929801 17:-0.0023310899 18:0 19:0 20:0 21:0 22:0 23:0 24:0 25:0 26:0 27:0.00100804 28:0.0042083301 29:0.999982 30:0.0028721101 31:-0 #
0.790988351204539585914687904733 1:2.5862201e-07 2:0.00098561798 3:0.000179319 4:0.00080730498 5:-0.000379765 6:-9.13861e-06 7:-1.9364301e-05 8:0.00026451799 9:9.89236e-05 10:0.00021098299 11:-4.60021e-05 12:0.00010368 13:-5.8854701e-05 14:0.00085173099 15:0.00053389202 16:0.00014576101 17:-0.00179954 18:0 19:0 20:0 21:0 22:0 23:0 24:0 25:0 26:0 27:0.0010049 28:0.0052085798 29:0.99997801 30:0.0029472001 31:-0 #
0.790988351204539585914687904733 1:9.4090096e-09 2:0.000133828 3:8.1766602e-06 4:0.00012567401 5:-3.1616899e-05 6:-2.7759901e-07 7:-1.00944e-06 8:0.033794802 9:0.97317398 10:4.9136099e-07 11:0.180149 12:-4.2878899e-05 13:-0.000153626 14:0.000186391 15:0.00018631099 16:8.0012803e-08 17:-0.00020233401 18:0 19:0 20:0 21:0 22:0 23:0 24:0 25:0 26:0 27:0.000143848 28:0.0074095698 29:0.13885701 30:0.00040825899 31:-0 #
-0.790988351204539585914687904733 1:5.5154999e-07 2:0.00080371101 3:0.000410851 4:0.00040946199 5:-0.00040129901 6:-5.77799e-05 7:-5.76934e-05 8:0.0018147799 9:0.00053675799 10:3.7112201e-07 11:-0.00098696304 12:2.59519e-05 13:-1.41139e-05 14:0.0010724399 15:0.0010724399 16:4.48595e-23 17:-0.0041605202 18:0 19:0 20:0 21:0 22:0 23:0 24:0 25:0 26:0 27:0.00105628 28:0.024846399 29:0.99967098 30:0.0015317301 31:0.00336916 #
-0.790988351204539585914687904733 1:1.75125e-08 2:0.00024209201 3:4.0245399e-05 4:0.00020185301 5:-5.7988102e-05 6:-2.78404e-07 7:-7.0732602e-07 8:0.163165 9:0.90610099 10:5.47434e-06 11:-0.249988 12:-0.00062291097 13:0.000452159 14:0.00029676399 15:0.00027051801 16:2.6245199e-05 17:-0.000133758 18:0 19:0 20:0 21:0 22:0 23:0 24:0 25:0 26:0 27:0.00031223299 28:0.00046893701 29:0.29976901 30:0.00046330399 31:0.00101477 #
0.790988351204539585914687904733 1:2.57869e-07 2:0.00098578003 3:0.000179647 4:0.000806914 5:-0.000380151 6:-8.0954496e-06 7:-1.7122e-05 8:0.00031373801 9:0.000124617 10:0.000153324 11:-9.21756e-05 12:0.000107275 13:-7.3152798e-05 14:0.00093799899 15:0.00068025198 16:0.000111846 17:-0.00159408 18:0 19:0 20:0 21:0 22:0 23:0 24:0 25:0 26:0 27:0.0010049 28:0.00522784 29:0.99997902 30:0.0029472001 31:-0 #
-0.790988351204539585914687904733 1:1.36852e-06 2:0.00052658399 3:2.5216999e-05 4:0.00050723599 5:-0.00010567 6:-8.0617201e-06 7:-3.8468199e-05 8:0.00017280399 9:1.49803e-05 10:1.5771801e-07 11:5.0878902e-05 12:5.2205701e-06 13:1.5371e-06 14:0.000740221 15:0.000740221 16:1.4758099e-22 17:-0.00108388 18:0 19:0 20:0 21:0 22:0 23:0 24:0 25:0 26:0 27:0.00069826603 28:0.024545301 29:0.99969703 30:0.00049966801 31:-0 #
0.790988351204539585914687904733 1:5.6207199e-08 2:0.000395813 3:0.000200557 4:0.000195441 5:0.00014298801 6:-3.77877e-06 7:2.79907e-06 8:0.23934799 9:0.87918299 10:0.000146241 11:-0.113633 12:0.0012567 13:-0.00063605001 14:0.000406148 15:0.000306834 16:9.9250799e-05 17:0 18:0 19:0 20:0 21:0 22:0 23:0 24:0 25:0 26:0.000588461 27:0.00036591 28:0.00114614 29:0.396018 30:0.00103712 31:0.00158815 #
0.790988351204539585914687904733 1:2.5799801e-07 2:0.00098578399 3:0.000180292 4:0.00080648903 5:-0.00038060499 6:-9.1597403e-06 7:-1.9352199e-05 8:0.00032383401 9:0.000115951 10:0.000187319 11:-5.2390001e-06 12:8.8918299e-05 13:-5.91442e-05 14:0.00079494697 15:0.00040886301 16:0.00022546601 17:-0.00180152 18:0 19:0 20:0 21:0 22:0 23:0 24:0 25:0 26:0 27:0.00100492 28:0.0052166702 29:0.99997902 30:0.0029472001 31:-0 #
-0.790988351204539585914687904733 1:5.5077902e-07 2:0.000815626 3:0.00033007801 4:0.000486859 5:-0.00038342699 6:1.35906e-05 7:1.75356e-05 8:0.083956197 9:0.0095584001 10:3.7743601e-05 11:0.0235603 12:-0.000173779 13:-7.3784002e-05 14:0.00104466 15:0.00101331 16:3.0929201e-05 17:0.00115684 18:0 19:0 20:0 21:0 22:0 23:0 24:0 25:0 26:0 27:0.00107645 28:0.00098646502 29:0.99614 30:0.00155253 31:-0 #
0.790988351204539585914687904733 1:7.3480102e-08 2:0.00049064099 3:4.0536001e-05 4:0.000450241 5:-0.000132605 6:-1.6325999e-06 7:-5.25102e-06 8:0.0284987 9:0.84796202 10:2.0302799e-05 11:0.153409 12:0.00055331702 13:0.0033322701 14:0.00067965698 15:0.00067909498 16:5.5911102e-07 17:-0.00064529898 18:0 19:0 20:0 21:0 22:0 23:0 24:0 25:0 26:0 27:0.00052474398 28:0.00489678 29:0.50653201 30:0.00148928 31:-0 #
-0.790988351204539585914687904733 1:1.43202e-06 2:0.00078317203 3:9.8190503e-05 4:0.00070181699 5:-0.000161455 6:-1.43934e-05 7:-7.4784199e-05 8:0.0485835 9:0.0189454 10:2.67921e-05 11:0.0240454 12:-7.7852201e-05 13:-4.0334598e-05 14:0.00098323601 15:0.00089571899 16:8.7094297e-05 17:-0.0025915899 18:0 19:0 20:0 21:0 22:0 23:0 24:0 25:0 26:0 27:0.00105498 28:0.00110426 29:0.99833697 30:0.0015300401 31:0.0033652 #
0.790988351204539585914687904733 1:2.5779499e-07 2:0.00098599901 3:0.00018170199 4:0.000805313 5:-0.00038185 6:-9.3007102e-06 7:-1.9569001e-05 8:0.00017774 9:3.3307599e-05 10:0.00018200801 11:6.7833498e-05 12:9.7340802e-05 13:9.8930404e-06 14:0.00098728295 15:0.00063725398 16:0.00034569399 17:-0.00182258 18:0 19:0 20:0 21:0 22:0 23:0 24:0 25:0 26:0 27:0.00100492 28:0.00519322 29:0.99997801 30:0.0029472001 31:-0 #
-0.790988351204539585914687904733 1:1.05661e-07 2:0.00051348202 3:4.1123101e-05 4:0.000472393 5:0.000138428 6:-3.4416701e-07 7:1.13774e-06 8:0.0195772 9:0.082919396 10:0.000100698 11:-0.0392492 12:0.00031409401 13:-0.00070140499 14:0.00070619601 15:0.00070053502 16:5.00535e-06 17:0.000105927 18:0 19:0 20:0 21:0 22:0 23:0 24:0 25:0 26:0 27:0.000626127 28:0.00069085299 29:0.99558902 30:0.000540482 31:-0 #
0.790988351204539585914687904733 1:4.8120499e-09 2:9.4831499e-05 3:5.28284e-06 4:8.9560497e-05 5:-2.16557e-05 6:-1.6252901e-07 7:-6.4203601e-07 8:0.038679 9:0.97519797 10:2.8868601e-07 11:0.194216 12:-0.00010567 13:-0.00053059001 14:0.000132331 15:0.000132331 16:8.6620805e-22 17:-0.000146689 18:0 19:0 20:0 21:0 22:0 23:0 24:0 25:0 26:0 27:0.000102082 28:0.0078645404 29:0.098540902 30:0.000289724 31:-0 #
-0.790988351204539585914687904733 1:1.27344e-06 2:0.000562976 3:0.000265382 4:0.00030710999 5:-0.00015634199 6:-2.93581e-05 7:-1.08909e-05 8:0.046416398 9:0.156057 10:2.0416001e-05 11:0.051198401 12:0.000216905 13:0.000172691 14:0.00061981601 15:0.00052758103 16:9.2166098e-05 17:-0.00137126 18:0 19:0 20:0 21:0 22:0 23:0 24:0 25:0 26:0 27:0.00066718803 28:0.000470778 29:0.98532599 30:0.00050759898 31:-0 #
0.790988351204539585914687904733 1:4.0979799e-07 2:0.00097821304 3:8.2028397e-05 4:0.00089662097 5:0.000262972 6:3.9484598e-06 7:-1.33299e-05 8:0.0174863 9:0.00185448 10:6.6755601e-05 11:-0.00176303 12:-0.000116865 13:-0.000124471 14:0.00123491 15:0.0011183 16:0.0001128 17:-0.000945359 18:0 19:0 20:0 21:0 22:0 23:0 24:0 25:0 26:0 27:0.00105192 28:0.0091850897 29:0.99979401 30:0.0029042901 31:-0 #
0.790988351204539585914687904733 1:6.1585098e-08 2:0.00054481003 3:0.00034888901 4:0.00019595301 5:0.00017791901 6:-3.2386801e-08 7:6.56324e-07 8:0.29095799 9:0.738747 10:0.000185731 11:0.33630601 12:-0.00186459 13:-0.0061796601 14:0.00062367501 15:0.00054844102 16:7.5147997e-05 17:0 18:0 19:0 20:0 21:0 22:0 23:0 24:0 25:0 26:3.0237899e-05 27:0.000607703 28:0.0022615499 29:0.50639802 30:0.00147712 31:0.0021959599 #
-0.790988351204539585914687904733 1:3.1514901e-06 2:0.000554392 3:0.00027554299 4:0.00029360101 5:0.00027704099 6:4.44746e-05 7:-4.5948102e-05 8:1.59576e-06 9:1.14693e-06 10:2.1162501e-09 11:1.30558e-06 12:5.7995798e-08 13:4.6632898e-08 14:0.00072922301 15:0.00071660499 16:1.26177e-05 17:-0.0011349299 18:0 19:0 20:0 21:0 22:0 23:0 24:0 25:0 26:0 27:0.00064141297 28:0.055810701 29:0.99844003 30:0.000501492 31:-0 #
-0.790988351204539585914687904733 1:9.0602001e-08 2:0.00052340497 3:5.6286401e-05 4:0.00046717399 5:0.000161727 6:1.0574799e-06 7:-3.01711e-06 8:0.0053525898 9:0.023688599 10:6.7236499e-05 11:-0.0086257197 12:-0.00016532 13:0.000160786 14:0.00067259901 15:0.00062453101 16:4.6558402e-05 17:-0.00033378301 18:0 19:0 20:0 21:0 22:0 23:0 24:0 25:0 26:0 27:0.00070828502 28:0.00062587799 29:0.99966598 30:0.00051558198 31:-0 #
-0.790988351204539585914687904733 1:2.5096199e-07 2:0.00079478999 3:0.00063185301 4:0.000163139 5:-0.000305889 6:-7.76055e-06 7:-3.76149e-06 8:0.045943201 9:0.077055097 10:1.94727e-05 11:0.021121699 12:7.2844398e-07 13:3.9044498e-06 14:0.00076517102 15:0.00045757799 16:0.000307423 17:-0.00066666398 18:0 19:0 20:0 21:0 22:0 23:0 24:0 25:0 26:0 27:0.00103715 28:0.00146086 29:0.99573398 30:0.00153894 31:0.00337072 #
0.790988351204539585914687904733 1:7.3207502e-08 2:0.00034106101 3:0.000126 4:0.000215252 5:7.8806799e-05 6:-3.1336101e-06 7:2.3120199e-06 8:0.029720001 9:0.938999 10:7.7958597e-05 11:0.0196083 12:-0.000108385 13:-0.00100179 14:0.00041680201 15:0.00040380299 16:1.29647e-05 17:0 18:0 19:0 20:0 21:0 22:0 23:0 24:0 25:0 26:0.000455478 27:0.000234666 28:0.00091788801 29:0.34206399 30:0.000882386 31:0.00135036 #
-0.790988351204539585914687904733 1:1.86617e-06 2:0.000520217 3:1.56889e-05 4:0.00051505299 5:-7.2882503e-05 6:-7.4050599e-06 7:-5.1794701e-05 8:5.3773601e-06 9:4.0291899e-09 10:3.8417398e-09 11:-1.47195e-07 12:1.4373001e-07 13:-3.9343502e-09 14:0.00073770201 15:0.00073770201 16:3.9909099e-22 17:-0.00123878 18:0 19:0 20:0 21:0 22:0 23:0 24:0 25:0 26:0 27:0.00061313802 28:0.096643202 29:0.99531698 30:0.00049811299 31:-0 #
0.790988351204539585914687904733 1:2.7799899e-07 2:0.00088238 3:0.00076148502 4:0.000121822 5:0.00030375499 6:-1.8109e-05 7:7.1832701e-06 8:0.00075858901 9:0.00096564699 10:0.00014508799 11:-0.00064919097 12:-0.00024488999 13:0.00030606901 14:0.00105145 15:0.00091829099 16:0.000107 17:-0.00151178 18:0 19:0 20:0 21:0 22:0 23:0 24:0 25:0 26:0 27:0.00099017902 28:0.0052897101 29:0.99997801 30:0.0026240801 31:-0 #
-0.790988351204539585914687904733 1:6.4341898e-06 2:0.00083799398 3:0.000211887 4:0.00063054002 5:6.1075203e-05 6:3.8429698e-06 7:-1.12924e-05 8:0.032350201 9:0.090276301 10:0.00033729101 11:-0.0040857899 12:-0.00035350499 13:0.00120362 14:0.00078948302 15:0.00051000202 16:0.00027670601 17:-0.000184887 18:0 19:0 20:0 21:0 22:0 23:0 24:0 25:0 26:0 27:0.00068911701 28:0.00229478 29:0.99537098 30:0.00150544 31:0.00336697 #
0.790988351204539585914687904733 1:2.75746e-07 2:0.00096780399 3:8.0295104e-05 4:0.00088810403 5:-0.00026513799 6:-4.8444899e-06 7:-1.61304e-05 8:0.0019789599 9:0.0158893 10:1.8332201e-05 11:-0.0022770599 12:1.19252e-05 13:-6.4033899e-05 14:0.00121991 15:0.00109864 16:0.000119915 17:-0.00138714 18:0 19:0 20:0 21:0 22:0 23:0 24:0 25:0 26:0 27:0.00103566 28:0.0163306 29:0.99972802 30:0.00293934 31:-0 #
-0.790988351204539585914687904733 1:2.28041e-08 2:0.00027251599 3:9.5371302e-05 4:0.000177264 5:-7.8632802e-05 6:1.94062e-06 7:2.02721e-06 8:0.207232 9:0.86601597 10:0.00034195601 11:-0.32064101 12:-0.0030545201 13:0.00138792 14:0.00032277801 15:0.00029783 16:2.48623e-05 17:0.000443525 18:0 19:0 20:0 21:0 22:0 23:0 24:0 25:0 26:0 27:0.000242455 28:0.000715309 29:0.32287201 30:0.00050090102 31:0.00109269 #
-0.790988351204539585914687904733 1:9.1349499e-08 2:0.00032904901 3:4.7698399e-05 4:0.000281482 5:5.4477001e-05 6:-4.7418601e-07 7:1.29996e-08 8:0.21346401 9:0.84395999 10:0.000304402 11:-0.351634 12:0.00183133 13:-0.00262721 14:0.000415477 15:0.00039204201 16:2.3315401e-05 17:0 18:0 19:0 20:0 21:0 22:0 23:0 24:0 25:0 26:-7.5202901e-05 27:0.00030457901 28:0.00099839503 29:0.34424299 30:0.000733094 31:0.00137926 #
0.790988351204539585914687904733 1:2.8331499e-07 2:0.00096821203 3:6.8713998e-05 4:0.00090040098 5:-0.000247469 6:-5.4529e-06 7:-1.983e-05 8:0.0014061501 9:0.0098975198 10:5.4630498e-05 11:0.0019968499 12:-0.00010197 13:-0.000312797 14:0.00122795 15:0.0011139699 16:0.000108863 17:-0.00168005 18:0 19:0 20:0 21:0 22:0 23:0 24:0 25:0 26:0 27:0.00099119905 28:0.0083880601 29:0.99990398 30:0.00293994 31:-0 #
0.790988351204539585914687904733 1:2.8608801e-07 2:0.00096835202 3:6.9159098e-05 4:0.00090001198 5:-0.00024823399 6:-5.2065802e-06 7:-1.8877199e-05 8:0.00155847 9:0.0106687 10:5.5056498e-05 11:0.0020240501 12:-8.7804103e-05 13:-0.00020566701 14:0.00121765 15:0.00109364 16:0.000118644 17:-0.00159042 18:0 19:0 20:0 21:0 22:0 23:0 24:0 25:0 26:0 27:0.00099117705 28:0.0083543696 29:0.999897 30:0.0029399099 31:-0 #
0.790988351204539585914687904733 1:3.3751201e-07 2:0.00095509499 3:2.32452e-05 4:0.00093227898 5:-0.00014349799 6:-2.1220201e-06 7:-1.39412e-05 8:0.0029826299 9:0.0137253 10:2.61935e-05 11:-0.00191282 12:-0.000143453 13:0.000116833 14:0.00112785 15:0.000914609 16:0.000211704 17:-0.00105508 18:0 19:0 20:0 21:0 22:0 23:0 24:0 25:0 26:0 27:0.0010357701 28:0.0131819 29:0.99980497 30:0.00293957 31:-0 #
-0.790988351204539585914687904733 1:3.0736801e-06 2:0.00055112998 3:0.000295593 4:0.00026946401 5:0.00027525399 6:4.48309e-05 7:-4.2753702e-05 8:8.3410498e-07 9:1.22968e-07 10:1.18003e-09 11:3.2026199e-07 12:3.1373101e-08 13:1.2046e-08 14:0.00073711702 15:0.00073711702 16:1.6754e-20 17:-0.00110947 18:0 19:0 20:0 21:0 22:0 23:0 24:0 25:0 26:0 27:0.00063733099 28:0.12557501 29:0.992082 30:0.00049829902 31:-0 #
0.790988351204539585914687904733 1:4.9201201e-08 2:0.00032882299 3:0.000143279 4:0.000185718 5:0.000111336 6:-3.17644e-06 7:2.5255899e-06 8:0.113105 9:0.93250602 10:0.000119351 11:-0.10012 12:0.000787672 13:-0.00137771 14:0.000378461 15:0.00033797199 16:4.0443501e-05 17:0 18:0 19:0 20:0 21:0 22:0 23:0 24:0 25:0 26:0.000511077 27:0.00027806201 28:0.00086572801 29:0.32803801 30:0.00085932802 31:0.00131631 #
-0.790988351204539585914687904733 1:2.10458e-07 2:0.00052145502 3:3.12125e-07 4:0.00052139198 5:-9.8495602e-06 6:-1.52274e-07 7:-8.0565596e-06 8:1.0605e-05 9:1.3308201e-06 10:1.18934e-08 11:3.75678e-06 12:3.5514799e-07 13:1.25809e-07 14:0.000737514 15:0.000737514 16:8.1332703e-21 17:-0.00056729198 18:0 19:0 20:0 21:0 22:0 23:0 24:0 25:0 26:0 27:0.00069569697 28:0.088884398 29:0.996041 30:0.00049784 31:-0 #
0.790988351204539585914687904733 1:5.5376699e-08 2:0.00039487801 3:0.00020048 4:0.00019458 5:0.00014115201 6:-3.7432701e-06 7:2.8290899e-06 8:0.26047099 9:0.875256 10:0.000142691 11:-0.10115 12:0.00127042 13:-0.000921042 14:0.00039548901 15:0.00028712599 16:0.000108303 17:0 18:0 19:0 20:0 21:0 22:0 23:0 24:0 25:0 26:0.00058876298 27:0.000371595 28:0.00116468 29:0.39476901 30:0.00103384 31:0.0015830901 #
-0.790988351204539585914687904733 1:9.2722502e-08 2:0.000448187 3:0.000159149 4:0.00028958899 5:0.000162816 6:-4.3003001e-06 7:4.3979398e-06 8:0.123102 9:0.87629402 10:0.00097354403 11:-0.116478 12:0.00135991 13:-0.00105302 14:0.00051842898 15:0.000457235 16:6.06385e-05 17:0 18:0 19:0 20:0 21:0 22:0 23:0 24:0 25:0 26:0.00065935502 27:0.00031940601 28:0.00093229598 29:0.45097399 30:0.0012000001 31:0.00182269 #
0.790988351204539585914687904733 1:3.48345e-07 2:0.000947872 3:6.2082501e-05 4:0.00088644202 5:0.00023183299 6:3.9807901e-06 7:-1.48759e-05 8:0.0183763 9:0.22029801 10:0.000216824 11:-0.055831801 12:-0.000233065 13:-0.00029138001 14:0.00129676 15:0.00127472 16:2.0981301e-05 17:-0.00116138 18:0 19:0 20:0 21:0 22:0 23:0 24:0 25:0 26:0 27:0.0010244 28:0.00346055 29:0.97364599 30:0.00282833 31:-0 #
0.790988351204539585914687904733 1:4.89167e-08 2:0.00032381801 3:0.00013731301 4:0.00018667401 5:0.000107352 6:-3.0491101e-06 7:2.40023e-06 8:0.092198901 9:0.93837702 10:0.000119075 11:-0.081719697 12:0.000615998 13:-0.00083420897 14:0.00037862 15:0.00034485399 16:3.37196e-05 17:0 18:0 19:0 20:0 21:0 22:0 23:0 24:0 25:0 26:0.00049380498 27:0.00026264999 28:0.00081290997 29:0.3229 30:0.00084587798 31:0.00129569 #
-0.790988351204539585914687904733 1:2.46487e-06 2:0.000442349 3:2.09644e-05 4:0.00043370301 5:-7.9556397e-05 6:-9.5490104e-06 7:-5.13173e-05 8:6.2703498e-07 9:5.6807501e-14 10:7.7593001e-11 11:-1.88733e-10 12:6.9752102e-09 13:-2.0994901e-12 14:0.00062711298 15:0.00062711298 16:6.7980101e-23 17:-0.00099133898 18:0 19:0 20:0 21:0 22:0 23:0 24:0 25:0 26:0 27:0.000521229 28:0.53300899 29:0.84610802 30:0.00042344001 31:-0 #
-0.790988351204539585914687904733 1:1.69399e-06 2:0.00083168002 3:0.00026545199 4:0.000570337 5:-0.00025382699 6:-1.77575e-05 7:-3.1683201e-05 8:0.063688703 9:0.0486359 10:3.2067801e-05 11:-0.018589299 12:-0.000201717 13:0.000187144 14:0.00072846998 15:0.00038336901 16:0.00034480399 17:-0.00116799 18:0 19:0 20:0 21:0 22:0 23:0 24:0 25:0 26:0 27:0.001038 28:0.000989564 29:0.99660099 30:0.0015402799 31:0.0033736499 #
0.790988351204539585914687904733 1:1.83602e-07 2:0.000923605 3:0.00025852901 4:0.00066623098 5:-0.00040578199 6:-1.17119e-05 7:-1.8532901e-05 8:0.046236798 9:0.27822599 10:0.000199571 11:0.0660282 12:-0.000145946 13:0.000194283 14:0.0011261899 15:0.00101665 16:0.000108785 17:-0.00213666 18:0 19:0 20:0 21:0 22:0 23:0 24:0 25:0 26:0 27:0.00081271201 28:0.0027007901 29:0.95711499 30:0.00269931 31:-0 #
0.790988351204539585914687904733 1:7.3497802e-08 2:0.00043171199 3:1.61566e-05 4:0.00041563399 5:-2.47427e-05 6:-2.1825799e-07 7:-3.2042001e-06 8:0.12859499 9:0.88556498 10:9.4681898e-05 11:0.040065799 12:0.000231717 13:0.00190997 14:0.000525132 15:0.00045031001 16:7.4769203e-05 17:-0.000372993 18:0 19:0 20:0 21:0 22:0 23:0 24:0 25:0 26:0 27:0.00045156601 28:0.00136235 29:0.44454899 30:0.00129859 31:-0 #
-0.790988351204539585914687904733 1:6.3137998e-07 2:0.00042527201 3:4.7164402e-05 4:0.00038030301 5:-0.000132168 6:-7.1099398e-06 7:-2.03993e-05 8:2.2838201e-06 9:6.7724699e-08 10:1.2883e-10 11:3.9328199e-07 12:-1.7153001e-08 13:-2.9538101e-09 14:0.00058791699 15:0.00058791699 16:1.95598e-21 17:-0.00077508198 18:0 19:0 20:0 21:0 22:0 23:0 24:0 25:0 26:0 27:0.00055459602 28:0.60791099 29:0.79400402 30:0.000396858 31:-0 #
-0.790988351204539585914687904733 1:2.24205e-07 2:0.000510154 3:2.9753101e-05 4:0.000480552 5:0.00011601 6:8.0550399e-07 7:-3.7233399e-06 8:0.023337301 9:0.13573501 10:0.000115277 11:-0.054375499 12:0.00043016701 13:-0.00139434 14:0.00070458802 15:0.00069855701 16:5.6302501e-06 17:-0.000298467 18:0 19:0 20:0 21:0 22:0 23:0 24:0 25:0 26:0 27:0.00065761199 28:0.00088945997 29:0.98897398 30:0.000528829 31:-0 #
0.790988351204539585914687904733 1:2.5803601e-07 2:0.00098569202 3:0.00017961299 4:0.00080703199 5:-0.00038004201 6:-8.92552e-06 7:-1.88873e-05 8:0.00028372501 9:0.000121582 10:0.00019099801 11:-5.4135198e-05 12:0.000109936 13:-7.4004602e-05 14:0.00086658099 15:0.00055596099 16:0.00014617199 17:-0.00175774 18:0 19:0 20:0 21:0 22:0 23:0 24:0 25:0 26:0 27:0.00100492 28:0.0052316599 29:0.99997801 30:0.0029472001 31:-0 #
-0.790988351204539585914687904733 1:8.6561801e-07 2:0.00050210202 3:5.1933799e-05 4:0.00045346 5:-0.000150733 6:-9.0971498e-06 7:-2.7268399e-05 8:2.24102e-06 9:2.6277399e-07 10:6.7280698e-10 11:7.6738598e-07 12:-3.8829999e-08 13:-1.32965e-08 14:0.00069568498 15:0.00069568498 16:1.63103e-20 17:-0.00095924502 18:0 19:0 20:0 21:0 22:0 23:0 24:0 25:0 26:0 27:0.00065625599 28:0.34241101 29:0.93954903 30:0.00046960401 31:-0 #
0.790988351204539585914687904733 1:5.17161e-08 2:0.00033764099 3:0.00014349799 4:0.000194326 5:0.000111541 6:-3.2707501e-06 7:2.5631e-06 8:0.083876498 9:0.93606901 10:0.00013003001 11:-0.058639299 12:0.00074839202 13:-0.00058398099 14:0.00039619001 15:0.00036253099 16:3.3607099e-05 17:0 18:0 19:0 20:0 21:0 22:0 23:0 24:0 25:0 26:0.00052074902 27:0.000264715 28:0.000818389 29:0.336595 30:0.00088174897 31:0.00135057 #
-0.790988351204539585914687904733 1:1.13857e-06 2:0.00056237698 3:0.00036937499 4:0.00020423099 5:-0.000133079 6:-4.1201201e-05 7:-9.8839701e-06 8:0.0403556 9:0.114105 10:1.57873e-05 11:0.037967201 12:0.00016844 13:-4.3301799e-05 14:0.00060402497 15:0.00049123401 16:0.000112724 17:-0.00158837 18:0 19:0 20:0 21:0 22:0 23:0 24:0 25:0 26:0 27:0.00067164301 28:0.00046995701 29:0.99191999 30:0.00051099702 31:-0 #
0.790988351204539585914687904733 1:6.1619198e-07 2:0.00089189701 3:2.35522e-05 4:0.00086984102 5:-4.1331899e-05 6:-6.8736898e-07 7:-2.06566e-05 8:0.043169301 9:0.28104299 10:0.00028163 11:0.0168796 12:-0.00053793698 13:-0.00088072103 14:0.00108454 15:0.00092321401 16:0.000160275 17:-0.00123972 18:0 19:0 20:0 21:0 22:0 23:0 24:0 25:0 26:0 27:0.00088798202 28:0.00251852 29:0.958565 30:0.0026737901 31:-0 #
-0.790988351204539585914687904733 1:1.64453e-07 2:0.00048468201 3:1.08876e-05 4:0.00047448601 5:7.0653703e-05 6:-1.90837e-06 7:1.28045e-05 8:7.0441398e-05 9:5.5406499e-06 10:2.68197e-08 11:1.19633e-05 12:1.36209e-06 13:2.7244201e-07 14:0.000651585 15:0.000621018 16:3.0566898e-05 17:-0.000989174 18:0 19:0 20:0 21:0 22:0 23:0 24:0 25:0 26:0 27:0.00045568001 28:0.33500001 29:0.94221699 30:0.00048488699 31:-0 #
0.790988351204539585914687904733 1:7.1574398e-08 2:0.00034165799 3:0.000119632 4:0.00022219399 5:8.6833301e-05 6:-2.8500999e-06 7:2.36288e-06 8:0.0288831 9:0.93805802 10:7.5347001e-05 11:0.0086987903 12:-8.7787601e-05 13:-0.00097580301 14:0.00042060501 15:0.00040769301 16:1.2879e-05 17:0 18:0 19:0 20:0 21:0 22:0 23:0 24:0 25:0 26:0.000433259 27:0.00023246701 28:0.00090771401 29:0.34515399 30:0.00089046499 31:0.0013620401 #
-0.790988351204539585914687904733 1:1.6292501e-06 2:0.00092663697 3:4.4867302e-05 4:0.00088728103 5:-4.97404e-05 6:-1.5441e-06 7:-3.39217e-05 8:0.033229999 9:0.15917499 10:0.00094082003 11:0.039986901 12:0.00125368 13:0.00098281296 14:0.0011353299 15:0.000991432 16:0.000137984 17:0 18:0 19:0 20:0 21:0 22:0 23:0 24:0 25:0 26:-0.00125903 27:0.00115886 28:0.00146519 29:0.98586202 30:0.00260195 31:0.0040373602 #
0.790988351204539585914687904733 1:2.81236e-07 2:0.00096821698 3:6.8699497e-05 4:0.00090038398 5:-0.000247502 6:-5.3700501e-06 7:-1.95265e-05 8:0.00137126 9:0.0104224 10:3.96061e-05 11:0.00211655 12:-4.3309101e-05 13:-9.67702e-05 14:0.00124011 15:0.0011375099 16:9.82641e-05 17:-0.00165689 18:0 19:0 20:0 21:0 22:0 23:0 24:0 25:0 26:0 27:0.00099118298 28:0.0083623901 29:0.99989903 30:0.0029399199 31:-0 #
-0.790988351204539585914687904733 1:2.15452e-07 2:0.00051984901 3:4.62156e-06 4:0.00051553 5:-4.7988698e-05 6:-8.2233998e-07 7:-8.8321704e-06 8:1.36531e-05 9:4.68599e-06 10:5.1564801e-09 11:7.9986303e-06 12:-2.65333e-07 13:-1.5544499e-07 14:0.00073376897 15:0.00073376897 16:5.6815198e-20 17:-0.00061502203 18:0 19:0 20:0 21:0 22:0 23:0 24:0 25:0 26:0 27:0.00069218298 28:0.13398001 29:0.99098301 30:0.00049531198 31:-0 #
0.790988351204539585914687904733 1:7.47388e-08 2:0.00034764301 3:0.000114646 4:0.00023316601 5:9.0394897e-05 6:-2.7966901e-06 7:2.5186e-06 8:0.0258468 9:0.935211 10:7.5269701e-05 11:0.0070591201 12:-0.000151407 13:-0.00103544 14:0.00043140899 15:0.00041951201 16:1.18636e-05 17:0 18:0 19:0 20:0 21:0 22:0 23:0 24:0 25:0 26:0.00043591601 27:0.00023416 28:0.00091085199 29:0.35306901 30:0.000910962 31:0.0013928 #
0.790988351204539585914687904733 1:7.0445502e-08 2:0.00069918402 3:0.000173737 4:0.00052551401 5:0.00029570199 6:1.4014601e-06 7:-2.3375401e-06 8:0.31226 9:0.56334603 10:0.00028038601 11:-0.349071 12:-0.00070936797 13:-0.00107514 14:0.00086750003 15:0.00079577998 16:7.1442802e-05 17:0 18:0 19:0 20:0 21:0 22:0 23:0 24:0 25:0 26:-0.00038921399 27:0.00081657799 28:0.00246452 29:0.680632 30:0.0019853499 31:0.00295152 #
0.790988351204539585914687904733 1:2.4970399e-07 2:0.00087233901 3:4.8226801e-05 4:0.00082429597 5:-0.000198997 6:-1.54782e-06 7:-6.24937e-06 8:0.000394117 9:0.000282814 10:0.000229579 11:-0.000112942 12:0.000167001 13:-0.00014580401 14:0.00080072501 15:0.00050605199 16:0.000172528 17:0.00053276902 18:0 19:0 20:0 21:0 22:0 23:0 24:0 25:0 26:0 27:0.00084672298 28:0.0036258399 29:0.99998802 30:0.00252628 31:-0 #
-0.790988351204539585914687904733 1:8.0690903e-08 2:0.000752814 3:9.8084695e-07 4:0.00075369299 5:3.26451e-06 6:1.15652e-07 7:-2.64518e-05 8:0.000976376 9:0.00035357699 10:1.69169e-08 11:0.00058755802 12:-4.0641398e-06 13:-2.4456899e-06 14:0.0010656 15:0.0010656 16:3.72106e-20 17:-0.0036166899 18:0 19:0 20:0 21:0 22:0 23:0 24:0 25:0 26:0 27:0.0010495801 28:0.115301 29:0.99331403 30:0.00152192 31:0.00334767 #
0.790988351204539585914687904733 1:5.1278398e-08 2:0.000413161 3:0.00028294901 4:0.00013056101 5:0.000108691 6:-6.55745e-06 7:2.56456e-06 8:0.17952301 9:0.89475203 10:0.00014576199 11:-0.0100486 12:0.000326857 13:0.00086938002 14:0.00044047501 15:0.00035218199 16:8.8222601e-05 17:0 18:0 19:0 20:0 21:0 22:0 23:0 24:0 25:0 26:0.00093551498 27:0.000424553 28:0.0012503 29:0.408757 30:0.00107049 31:0.0016614 #
-0.790988351204539585914687904733 1:8.0690903e-08 2:0.000752814 3:9.8084695e-07 4:0.00075369299 5:3.26451e-06 6:1.15652e-07 7:-2.64518e-05 8:0.000976376 9:0.00035357699 10:1.69169e-08 11:0.00058755802 12:-4.0641398e-06 13:-2.4456899e-06 14:0.0010656 15:0.0010656 16:3.72106e-20 17:-0.0036166899 18:0 19:0 20:0 21:0 22:0 23:0 24:0 25:0 26:0 27:0.0010495801 28:0.115301 29:0.99331403 30:0.00152192 31:0.00334767 #
0.790988351204539585914687904733 1:4.2221199e-08 2:0.00052196003 3:0.00019327999 4:0.00032872299 5:0.00024939899 6:1.4083e-06 7:-1.68517e-06 8:0.35390499 9:0.65608799 10:0.00022142399 11:-0.43853599 12:-0.0032586099 13:0.001883 14:0.00066449097 15:0.000636218 16:2.8169299e-05 17:0 18:0 19:0 20:0 21:0 22:0 23:0 24:0 25:0 26:-0.00031166 27:0.00060230203 28:0.00180195 29:0.50195599 30:0.0014641701 31:0.0021766999 #
-0.790988351204539585914687904733 1:1.25879e-07 2:0.00048727001 3:0.000107452 4:0.00038048101 5:-1.58085e-05 6:1.70651e-06 7:8.3311697e-06 8:0.35009 9:0.66173798 10:0.00076860801 11:-0.39971599 12:0.0042942502 13:-0.0084782299 14:0.00057965599 15:0.00053197198 16:4.72797e-05 17:0.00067882601 18:0.0013290501 19:0.00125778 20:0.0011785401 21:0.00171399 22:0.00084652501 23:0.00149495 24:0.0014105 25:0.0019563199 26:0.00057644799 27:0.00051211601 28:0.0016180699 29:0.52881902 30:0.00097186002 31:0.00197212 #
0.790988351204539585914687904733 1:5.3597802e-08 2:0.00053392898 3:0.00018257101 4:0.00035140201 5:0.00025045199 6:7.4859298e-07 7:-9.7378802e-07 8:0.33918101 9:0.65680999 10:0.000223877 11:-0.434376 12:0.0015038199 13:-0.00294457 14:0.00068490498 15:0.00065958902 16:2.51685e-05 17:0 18:0 19:0 20:0 21:0 22:0 23:0 24:0 25:0 26:-0.000210764 27:0.00061750598 28:0.00190248 29:0.51463699 30:0.00150115 31:0.0022316901 #
-0.790988351204539585914687904733 1:3.1570701e-07 2:0.00051147398 3:2.26182e-05 4:0.00048918999 5:8.5253203e-05 6:8.6301799e-07 7:-6.8967402e-06 8:0.029883699 9:0.124442 10:0.000111492 11:-0.0494688 12:0.00041750001 13:-0.00061286701 14:0.00067242398 15:0.00063207501 16:3.9861799e-05 17:-0.00043665699 18:0 19:0 20:0 21:0 22:0 23:0 24:0 25:0 26:0 27:0.00065927202 28:0.00087158498 29:0.99054098 30:0.00052698801 31:-0 #
-0.790988351204539585914687904733 1:2.6350101e-08 2:0.000277474 3:0.000104549 4:0.000173016 5:-6.64771e-05 6:1.51214e-06 7:1.2944e-06 8:0.284742 9:0.80481899 10:0.00036147199 11:-0.40718001 12:-0.00381446 13:0.00179827 14:0.00032979401 15:0.00030998301 16:1.97313e-05 17:0.00028976001 18:0 19:0 20:0 21:0 22:0 23:0 24:0 25:0 26:0 27:0.000243737 28:0.00071911397 29:0.32460999 30:0.00050359702 31:0.0010985699 #
0.790988351204539585914687904733 1:2.58157e-07 2:0.00098599505 3:0.00018149499 4:0.000805452 5:-0.000381697 6:-9.0581398e-06 7:-1.90754e-05 8:0.000250827 9:4.8686801e-05 10:0.000135897 11:0.000103017 12:8.27478e-05 13:1.34046e-05 14:0.00101291 15:0.00069021201 16:0.00031666001 17:-0.00177511 18:0 19:0 20:0 21:0 22:0 23:0 24:0 25:0 26:0 27:0.00100491 28:0.0051876102 29:0.99997801 30:0.0029472001 31:-0 #
0.790988351204539585914687904733 1:4.9144699e-08 2:0.00032558601 3:0.00014027199 4:0.000185492 5:0.00010754 6:-3.2124899e-06 7:2.4471401e-06 8:0.083513699 9:0.93904102 10:0.000122343 11:-0.077396601 12:0.000798091 13:-0.00078495702 14:0.000383262 15:0.00035223801 16:3.0977499e-05 17:0 18:0 19:0 20:0 21:0 22:0 23:0 24:0 25:0 26:0.00051053002 27:0.00025735999 28:0.00079172303 29:0.324395 30:0.00084979302 31:0.00130166 #
-0.790988351204539585914687904733 1:1.63791e-07 2:0.000930015 3:0.00087884598 4:5.3710701e-05 5:-0.00020148201 6:-3.1720199e-05 7:-6.70807e-06 8:0.0091369096 9:0.0451927 10:0.00126519 11:-0.020299099 12:0.00233137 13:-0.0053864899 14:0.00128193 15:0.00126714 16:1.46663e-05 17:0 18:0 19:0 20:0 21:0 22:0 23:0 24:0 25:0 26:0.0034048299 27:0.00058410602 28:0.0024846699 29:0.99869001 30:0.0022531101 31:0.0040741898 #
0.790988351204539585914687904733 1:2.4955e-07 2:0.00096993602 3:8.4228901e-05 4:0.00088612101 5:-0.00027109499 6:-4.0060499e-06 7:-1.32401e-05 8:0.0077964901 9:0.00183148 10:4.7410798e-05 11:0.0032401499 12:-0.000241874 13:-8.5460699e-05 14:0.00128159 15:0.00122448 16:5.1649102e-05 17:-0.00119853 18:0 19:0 20:0 21:0 22:0 23:0 24:0 25:0 26:0 27:0.00104262 28:0.0068190699 29:0.99993098 30:0.0029386501 31:-0 #
-0.790988351204539585914687904733 1:1.78765e-06 2:0.00082584698 3:0.00026269699 4:0.00056757301 5:-0.00028046701 6:-2.0023101e-05 7:-3.1261399e-05 8:0.043742102 9:0.069247603 10:3.5271201e-05 11:-0.0061695599 12:-4.7186601e-05 13:8.0177502e-05 14:0.00067137397 15:0.000269204 16:0.00040183601 17:-0.00117832 18:0 19:0 20:0 21:0 22:0 23:0 24:0 25:0 26:0 27:0.00103801 28:0.00098981196 29:0.996611 30:0.0015403 31:0.0033736899 #
-0.790988351204539585914687904733 1:2.6113199e-07 2:0.00052574603 3:1.2927e-05 4:0.00051318202 5:-8.08568e-05 6:-1.51982e-06 7:-9.6421099e-06 8:9.35359e-06 9:1.33562e-06 10:3.06594e-08 11:3.5345199e-06 12:5.35514e-07 13:2.0236e-07 14:0.00073930097 15:0.00073930097 16:0 17:-0.00061589002 18:0 19:0 20:0 21:0 22:0 23:0 24:0 25:0 26:0 27:0.00069740397 28:0.055569202 29:0.99845302 30:0.000499046 31:-0 #
0.790988351204539585914687904733 1:5.4995098e-08 2:0.00039963101 3:0.000222713 4:0.00017712799 5:0.000131976 6:-4.3793998e-06 7:2.70845e-06 8:0.12841199 9:0.90986502 10:0.000141428 11:-0.035292301 12:0.000445913 13:-0.000453844 14:0.00044594199 15:0.00038389201 16:6.1981198e-05 17:0 18:0 19:0 20:0 21:0 22:0 23:0 24:0 25:0 26:0.00064948603 27:0.00037719999 28:0.00111276 29:0.39294401 30:0.00103771 31:0.00159612 #
-0.790988351204539585914687904733 1:4.7145001e-08 2:0.00040337001 3:0.000264161 4:0.000139825 5:0.000122535 6:-8.03478e-06 7:3.80758e-06 8:0.149314 9:0.90518397 10:0.00050832302 11:-0.033686999 12:-0.00065600901 13:0.00062218599 14:0.00044418499 15:0.00037176901 16:7.2169103e-05 17:0 18:0 19:0 20:0 21:0 22:0 23:0 24:0 25:0 26:0.00121802 27:0.00046634901 28:0.00059132703 29:0.39649001 30:0.00104644 31:0.0016237299 #
0.61243075890347142831160454079509 1:1.86713e-07 2:0.000563265 3:0.00021033399 4:0.00035339899 5:-0.000148084 6:-5.4857001e-06 7:-4.9556502e-06 8:0.194194 9:0.77884698 10:0.00013805 11:-0.0235149 12:-0.000479198 13:-0.00182556 14:0.00057132501 15:0.000429737 16:0.00014149099 17:-0.00073362101 18:0 19:0 20:0 21:0 22:0 23:0 24:0 25:0 26:0 27:0.00050765998 28:0.0017303301 29:0.59592199 30:0.00153479 31:-0 #
-0.790988351204539585914687904733 1:2.1188001e-07 2:0.00052223401 3:3.53055e-06 4:0.000518988 5:-4.18124e-05 6:-6.9220698e-07 7:-8.5898901e-06 8:0.000105971 9:2.4388601e-05 10:6.94466e-09 11:4.9960599e-05 12:6.7533e-07 13:3.6532799e-07 14:0.00073363399 15:0.00072976301 16:3.8706298e-06 17:-0.00060420699 18:0 19:0 20:0 21:0 22:0 23:0 24:0 25:0 26:0 27:0.00069570699 28:0.089029402 29:0.99602801 30:0.000497834 31:-0 #
0.790988351204539585914687904733 1:6.1543901e-08 2:0.00038609499 3:0.000205932 4:0.000180434 5:0.000116002 6:-4.81597e-06 7:2.98235e-06 8:0.189798 9:0.90119201 10:9.1793197e-05 11:-0.046735 12:0.00047180901 13:-0.00081333797 14:0.00040390901 15:0.00032049499 16:8.3373401e-05 17:0 18:0 19:0 20:0 21:0 22:0 23:0 24:0 25:0 26:0.00069290202 27:0.00033401401 28:0.0013457 29:0.38683099 30:0.00099531596 31:0.00153109 #
-0.790988351204539585914687904733 1:4.7165202e-08 2:0.00040674 3:0.000268459 4:0.000138919 5:0.000123997 6:-8.3126297e-06 7:3.90387e-06 8:0.163002 9:0.90091801 10:0.000479496 11:-0.039299998 12:-0.000498824 13:0.00075807399 14:0.000442672 15:0.00036378801 16:7.8650497e-05 17:0 18:0 19:0 20:0 21:0 22:0 23:0 24:0 25:0 26:0.00126139 27:0.00047080801 28:0.00060765003 29:0.40028101 30:0.00105645 31:0.00163925 #
-0.790988351204539585914687904733 1:1.38085e-06 2:0.00053359102 3:5.6533499e-05 4:0.000482848 5:0.000160446 6:1.24614e-05 7:-3.7276601e-05 8:1.71255e-06 9:1.35897e-07 10:2.8154099e-09 11:4.8242202e-07 12:6.9437299e-08 13:1.95604e-08 14:0.000740505 15:0.000740505 16:1.4854e-22 17:-0.0010722399 18:0 19:0 20:0 21:0 22:0 23:0 24:0 25:0 26:0 27:0.00064025901 28:0.081858397 29:0.99664199 30:0.00050058903 31:-0 #
0.790988351204539585914687904733 1:7.0408099e-08 2:0.00033578501 3:0.000109891 4:0.00022602901 5:8.7336302e-05 6:-2.46888e-06 7:1.97132e-06 8:0.0203079 9:0.939731 10:6.4538603e-05 11:0.0023793399 12:6.4064297e-05 13:0.00032799301 14:0.000419344 15:0.00041028499 16:9.0307904e-06 17:0 18:0 19:0 20:0 21:0 22:0 23:0 24:0 25:0 26:0.00038463 27:0.00022268901 28:0.000871689 29:0.34129599 30:0.00088064501 31:0.00134596 #
-0.790988351204539585914687904733 1:3.7839e-06 2:0.000577948 3:0.00024010699 4:0.000342994 5:-2.03543e-06 6:-1.46845e-05 7:-1.62455e-05 8:0.0257631 9:0.0402328 10:8.15331e-05 11:-0.021013901 12:-6.6309999e-06 13:-5.1746301e-05 14:0.00059672003 15:0.00048030299 16:0.000115537 17:-0.00053755601 18:0 19:0 20:0 21:0 22:0 23:0 24:0 25:0 26:0 27:0.00064442999 28:0.00058089301 29:0.99863601 30:0.000519617 31:-0 #
0.790988351204539585914687904733 1:2.5770299e-07 2:0.00098578201 3:0.000180249 4:0.00080652098 5:-0.000380563 6:-9.1535903e-06 7:-1.9330801e-05 8:0.00036424701 9:0.00013300301 10:0.00017016599 11:-1.74489e-05 12:0.000126313 13:-4.41927e-05 14:0.00086578802 15:0.00056073099 16:0.00013425499 17:-0.0018002701 18:0 19:0 20:0 21:0 22:0 23:0 24:0 25:0 26:0 27:0.00100492 28:0.00518764 29:0.99997902 30:0.0029472001 31:-0 #
0.790988351204539585914687904733 1:8.0556703e-08 2:0.00052153697 3:4.3158601e-05 4:0.000478523 5:-0.00014118799 6:-1.73299e-06 7:-5.5801702e-06 8:0.0284776 9:0.82852697 10:2.00553e-05 11:0.150932 12:0.00054298702 13:0.00322711 14:0.00072225201 15:0.000721447 16:7.9951502e-07 17:-0.00067423302 18:0 19:0 20:0 21:0 22:0 23:0 24:0 25:0 26:0 27:0.00055778801 28:0.0052723498 29:0.53843099 30:0.00158307 31:-0 #
-0.790988351204539585914687904733 1:3.3102501e-07 2:0.00091830699 3:0.00019935 4:0.00072018598 5:-0.00037798801 6:-8.5635302e-06 7:-1.62817e-05 8:0.000216302 9:0.00086712203 10:0.000919129 11:-0.000212457 12:-0.00014515901 13:-0.00032516901 14:0.00075777702 15:0.000323227 16:0.00038393401 17:0.00131837 18:0 19:0 20:0 21:0 22:0 23:0 24:0 25:0 26:0 27:0.00091296202 28:0.0042055501 29:0.99998403 30:0.0026022701 31:-0 #
0.790988351204539585914687904733 1:2.8119501e-07 2:0.000968259 3:6.8974397e-05 4:0.00090018898 5:-0.000247939 6:-5.4981601e-06 7:-1.9953301e-05 8:0.0013687901 9:0.0103447 10:3.9664799e-05 11:0.00210882 12:-4.2989199e-05 13:-8.9987698e-05 14:0.00123967 15:0.00113668 16:9.8612298e-05 17:-0.0016932701 18:0 19:0 20:0 21:0 22:0 23:0 24:0 25:0 26:0 27:0.000991198 28:0.0083278501 29:0.99989998 30:0.0029399199 31:-0 #
0.790988351204539585914687904733 1:4.69687e-07 2:0.00098182599 3:0.000322701 4:0.00066274701 5:-0.000460337 6:-2.38743e-05 7:-3.43088e-05 8:0.00031253599 9:0.00039354601 10:8.9839399e-05 11:-0.000212502 12:-7.9359997e-05 13:1.45693e-05 14:0.00095154298 15:0.00067538599 16:0.000191983 17:-0.0025544299 18:0 19:0 20:0 21:0 22:0 23:0 24:0 25:0 26:0 27:0.0010019901 28:0.0060596201 29:0.99997199 30:0.0028633701 31:-0 #
0.790988351204539585914687904733 1:6.2692401e-08 2:0.00030096 3:9.5144896e-05 4:0.00020593801 5:7.0861999e-05 6:-2.19144e-06 7:1.87373e-06 8:0.0115603 9:0.95201701 10:6.1647697e-05 11:-0.0115083 12:1.46924e-06 13:-0.00154829 14:0.000378928 15:0.000374383 16:4.52108e-06 17:0 18:0 19:0 20:0 21:0 22:0 23:0 24:0 25:0 26:0.00034763201 27:0.000189806 28:0.000729925 29:0.30560201 30:0.000788629 31:0.00120479 #
-0.790988351204539585914687904733 1:2.20267e-07 2:0.00092140702 3:0.00090759201 4:1.7964199e-05 5:-0.000107848 6:-4.1607102e-05 7:-4.3559398e-06 8:0.00123471 9:0.018787701 10:0.00116025 11:-0.00477358 12:0.00105748 13:-0.0040265298 14:0.00128011 15:0.00126262 16:1.64594e-05 17:0 18:0 19:0 20:0 21:0 22:0 23:0 24:0 25:0 26:0.0038113899 27:0.00058626698 28:0.0025939699 29:0.99977797 30:0.00225568 31:0.00407974 #
0.790988351204539585914687904733 1:2.5044699e-07 2:0.00096967601 3:8.3239902e-05 4:0.00088694401 5:-0.00026956899 6:-4.4059798e-06 7:-1.46683e-05 8:0.0075148498 9:0.0018128901 10:6.0007998e-05 11:0.00316492 12:-0.00029163199 13:-0.000120447 14:0.0012793 15:0.0012214 16:5.09456e-05 17:-0.00132527 18:0 19:0 20:0 21:0 22:0 23:0 24:0 25:0 26:0 27:0.0010426301 28:0.0068886299 29:0.999933 30:0.0029386601 31:-0 #
-0.790988351204539585914687904733 1:4.2266901e-08 2:0.00041386299 3:4.1621199e-05 4:0.000372371 5:-0.000108042 6:-1.03889e-06 7:-3.4863499e-06 8:0.025498901 9:0.89526099 10:0.000568886 11:-0.0285662 12:0.0012693 13:0.0116337 14:0.00055323 15:0.000538002 16:1.50395e-05 17:0 18:0 19:0 20:0 21:0 22:0 23:0 24:0 25:0 26:0.000414924 27:0.000221222 28:0.00070812402 29:0.44373199 30:0.00118243 31:0.0017864601 #
-0.790988351204539585914687904733 1:3.52185e-07 2:0.00052944297 3:2.5669e-05 4:0.00050481502 5:-0.000112613 6:-3.6177e-06 7:-1.62004e-05 8:6.7374999e-06 9:5.5137701e-07 10:7.8757001e-09 11:1.92741e-06 12:2.30353e-07 13:6.5897503e-08 14:0.00074078701 15:0.00074078701 16:9.5664803e-21 17:-0.00090051303 18:0 19:0 20:0 21:0 22:0 23:0 24:0 25:0 26:0 27:0.00064516201 28:0.0596026 29:0.99822098 30:0.00050047803 31:-0 #
0.790988351204539585914687904733 1:5.24706e-08 2:0.00039194 3:0.000195118 4:0.000196975 5:0.00013980801 6:-3.38153e-06 7:2.61063e-06 8:0.196493 9:0.89912897 10:0.000150372 11:-0.056857001 12:0.00118627 13:-0.00106417 14:0.00041240099 15:0.00032481499 16:8.7520602e-05 17:0 18:0 19:0 20:0 21:0 22:0 23:0 24:0 25:0 26:0.00053835101 27:0.00039190199 28:0.00116123 29:0.38693199 30:0.0010242501 31:0.00157096 #
-0.790988351204539585914687904733 1:5.3110899e-08 2:0.00041907601 3:0.00028496701 4:0.000134884 5:0.000119547 6:-9.5699397e-06 7:3.60078e-06 8:0.12619901 9:0.89856499 10:0.000530308 11:-0.079476699 12:0.000218541 13:0.00323109 14:0.000475735 15:0.00041376299 16:6.1701299e-05 17:0 18:0 19:0 20:0 21:0 22:0 23:0 24:0 25:0 26:0.00135118 27:0.00048533099 28:0.00061523297 29:0.41269901 30:0.0010892201 31:0.00169011 #
0.790988351204539585914687904733 1:2.57864e-07 2:0.00098577805 3:0.000179493 4:0.00080701499 5:-0.00038005901 6:-7.7062996e-06 7:-1.62919e-05 8:0.00030872799 9:0.000110771 10:0.000198694 11:-4.0340601e-06 12:0.000146809 13:-4.39943e-05 14:0.00089672598 15:0.000600103 16:0.00014832499 17:-0.00151631 18:0 19:0 20:0 21:0 22:0 23:0 24:0 25:0 26:0 27:0.0010049 28:0.0051938202 29:0.99997902 30:0.0029472001 31:-0 #
0.790988351204539585914687904733 1:5.0539398e-08 2:0.00038877901 3:0.000216863 4:0.000172153 5:0.000131864 6:-4.6754899e-06 7:2.90097e-06 8:0.10474 9:0.91672999 10:0.00013307801 11:-0.044814602 12:0.000221743 13:-0.00026229001 14:0.00044556899 15:0.000395993 16:4.9512299e-05 17:0 18:0 19:0 20:0 21:0 22:0 23:0 24:0 25:0 26:0.00071398198 27:0.00035796899 28:0.00104308 29:0.38291201 30:0.00100996 31:0.00155575 #
-0.790988351204539585914687904733 1:8.8455003e-08 2:0.00094424898 3:0.00083711301 4:0.000112397 5:-0.00030265001 6:-4.66581e-05 7:-1.69246e-05 8:3.09707e-06 9:2.85879e-05 10:0.00042556401 11:-9.3161798e-06 12:-1.11921e-05 13:4.8378399e-05 14:0.00123071 15:0.00115795 16:7.2764298e-05 17:0 18:0 19:0 20:0 21:0 22:0 23:0 24:0 25:0 26:-0.00707892 27:0.00076326198 28:0.00095296302 29:0.99996001 30:0.00261709 31:0.0040950002 #
-0.790988351204539585914687904733 1:4.8859899e-08 2:0.00040534601 3:0.00026696699 4:0.000139084 5:0.000118712 6:-8.8451898e-06 7:3.8543199e-06 8:0.127316 9:0.90820903 10:0.00049465499 11:-0.0238772 12:0.00018995701 13:0.00194624 14:0.000455125 15:0.00039174 16:6.31394e-05 17:0 18:0 19:0 20:0 21:0 22:0 23:0 24:0 25:0 26:0.00129824 27:0.000468046 28:0.000592742 29:0.39795199 30:0.0010503 31:0.00162972 #
-0.790988351204539585914687904733 1:2.7938401e-07 2:0.00061879802 3:0.000258079 4:0.000361532 5:0.000161049 6:-3.6193701e-06 7:4.7076501e-06 8:0.50389999 9:0.59068102 10:0.00106224 11:-0.15035801 12:0.00619266 13:-0.0076948502 14:0.00050021999 15:0.000222512 16:0.00027705199 17:0.00023478 18:0 19:0 20:0 21:0 22:0 23:0 24:0 25:0 26:0 27:0.00072175398 28:0.00166012 29:0.611938 30:0.00162563 31:-0 #
0.790988351204539585914687904733 1:2.49587e-07 2:0.000970122 3:8.5466701e-05 4:0.000885077 5:-0.00027318599 6:-4.1467401e-06 7:-1.34957e-05 8:0.0069079399 9:0.00192647 10:2.7549901e-05 11:0.0031649999 12:-7.3238203e-05 13:-3.4127499e-06 14:0.00128091 15:0.0012214601 16:5.5701101e-05 17:-0.00122092 18:0 19:0 20:0 21:0 22:0 23:0 24:0 25:0 26:0 27:0.00104259 28:0.0115665 29:0.99989402 30:0.00293854 31:-0 #
-0.790988351204539585914687904733 1:2.7526499e-07 2:0.00051719102 3:2.84123e-05 4:0.000491824 5:0.000114797 6:-6.2938898e-06 7:2.69722e-05 8:3.6757399e-05 9:5.8363101e-05 10:0.000215245 11:4.6317102e-05 12:-8.8948502e-05 13:-0.000112082 14:0.00072396803 15:0.00072396803 16:1.34162e-19 17:-0.00167954 18:0 19:0 20:0 21:0 22:0 23:0 24:0 25:0 26:0 27:0.00048366701 28:0.0067145401 29:0.99997503 30:0.00051461102 31:-0 #
-0.790988351204539585914687904733 1:2.09531e-06 2:0.00056731899 3:0.00040343899 4:0.000170855 5:4.5593501e-05 6:-3.4051402e-05 7:-1.49633e-06 8:0.0220288 9:0.056281298 10:0.000106192 11:-0.0272741 12:0.00047542501 13:-0.00061707798 14:0.00065443799 15:0.00059069198 16:6.28669e-05 17:-0.00088556 18:0 19:0 20:0 21:0 22:0 23:0 24:0 25:0 26:0 27:0.00063161697 28:0.00062210602 29:0.99779701 30:0.00052891899 31:-0 #
-0.790988351204539585914687904733 1:2.4082e-08 2:0.000323741 3:3.1968899e-05 4:0.000291868 5:-7.3325697e-05 6:-7.2905101e-07 7:-2.9212899e-06 8:0.21089301 9:0.91172397 10:0.00056097598 11:0.053127799 12:0.0024595901 13:0.0160747 14:0.00036143299 15:0.000279798 16:8.1530197e-05 17:0 18:0 19:0 20:0 21:0 22:0 23:0 24:0 25:0 26:0.00037587 27:0.00031002201 28:0.00093604799 29:0.34812701 30:0.00092502998 31:0.00139227 #
0.790988351204539585914687904733 1:4.7115299e-07 2:0.00096916303 3:0.00014125201 4:0.00082883798 5:0.00031987301 6:6.71213e-06 7:-1.66679e-05 8:0.042397399 9:0.0421925 10:0.00027584599 11:-0.00029779301 12:0.000180437 13:-0.00159862 14:0.00066442502 15:9.7520297e-06 16:0.000651334 17:-0.00116438 18:0 19:0 20:0 21:0 22:0 23:0 24:0 25:0 26:0 27:0.00097757601 28:0.0029977099 29:0.99819702 30:0.00281937 31:-0 #
-0.790988351204539585914687904733 1:6.6211499e-07 2:0.00094491901 3:0.00038231901 4:0.00056302501 5:-0.00046348799 6:-3.5440801e-06 7:-4.4776498e-06 8:0.00051457901 9:0.00038835499 10:0.000342185 11:-9.1799902e-06 12:-0.000152679 13:0.000151607 14:0.00064212998 15:0.00020492599 16:0.00026318399 17:0.00028563899 18:0 19:0 20:0 21:0 22:0 23:0 24:0 25:0 26:0 27:0.00104985 28:0.0058842502 29:0.99997699 30:0.0026239699 31:-0 #
0.790988351204539585914687904733 1:5.2945101e-08 2:0.00039363399 3:0.000209038 4:0.000184775 5:0.000136766 6:-3.84246e-06 7:2.5668801e-06 8:0.168018 9:0.90440601 10:0.000153367 11:-0.057356 12:0.000937287 13:-7.5011398e-05 14:0.00042495501 15:0.000348467 16:7.6418e-05 17:0 18:0 19:0 20:0 21:0 22:0 23:0 24:0 25:0 26:0.000590034 27:0.00038295699 28:0.00112466 29:0.38797301 30:0.00102581 31:0.0015755401 #
0.790988351204539585914687904733 1:2.5042499e-07 2:0.00096987601 3:8.4161802e-05 4:0.00088619499 5:-0.00027101801 6:-4.3423302e-06 7:-1.43306e-05 8:0.0075405799 9:0.00187001 10:4.36396e-05 11:0.00333237 12:-0.00022747699 13:-0.000132014 14:0.00129212 15:0.00124492 16:4.2358501e-05 17:-0.0012955799 18:0 19:0 20:0 21:0 22:0 23:0 24:0 25:0 26:0 27:0.00104262 28:0.0072466498 29:0.99993002 30:0.0029386501 31:-0 #
-0.790988351204539585914687904733 1:2.28041e-08 2:0.00027251599 3:9.5371302e-05 4:0.000177264 5:-7.8632802e-05 6:1.94062e-06 7:2.02721e-06 8:0.207232 9:0.86601597 10:0.00034195601 11:-0.32064101 12:-0.0030545201 13:0.00138792 14:0.00032277801 15:0.00029783 16:2.48623e-05 17:0.000443525 18:0 19:0 20:0 21:0 22:0 23:0 24:0 25:0 26:0 27:0.000242455 28:0.000715309 29:0.32287201 30:0.00050090102 31:0.00109269 #
0.790988351204539585914687904733 1:3.5885799e-07 2:0.00102424 3:0.00055933598 4:0.000464946 5:0.00050923898 6:1.5547701e-06 7:-1.40994e-06 8:0.0066024 9:0.00081242999 10:6.5268898e-05 11:-0.00072120299 12:0.000148768 13:-0.000172514 14:0.00121328 15:0.00107599 16:0.00013232999 17:-0.00015264101 18:0 19:0 20:0 21:0 22:0 23:0 24:0 25:0 26:0 27:0.00105211 28:0.0082890997 29:0.99993598 30:0.0029047001 31:-0 #
-0.790988351204539585914687904733 1:2.83997e-07 2:0.000519061 3:3.7547299e-05 4:0.000484897 5:0.0001316 6:-7.7100603e-06 7:2.8357499e-05 8:2.1837701e-05 9:8.4258201e-05 10:8.7505599e-05 11:2.76516e-05 12:-2.8210599e-05 13:-4.9741899e-05 14:0.00055351102 15:0.00041845601 16:9.96448e-05 17:-0.00175156 18:0 19:0 20:0 21:0 22:0 23:0 24:0 25:0 26:0 27:0.00048367199 28:0.00495916 29:0.99998498 30:0.00051461603 31:-0 #
0.790988351204539585914687904733 1:5.3471101e-08 2:0.00035115599 3:0.000149179 4:0.000202187 5:0.00012220901 6:-3.6021299e-06 7:3.11961e-06 8:0.15556701 9:0.915802 10:8.8842899e-05 11:-0.099989802 12:0.00078883697 13:-0.00130844 14:0.000388999 15:0.00032925501 16:5.97086e-05 17:0 18:0 19:0 20:0 21:0 22:0 23:0 24:0 25:0 26:0.00059585 27:0.000284568 28:0.00113902 29:0.35651001 30:0.00091850403 31:0.00140988 #
0.790988351204539585914687904733 1:2.75574e-07 2:0.00088258699 3:0.00076061202 4:0.00012287201 5:0.00030492901 6:-1.79239e-05 7:7.15545e-06 8:0.00074021303 9:0.00084728899 10:0.000116831 11:-0.00056086999 12:-0.00019971799 13:0.000242091 14:0.00101723 15:0.00085280102 16:0.000135321 17:-0.00150297 18:0 19:0 20:0 21:0 22:0 23:0 24:0 25:0 26:0 27:0.000990164 28:0.0053115799 29:0.99997801 30:0.0026240801 31:-0 #
0.790988351204539585914687904733 1:4.1821599e-07 2:0.00100927 3:0.00026826101 4:0.00074124202 5:0.000444226 6:4.82408e-06 7:-8.1672997e-06 8:0.0071804598 9:0.00094477902 10:8.2217499e-05 11:-0.00105656 12:0.000290089 13:-9.7099699e-05 14:0.00121674 15:0.00108892 16:0.000116871 17:-0.000631209 18:0 19:0 20:0 21:0 22:0 23:0 24:0 25:0 26:0 27:0.0010521 28:0.0064771599 29:0.99994498 30:0.0029047299 31:-0 #
-0.790988351204539585914687904733 1:1.5872e-06 2:0.00052585203 3:2.09588e-05 4:0.00051289302 5:-9.2529503e-05 6:-8.2082797e-06 7:-4.51169e-05 8:0.00013779799 9:8.2486204e-06 10:4.4040701e-07 11:3.3714099e-05 12:7.7901996e-06 13:1.90598e-06 14:0.00074208202 15:0.00074208202 16:1.3791099e-20 17:-0.001178 18:0 19:0 20:0 21:0 22:0 23:0 24:0 25:0 26:0 27:0.00064629503 28:0.00799157 29:0.99996603 30:0.000501353 31:-0 #
0.790988351204539585914687904733 1:5.4220202e-08 2:0.00033993201 3:0.000133888 4:0.000206236 5:0.000115055 6:-3.2738401e-06 7:2.9346199e-06 8:0.119491 9:0.92643702 10:8.21301e-05 11:-0.088762902 12:0.00060920202 13:-0.00110699 14:0.000389333 15:0.000343647 16:4.56536e-05 17:0 18:0 19:0 20:0 21:0 22:0 23:0 24:0 25:0 26:0.00054789003 27:0.00026316199 28:0.00105935 29:0.345763 30:0.00089122599 31:0.00136676 #
0.790988351204539585914687904733 1:2.7551499e-07 2:0.000963028 3:5.7416801e-05 4:0.00090593699 5:-0.000226456 6:-2.9923001e-06 7:-1.19753e-05 8:0.0028029201 9:0.00625428 10:1.55545e-05 11:-0.000212037 12:-7.8092497e-05 13:-0.000183268 14:0.00092826702 15:0.00051495101 16:0.00041218699 17:-0.00102155 18:0 19:0 20:0 21:0 22:0 23:0 24:0 25:0 26:0 27:0.00103584 28:0.0148589 29:0.99985898 30:0.00293973 31:-0 #
-0.790988351204539585914687904733 1:7.04775e-07 2:0.00094541698 3:0.00036898901 4:0.00057752698 5:-0.00046013799 6:-6.8957502e-06 7:-8.8556499e-06 8:0.00088206102 9:0.00107638 10:0.00074833701 11:-0.00067737902 12:-9.0255198e-05 13:0.00028941999 14:0.00080776901 15:0.00048136001 16:0.00020545301 17:0.00054140302 18:0 19:0 20:0 21:0 22:0 23:0 24:0 25:0 26:0 27:0.00108403 28:0.0035488899 29:0.99998701 30:0.00262745 31:-0 #
0.790988351204539585914687904733 1:7.6244802e-08 2:0.00046207701 3:1.27622e-05 4:0.00044938899 5:-2.75404e-05 6:-2.21977e-07 7:-3.3220299e-06 8:0.096733399 9:0.87265003 10:9.2596798e-05 11:0.023150399 12:3.2685799e-05 13:0.0022211999 14:0.00058130402 15:0.00051737699 16:6.3869098e-05 17:-0.00038325999 18:0 19:0 20:0 21:0 22:0 23:0 24:0 25:0 26:0 27:0.00048564599 28:0.00151108 29:0.47809801 30:0.00139658 31:-0 #
0.790988351204539585914687904733 1:3.0440799e-07 2:0.00088738801 3:0.000743568 4:0.000144655 5:0.00032726099 6:-1.69984e-05 7:7.4732802e-06 8:0.00053999899 9:0.00059607701 10:0.000110474 11:-0.00022051101 12:-0.000132103 13:0.000109684 14:0.00080729701 15:0.00046887601 16:0.00027223001 17:-0.00137234 18:0 19:0 20:0 21:0 22:0 23:0 24:0 25:0 26:0 27:0.00096388999 28:0.0054720701 29:0.99997902 30:0.00262262 31:-0 #
0.790988351204539585914687904733 1:1.0733399e-06 2:0.00093606103 3:0.00092016201 4:1.6685701e-05 5:0.000122117 6:1.70819e-05 7:-2.2439599e-06 8:8.6913598e-05 9:8.4813801e-05 10:9.7182601e-05 11:5.8561898e-05 12:2.69465e-05 13:-3.58129e-05 14:0.00071351603 15:0.000136312 16:0.00054943998 17:-0.00071770902 18:0 19:0 20:0 21:0 22:0 23:0 24:0 25:0 26:0 27:0.00105828 28:0.0060969498 29:0.99997503 30:0.00276431 31:-0 #
0.790988351204539585914687904733 1:6.7077501e-08 2:0.00031595799 3:9.9222198e-05 4:0.000216891 5:7.4597301e-05 6:-2.51353e-06 7:2.28254e-06 8:0.012195 9:0.94691002 10:6.8868001e-05 11:0.0104782 12:-0.00010525 13:-0.00177162 14:0.00039775501 15:0.000392683 16:5.0456001e-06 17:0 18:0 19:0 20:0 21:0 22:0 23:0 24:0 25:0 26:0.00039946701 27:0.000199003 28:0.00076546101 29:0.321087 30:0.00082846801 31:0.00126561 #
-0.790988351204539585914687904733 1:7.4405e-07 2:0.00094746699 3:0.00037485699 4:0.00057340099 5:-0.000461263 6:-4.2444399e-06 7:-5.0366498e-06 8:0.00120756 9:0.00261034 10:0.00059206801 11:-0.00150712 12:0.000155236 13:-0.00016697 14:0.00102265 15:0.00085725199 16:9.6549702e-05 17:0.00031301001 18:0 19:0 20:0 21:0 22:0 23:0 24:0 25:0 26:0 27:0.0011226 28:0.00400064 29:0.99998099 30:0.0026308401 31:-0 #
-0.790988351204539585914687904733 1:1.54877e-07 2:0.00081010198 3:0.00049557502 4:0.000320122 5:-0.000394798 6:3.6745801e-05 7:2.96731e-05 8:0.060981099 9:0.0122338 10:4.2291002e-05 11:0.027286099 12:0.00031758699 13:0.000118226 14:0.00107726 15:0.00107646 16:7.08237e-07 17:0.0045775599 18:0 19:0 20:0 21:0 22:0 23:0 24:0 25:0 26:0 27:0.00107816 28:0.00107888 29:0.99767601 30:0.00155515 31:-0 #
0.790988351204539585914687904733 1:3.2609401e-07 2:0.00088426401 3:0.00019997099 4:0.00068447401 5:0.00036976 6:-3.4852701e-06 7:6.4434598e-06 8:0.000259886 9:0.000192737 10:0.000114137 11:8.4110397e-05 12:-2.9687e-05 13:7.9920603e-05 14:0.00067308202 15:0.00023705501 16:0.00035048401 17:-0.00051696302 18:0 19:0 20:0 21:0 22:0 23:0 24:0 25:0 26:0 27:0.00093288597 28:0.0053987401 29:0.99997997 30:0.00257836 31:-0 #
-0.790988351204539585914687904733 1:4.8042102e-07 2:0.00053079799 3:3.3435499e-05 4:0.00049908803 5:-0.00012737801 6:-5.3018498e-06 7:-2.0736899e-05 8:2.22868e-05 9:9.7969303e-07 10:2.85201e-08 11:4.67271e-06 12:7.97258e-07 13:1.6715499e-07 14:0.00074069999 15:0.00074069999 16:3.0732501e-22 17:-0.00099279697 18:0 19:0 20:0 21:0 22:0 23:0 24:0 25:0 26:0 27:0.00061560899 28:0.035683699 29:0.99936199 30:0.00050013699 31:-0 #
0.790988351204539585914687904733 1:5.7762801e-08 2:0.00044132501 3:0.000298372 4:0.00014340199 5:0.000122002 6:-7.6020301e-06 7:3.3865899e-06 8:0.24381401 9:0.86335301 10:0.000124246 11:0.00610608 12:3.0687901e-05 13:0.00023000401 14:0.00044062 15:0.000316227 16:0.00012433001 17:0 18:0 19:0 20:0 21:0 22:0 23:0 24:0 25:0 26:0.00108081 27:0.000435302 28:0.00147018 29:0.44173601 30:0.00114501 31:0.0017752399 #
-0.790988351204539585914687904733 1:7.0323203e-08 2:0.00047327601 3:0.00027965 4:0.000194283 5:0.00016078301 6:-7.7189397e-06 7:5.0529402e-06 8:0.36817199 9:0.80096102 10:0.00078348798 11:-0.054223701 12:0.00189911 13:-0.00134206 14:0.000417578 15:0.000230679 16:0.000186501 17:0 18:0 19:0 20:0 21:0 22:0 23:0 24:0 25:0 26:0.00111205 27:0.00045696 28:0.00130921 29:0.468995 30:0.00123415 31:0.00190028 #
-0.790988351204539585914687904733 1:7.2972699e-07 2:0.00051425397 3:8.4239997e-05 4:0.000431405 5:0.000144544 6:5.0983599e-06 7:-1.26582e-05 8:0.034604099 9:0.124613 10:0.000128195 11:-0.0245132 12:3.5861802e-05 13:-0.00027945999 14:0.00056820898 15:0.00044505799 16:0.000122597 17:-0.000606368 18:0 19:0 20:0 21:0 22:0 23:0 24:0 25:0 26:0 27:0.00064424 28:0.000479882 29:0.99129802 30:0.00055012899 31:-0 #
-0.790988351204539585914687904733 1:1.18362e-07 2:0.00094605901 3:0.00082919397 4:0.000122421 5:-0.00031443901 6:-4.7846399e-05 7:-1.8204701e-05 8:8.7851704e-06 9:4.33518e-05 10:0.000114959 11:-1.11431e-05 12:-2.23075e-05 13:-1.18476e-05 14:0.00094097102 15:0.00057959202 16:0.00036024599 17:0 18:0 19:0 20:0 21:0 22:0 23:0 24:0 25:0 26:-0.00630613 27:0.00076290203 28:0.0021976 29:0.999964 30:0.0026171 31:0.0040950198 #
0.790988351204539585914687904733 1:1.41233e-07 2:0.000720312 3:0.00028901399 4:0.000431764 5:-0.000305052 6:-7.0556098e-06 7:-8.1317203e-06 8:0.32446599 9:0.51982999 10:0.00019755099 11:0.0916133 12:0.000433112 13:-0.00233693 14:0.00061839301 15:0.00029785899 16:0.00032032901 17:-0.0011275 18:0 19:0 20:0 21:0 22:0 23:0 24:0 25:0 26:0 27:0.00066862802 28:0.0022783 29:0.784913 30:0.0020215299 31:-0 #
-0.790988351204539585914687904733 1:1.7481401e-07 2:0.00043296901 3:0.0001301 4:0.00030298301 5:-7.0107999e-05 6:9.3976701e-07 7:1.03868e-06 8:0.26265001 9:0.59684497 10:0.00014304199 11:-0.0070517501 12:-0.00070572499 13:0.000239937 14:0.000381077 15:0.000213515 16:0.000167472 17:-0.00013776901 18:0 19:0 20:0 21:0 22:0 23:0 24:0 25:0 26:0 27:0.00054357399 28:0.00038202299 29:0.75811398 30:0.000368518 31:0.0017238799 #
0.790988351204539585914687904733 1:1.46645e-06 2:0.00094463699 3:5.3006101e-05 4:0.00089841598 5:0.000210568 6:1.26864e-05 7:-5.34998e-05 8:0.000155646 9:0.000334293 10:0.00020848701 11:-0.000221044 12:-0.000150917 13:0.00020166 14:0.0011982101 15:0.00108208 16:0.000107732 17:-0.00194599 18:0 19:0 20:0 21:0 22:0 23:0 24:0 25:0 26:0 27:0.00099538802 28:0.0041353698 29:0.99998301 30:0.0028285999 31:-0 #
-0.790988351204539585914687904733 1:1.6667199e-08 2:0.00021056 3:3.33065e-05 4:0.000177265 5:-2.1659e-05 6:-2.7447999e-07 7:-9.44595e-07 8:0.288041 9:0.79529798 10:3.0504e-06 11:-0.46682 12:-0.00071070797 13:0.00127351 14:0.00027542701 15:0.000272757 16:2.6693299e-06 17:-0.000163269 18:0 19:0 20:0 21:0 22:0 23:0 24:0 25:0 26:0 27:0.00026881599 28:0.00045292301 29:0.25808701 30:0.000398882 31:0.00087366701 #
0.790988351204539585914687904733 1:8.6964299e-08 2:0.00071102299 3:0.00047986 4:0.00023121999 5:0.00025484501 6:2.6670301e-07 7:7.9518497e-07 8:0.314971 9:0.60689598 10:0.00031132801 11:0.289864 12:-0.00232521 13:-0.0090450998 14:0.00078733498 15:0.00065057998 16:0.000136601 17:0 18:0 19:0 20:0 21:0 22:0 23:0 24:0 25:0 26:-7.9217398e-06 27:0.00080352603 28:0.0025837901 29:0.66958201 30:0.00195312 31:0.0029036 #
-0.790988351204539585914687904733 1:2.06713e-06 2:0.00081020198 3:0.000126713 4:0.00068950601 5:-7.1751703e-05 6:-3.6603799e-06 7:-4.29557e-05 8:0.061997 9:0.036657501 10:3.05005e-05 11:0.0098405704 12:2.09377e-06 13:0.000168978 14:0.00071186898 15:0.000349393 16:0.00036215299 17:-0.00128384 18:0 19:0 20:0 21:0 22:0 23:0 24:0 25:0 26:0 27:0.00103877 28:0.00099107798 29:0.99734497 30:0.00154143 31:0.0033761701 #
0.790988351204539585914687904733 1:5.2626699e-08 2:0.00049779 3:3.8932802e-05 4:0.000458914 5:-8.9654197e-05 6:-5.5160899e-07 7:-2.0279101e-06 8:0.13379 9:0.80142701 10:0.00025146001 11:-0.22954801 12:0.00044577799 13:0.00133945 14:0.00063819898 15:0.00059249997 16:4.5524099e-05 17:0 18:0 19:0 20:0 21:0 22:0 23:0 24:0 25:0 26:0.000287881 27:0.00053786999 28:0.00166672 29:0.53582603 30:0.00142828 31:0.0021490799 #
-0.790988351204539585914687904733 1:4.8999599e-08 2:0.00040327999 3:0.00026544 4:0.00013855001 5:0.000116229 6:-8.8698598e-06 7:3.74454e-06 8:0.123191 9:0.90996301 10:0.000498396 11:-0.017448099 12:0.00039519 13:0.00262386 14:0.00045413899 15:0.000392877 16:6.1018902e-05 17:0 18:0 19:0 20:0 21:0 22:0 23:0 24:0 25:0 26:0.00129252 27:0.000465241 28:0.00058866898 29:0.395567 30:0.00104401 31:0.0016199501 #
0.790988351204539585914687904733 1:3.8693699e-07 2:0.00100344 3:0.00057705498 4:0.00042660101 5:0.00046414201 6:5.11399e-06 7:-3.48001e-06 8:0.069721296 9:0.055398401 10:0.000236244 11:0.0469108 12:-0.00146402 13:-0.00185772 14:0.0011572801 15:0.00099830597 16:0.00015715401 17:-0.000420878 18:0 19:0 20:0 21:0 22:0 23:0 24:0 25:0 26:0 27:0.00097438099 28:0.00286565 29:0.99490798 30:0.0028100801 31:-0 #
-0.790988351204539585914687904733 1:3.2808899e-07 2:0.00051698298 3:2.9638401e-05 4:0.00049139198 5:0.000116244 6:-7.3343099e-06 7:3.09227e-05 8:4.2190101e-07 9:0.00020767799 10:0.000342012 11:-9.3605404e-06 12:1.20123e-05 13:-0.00026651201 14:0.00072397402 15:0.00072397402 16:1.00236e-19 17:-0.00176343 18:0 19:0 20:0 21:0 22:0 23:0 24:0 25:0 26:0 27:0.00048368701 28:0.00532697 29:0.99998301 30:0.00051461498 31:-0 #
0.790988351204539585914687904733 1:5.9625897e-08 2:0.00030895599 3:9.3219503e-05 4:0.000215835 5:8.4744403e-05 6:-1.9787401e-06 7:1.8327401e-06 8:0.00757823 9:0.948403 10:4.9003898e-05 11:-0.0123452 12:8.7638997e-05 13:-0.000417584 14:0.00039428499 15:0.00039120199 16:3.06315e-06 17:0 18:0 19:0 20:0 21:0 22:0 23:0 24:0 25:0 26:0.00033344299 27:0.00018616801 28:0.00070904498 29:0.31673101 30:0.00081728102 31:0.00124843 #
0.790988351204539585914687904733 1:2.7429999e-07 2:0.00090330699 3:0.00051457202 4:0.00038956801 5:0.00044721799 6:-1.40317e-05 7:1.21842e-05 8:0.000203722 9:0.00050624501 10:0.00014634999 11:2.55668e-05 12:-7.9998797e-05 13:0.00016841599 14:0.00080077199 15:0.00045702499 16:0.00029124701 17:-0.0014161899 18:0 19:0 20:0 21:0 22:0 23:0 24:0 25:0 26:0 27:0.00095945701 28:0.00492959 29:0.999982 30:0.0025698501 31:-0 #
-0.790988351204539585914687904733 1:2.7857001e-07 2:0.000516459 3:2.67019e-05 4:0.000493514 5:0.000110462 6:-6.6994098e-06 7:2.9880999e-05 8:2.9356101e-05 9:4.2755499e-05 10:0.000231475 11:-3.40843e-05 12:-7.67909e-05 13:9.90263e-05 14:0.00071537 15:0.00070676499 16:8.6045702e-06 17:-0.00185014 18:0 19:0 20:0 21:0 22:0 23:0 24:0 25:0 26:0 27:0.00048366399 28:0.0052561299 29:0.99998301 30:0.00051461498 31:-0 #
0.790988351204539585914687904733 1:6.91659e-08 2:0.00031623201 3:0.000101621 4:0.000214763 5:7.1325099e-05 6:-2.53131e-06 7:2.1840401e-06 8:0.0108143 9:0.94722599 10:6.4744003e-05 11:0.0061057098 12:-8.6264001e-05 13:-0.0019614999 14:0.000397389 15:0.000392869 16:4.4949902e-06 17:0 18:0 19:0 20:0 21:0 22:0 23:0 24:0 25:0 26:0.000389714 27:0.00019958999 28:0.00077891402 29:0.32031399 30:0.00082655798 31:0.00126272 #
0.790988351204539585914687904733 1:2.0887901e-06 2:0.00096168602 3:0.000240722 4:0.00072858902 5:-0.00041316001 6:-2.90232e-05 7:-5.1119401e-05 8:0.00045662399 9:0.00055209798 10:0.000128498 11:-0.00020457699 12:-0.000103863 13:1.13635e-05 14:0.00082675001 15:0.00045998601 16:0.000261126 17:-0.0017072801 18:0 19:0 20:0 21:0 22:0 23:0 24:0 25:0 26:0 27:0.00100752 28:0.0047866502 29:0.99998099 30:0.0027955 31:-0 #
0.790988351204539585914687904733 1:2.4922099e-07 2:0.00096980098 3:8.3942701e-05 4:0.00088641897 5:-0.00027056501 6:-4.6510299e-06 7:-1.5420501e-05 8:0.0077242898 9:0.0019967901 10:6.2302497e-05 11:0.00328871 12:-0.00030532599 13:-9.8150798e-05 14:0.0012684599 15:0.00119938 16:6.2458203e-05 17:-0.00139664 18:0 19:0 20:0 21:0 22:0 23:0 24:0 25:0 26:0 27:0.0010426301 28:0.0068793199 29:0.99993098 30:0.0029386501 31:-0 #
-0.790988351204539585914687904733 1:5.2807798e-07 2:0.00053292798 3:4.2793901e-05 4:0.00049231498 5:-0.00014309501 6:-6.74184e-06 7:-2.3140199e-05 8:4.99411e-05 9:4.4549702e-06 10:2.00534e-07 11:1.4892e-05 12:3.12009e-06 13:9.3934e-07 14:0.00074088102 15:0.00074063003 16:2.5012e-07 17:-0.0010647899 18:0 19:0 20:0 21:0 22:0 23:0 24:0 25:0 26:0 27:0.00061599299 28:0.0105533 29:0.99994302 30:0.00050042802 31:-0 #
0.790988351204539585914687904733 1:6.2428398e-08 2:0.00038731701 3:0.000198839 4:0.00018873499 5:0.000120829 6:-4.5952202e-06 7:3.0497499e-06 8:0.176577 9:0.90262198 10:8.66068e-05 11:-0.0537377 12:0.000431714 13:-0.000888768 14:0.000411335 15:0.00033301199 16:7.8284203e-05 17:0 18:0 19:0 20:0 21:0 22:0 23:0 24:0 25:0 26:0.00067029998 27:0.00032432101 28:0.00130758 29:0.38884401 30:0.00100122 31:0.00153843 #
-0.790988351204539585914687904733 1:5.3110899e-08 2:0.00041907601 3:0.00028496701 4:0.000134884 5:0.000119547 6:-9.5699397e-06 7:3.60078e-06 8:0.12619901 9:0.89856499 10:0.000530308 11:-0.079476699 12:0.000218541 13:0.00323109 14:0.000475735 15:0.00041376299 16:6.1701299e-05 17:0 18:0 19:0 20:0 21:0 22:0 23:0 24:0 25:0 26:0.00135118 27:0.00048533099 28:0.00061523297 29:0.41269901 30:0.0010892201 31:0.00169011 #
0.790988351204539585914687904733 1:2.5147e-07 2:0.00096945302 3:8.2204897e-05 4:0.00088774099 5:-0.00026807201 6:-4.3017499e-06 7:-1.44213e-05 8:0.0072898399 9:0.00182784 10:6.1715997e-05 11:0.0032436701 12:-0.00030701299 13:-0.00015910499 14:0.00129047 15:0.0012437 16:3.98458e-05 17:-0.00130038 18:0 19:0 20:0 21:0 22:0 23:0 24:0 25:0 26:0 27:0.0010426301 28:0.0071440199 29:0.999933 30:0.0029386601 31:-0 #
-0.790988351204539585914687904733 1:2.93478e-06 2:0.00052555598 3:4.4414599e-05 4:0.00049908401 5:-0.000131771 6:-1.78093e-05 7:-6.6159097e-05 8:2.71158e-06 9:0.000141714 10:4.3698701e-06 11:1.43325e-05 12:-2.5382899e-06 13:-2.4878e-05 14:0.00073493802 15:0.00072871603 16:6.2117001e-06 17:-0.00129492 18:0 19:0 20:0 21:0 22:0 23:0 24:0 25:0 26:0 27:0.00061602797 28:0.00203367 29:0.99999601 30:0.00050045399 31:-0 #
0.790988351204539585914687904733 1:6.9817801e-08 2:0.00032646101 3:0.000102267 4:0.000224349 5:8.0408397e-05 6:-2.5443401e-06 7:2.3755799e-06 8:0.0117823 9:0.94304401 10:6.80167e-05 11:0.0099493703 12:-0.000142805 13:-0.00163786 14:0.00041182101 15:0.00040672201 16:5.07097e-06 17:0 18:0 19:0 20:0 21:0 22:0 23:0 24:0 25:0 26:0.000404783 27:0.000206981 28:0.00082651398 29:0.33230001 30:0.00085744302 31:0.0013098801 #
0.790988351204539585914687904733 1:2.47999e-07 2:0.00097011402 3:8.5183099e-05 4:0.000885382 5:-0.00027255499 6:-4.1803401e-06 7:-1.37464e-05 8:0.00761681 9:0.0019988599 10:6.6113302e-05 11:0.00317364 12:-0.00028075301 13:-7.6201097e-05 14:0.00125717 15:0.00117753 16:7.2305898e-05 17:-0.0012485899 18:0 19:0 20:0 21:0 22:0 23:0 24:0 25:0 26:0 27:0.0010426301 28:0.0067940201 29:0.999933 30:0.0029386601 31:-0 #
0.790988351204539585914687904733 1:1.98712e-06 2:0.00096059497 3:0.00015814199 4:0.00080906402 5:0.00035278799 6:2.1575899e-05 7:-4.9592501e-05 8:0.00043179901 9:0.00036814099 10:0.000153599 11:-0.00028794599 12:0.000134373 13:-0.000115196 14:0.00102454 15:0.00087077002 16:1.68967e-05 17:-0.00163624 18:0 19:0 20:0 21:0 22:0 23:0 24:0 25:0 26:0 27:0.00105732 28:0.0045793001 29:0.999982 30:0.0028537901 31:-0 #
-0.790988351204539585914687904733 1:1.39844e-06 2:0.000539225 3:7.6410703e-05 4:0.00046862199 5:0.000184869 6:1.45948e-05 7:-3.6774301e-05 8:0.00012239 9:7.14441e-07 10:1.11806e-07 11:9.3509398e-06 12:3.6991701e-06 13:2.8262801e-07 14:0.00074293499 15:0.00074293499 16:1.19584e-21 17:-0.0010705499 18:0 19:0 20:0 21:0 22:0 23:0 24:0 25:0 26:0 27:0.00064235699 28:0.0130536 29:0.99991298 30:0.000502232 31:-0 #
0.790988351204539585914687904733 1:8.3876103e-08 2:0.00047671699 3:1.66925e-05 4:0.000460084 5:-2.79207e-05 6:-1.9215901e-07 7:-3.3927499e-06 8:0.126553 9:0.86072099 10:3.66774e-05 11:0.0397457 12:-2.77074e-05 13:0.00317166 14:0.00057972898 15:0.00049614499 16:8.3567596e-05 17:-0.00036524099 18:0 19:0 20:0 21:0 22:0 23:0 24:0 25:0 26:0 27:0.00049922703 28:0.0036407399 29:0.49146399 30:0.00143563 31:-0 #
-0.790988351204539585914687904733 1:5.0427499e-08 2:0.000410815 3:0.000274983 4:0.000136528 5:0.000116776 6:-8.8728002e-06 7:3.5753801e-06 8:0.12824801 9:0.90542102 10:0.00050688698 11:-0.029765099 12:0.00019206099 13:0.00281501 14:0.00046116 15:0.00039649999 16:6.4406602e-05 17:0 18:0 19:0 20:0 21:0 22:0 23:0 24:0 25:0 26:0.00128064 27:0.00047464899 28:0.00060181099 29:0.403566 30:0.00106512 31:0.00165271 #
0.790988351204539585914687904733 1:2.5097799e-07 2:0.00096947199 3:8.2168001e-05 4:0.00088774698 5:-0.000268067 6:-4.0638001e-06 7:-1.36341e-05 8:0.0071731298 9:0.00179251 10:6.42046e-05 11:0.0030801599 12:-0.000299518 13:-0.000117928 14:0.0012778901 15:0.00121924 16:5.1012699e-05 17:-0.00123004 18:0 19:0 20:0 21:0 22:0 23:0 24:0 25:0 26:0 27:0.0010426301 28:0.00681559 29:0.999937 30:0.0029386701 31:-0 #
-0.790988351204539585914687904733 1:4.5550501e-06 2:0.00051766302 3:2.09559e-05 4:0.000519794 5:6.9146598e-05 6:1.03733e-05 7:-7.6308002e-05 8:7.9923802e-06 9:0.00026743399 10:4.61216e-06 11:-4.3169701e-05 12:5.7664001e-06 13:-3.5080498e-05 14:0.00073851203 15:0.00073585397 16:2.6580101e-06 17:-0.00117893 18:0 19:0 20:0 21:0 22:0 23:0 24:0 25:0 26:0 27:0.00061602698 28:0.00227986 29:0.99999601 30:0.00050045399 31:-0 #
0.790988351204539585914687904733 1:5.9418898e-08 2:0.00038775901 3:0.000211438 4:0.000176631 5:0.000120063 6:-5.2396199e-06 7:3.1986699e-06 8:0.18448099 9:0.90056098 10:9.14349e-05 11:-0.058429901 12:0.00016369599 13:-0.000640616 14:0.000409317 15:0.00032804799 16:8.1227699e-05 17:0 18:0 19:0 20:0 21:0 22:0 23:0 24:0 25:0 26:0.00076426601 27:0.00034305899 28:0.00138303 29:0.38927501 30:0.00100073 31:0.00154135 #
-0.790988351204539585914687904733 1:8.5507402e-08 2:0.000484071 3:0.000196357 4:0.00028826101 5:0.000189436 6:-5.2861901e-06 7:5.0675299e-06 8:0.25367501 9:0.82196701 10:0.00101296 11:-0.153548 12:0.0044551799 13:-0.00136311 14:0.000500525 15:0.00037555999 16:0.00012442299 17:0 18:0 19:0 20:0 21:0 22:0 23:0 24:0 25:0 26:0.00078819401 27:0.00038806599 28:0.00113164 29:0.48622099 30:0.00129219 31:0.00196673 #
0.790988351204539585914687904733 1:3.0658001e-07 2:0.00095846801 3:2.28309e-05 4:0.00093607098 5:-0.000141957 6:-2.02043e-06 7:-1.35946e-05 8:0.0052700699 9:0.0011023399 10:8.5782201e-05 11:0.00146426 12:-0.00017773701 13:-6.2523497e-05 14:0.00119751 15:0.0010641 16:0.000116835 17:-0.00108273 18:0 19:0 20:0 21:0 22:0 23:0 24:0 25:0 26:0 27:0.00096891 28:0.0055683502 29:0.99996102 30:0.00293464 31:-0 #
-0.790988351204539585914687904733 1:2.80797e-07 2:0.00051781902 3:3.16162e-05 4:0.00048943399 5:0.000120926 6:-6.9066e-06 7:2.78929e-05 8:4.0156701e-05 9:0.000128552 10:7.4272997e-05 11:7.0325397e-05 12:-2.4242499e-05 13:-3.4089899e-05 14:0.00054608699 15:0.00037100099 16:0.00017229001 17:-0.00172485 18:0 19:0 20:0 21:0 22:0 23:0 24:0 25:0 26:0 27:0.00048367301 28:0.0067018601 29:0.99997503 30:0.00051461102 31:-0 #
0.790988351204539585914687904733 1:6.0208599e-08 2:0.000411368 3:0.000209412 4:0.00020210999 5:0.000143503 6:-3.43078e-06 7:2.49564e-06 8:0.230046 9:0.88211799 10:0.00015915799 11:-0.0670169 12:0.0012837 13:-0.00050554902 14:0.000418735 15:0.00031357899 16:0.000105084 17:0 18:0 19:0 20:0 21:0 22:0 23:0 24:0 25:0 26:0.00051838398 27:0.00041942901 28:0.00123603 29:0.40552101 30:0.00107467 31:0.0016460801 #
-0.790988351204539585914687904733 1:4.97622e-08 2:0.000406051 3:0.00026898799 4:0.00013776599 5:0.000115191 6:-8.8555898e-06 7:3.70937e-06 8:0.12342 9:0.90878701 10:0.00050042401 11:-0.0149135 12:0.00030610399 13:0.0020930499 14:0.00045704699 15:0.00039513799 16:6.1660001e-05 17:0 18:0 19:0 20:0 21:0 22:0 23:0 24:0 25:0 26:0.0012819 27:0.000468454 28:0.000594688 29:0.398296 30:0.00105121 31:0.00163113 #
0.790988351204539585914687904733 1:4.0785e-07 2:0.00102292 3:0.00047428801 4:0.00054882403 5:0.00050885201 6:4.8689599e-06 7:-5.3405201e-06 8:0.00690646 9:0.00141811 10:0.000146987 11:-6.0984501e-05 12:0.00041946399 13:-0.000127978 14:0.00110759 15:0.00087930402 16:0.000210821 17:-0.00048665499 18:0 19:0 20:0 21:0 22:0 23:0 24:0 25:0 26:0 27:0.0010169999 28:0.00360065 29:0.99996197 30:0.00290476 31:-0 #
-0.790988351204539585914687904733 1:8.8455003e-08 2:0.00094424898 3:0.00083711301 4:0.000112397 5:-0.00030265001 6:-4.66581e-05 7:-1.69246e-05 8:3.09707e-06 9:2.85879e-05 10:0.00042556401 11:-9.3161798e-06 12:-1.11921e-05 13:4.8378399e-05 14:0.00123071 15:0.00115795 16:7.2764298e-05 17:0 18:0 19:0 20:0 21:0 22:0 23:0 24:0 25:0 26:-0.00707892 27:0.00076326198 28:0.00095296302 29:0.99996001 30:0.00261709 31:0.0040950002 #
0.790988351204539585914687904733 1:5.84802e-08 2:0.000422738 3:0.00027143201 4:0.000151835 5:0.000119581 6:-7.9040801e-06 7:3.5514599e-06 8:0.105447 9:0.90095901 10:0.000217433 11:-0.0123861 12:-5.2418101e-05 13:0.00045499799 14:0.00048193501 15:0.000425645 16:5.61737e-05 17:0 18:0 19:0 20:0 21:0 22:0 23:0 24:0 25:0 26:0.00109259 27:0.00040139799 28:0.00104361 29:0.42070499 30:0.00109001 31:0.00169125 #
-0.790988351204539585914687904733 1:4.9879699e-08 2:0.00040707801 3:0.00026930301 4:0.000138476 5:0.000116067 6:-8.8454999e-06 7:3.7544601e-06 8:0.121223 9:0.90864199 10:0.00050014898 11:-0.014068 12:0.00024537501 13:0.0018614701 14:0.00045918601 15:0.00039806901 16:6.0866601e-05 17:0 18:0 19:0 20:0 21:0 22:0 23:0 24:0 25:0 26:0.0012817699 27:0.000469672 28:0.00059664802 29:0.39933199 30:0.00105394 31:0.00163537 #
0.790988351204539585914687904733 1:4.7031099e-07 2:0.00098220003 3:0.00032422601 4:0.00066110003 5:-0.00046109501 6:-2.2247001e-05 7:-3.1877498e-05 8:0.00037894599 9:0.00036756799 10:7.1042603e-05 11:-0.00023621001 12:-0.000100247 13:5.52946e-05 14:0.00101307 15:0.000778588 16:0.000170172 17:-0.00237328 18:0 19:0 20:0 21:0 22:0 23:0 24:0 25:0 26:0 27:0.00100198 28:0.0059879101 29:0.999973 30:0.0028633701 31:-0 #
-0.790988351204539585914687904733 1:3.2413701e-07 2:0.000529618 3:3.02677e-05 4:0.00049994199 5:-0.00012236901 6:-2.97986e-06 7:-1.21668e-05 8:1.12813e-05 9:2.21768e-06 10:2.9255499e-08 11:5.0018202e-06 12:5.7449e-07 13:2.54714e-07 14:0.00073924602 15:0.00073924602 16:2.6734799e-22 17:-0.00070675102 18:0 19:0 20:0 21:0 22:0 23:0 24:0 25:0 26:0 27:0.00069734902 28:0.056879301 29:0.99838001 30:0.00049900898 31:-0 #
0.790988351204539585914687904733 1:5.7565401e-08 2:0.000394239 3:0.000224879 4:0.000169739 5:0.000123038 6:-5.92173e-06 7:3.41297e-06 8:0.169407 9:0.901923 10:0.00019265201 11:-0.0592875 12:0.00054430403 13:-0.00082269398 14:0.00042307799 15:0.000346254 16:7.6735298e-05 17:0 18:0 19:0 20:0 21:0 22:0 23:0 24:0 25:0 26:0.00085235201 27:0.00036300501 28:0.00099188497 29:0.392829 30:0.00101843 31:0.0015707701 #
-0.790988351204539585914687904733 1:5.0427499e-08 2:0.000410815 3:0.000274983 4:0.000136528 5:0.000116776 6:-8.8728002e-06 7:3.5753801e-06 8:0.12824801 9:0.90542102 10:0.00050688698 11:-0.029765099 12:0.00019206099 13:0.00281501 14:0.00046116 15:0.00039649999 16:6.4406602e-05 17:0 18:0 19:0 20:0 21:0 22:0 23:0 24:0 25:0 26:0.00128064 27:0.00047464899 28:0.00060181099 29:0.403566 30:0.00106512 31:0.00165271 #
0.790988351204539585914687904733 1:2.5762699e-07 2:0.00098583603 3:0.000180526 4:0.00080628198 5:-0.00038081 6:-9.07498e-06 7:-1.91408e-05 8:0.00039497501 9:0.000103599 10:0.000174644 11:4.0796199e-06 12:0.000151292 13:-2.4977e-05 14:0.00094088598 15:0.00069212099 16:9.6767602e-05 17:-0.00178277 18:0 19:0 20:0 21:0 22:0 23:0 24:0 25:0 26:0 27:0.00100492 28:0.00518787 29:0.99997801 30:0.0029472001 31:-0 #
-0.790988351204539585914687904733 1:3.9006301e-07 2:0.00053237198 3:3.5032099e-05 4:0.00049860799 5:-0.00013087199 6:-4.6536802e-06 7:-1.77117e-05 8:2.54113e-05 9:0.000149067 10:7.6862398e-06 11:5.3067401e-05 12:-1.09932e-05 13:-3.3542201e-05 14:0.00071742298 15:0.00069274398 16:2.46749e-05 17:-0.00094390498 18:0 19:0 20:0 21:0 22:0 23:0 24:0 25:0 26:0 27:0.00064630801 28:0.00138021 29:0.99999702 30:0.00050136901 31:-0 #
0.790988351204539585914687904733 1:7.2340001e-08 2:0.00033922601 3:0.000110149 4:0.000229224 5:8.8609697e-05 6:-2.5762299e-06 7:2.06408e-06 8:0.019639 9:0.93834698 10:6.6733701e-05 11:-0.0012022 12:2.75742e-05 13:0.00038819399 14:0.00042423501 15:0.000415357 16:8.8481902e-06 17:0 18:0 19:0 20:0 21:0 22:0 23:0 24:0 25:0 26:0.00040072401 27:0.000220631 28:0.00085381302 29:0.34512901 30:0.000890597 31:0.00136076 #
0.790988351204539585914687904733 1:2.4989799e-07 2:0.00097009703 3:8.5248001e-05 4:0.00088522001 5:-0.00027292001 6:-3.8652702e-06 7:-1.26177e-05 8:0.00679876 9:0.00189254 10:3.1033502e-05 11:0.00309636 12:-0.000115375 13:-2.2004901e-05 14:0.00127865 15:0.00121734 16:5.7149198e-05 17:-0.00114096 18:0 19:0 20:0 21:0 22:0 23:0 24:0 25:0 26:0 27:0.00104257 28:0.0117 29:0.99989402 30:0.00293854 31:-0 #
