SVM-light Version V6.02
2 # kernel type
3 # kernel parameter -d 
1 # kernel parameter -g 
1 # kernel parameter -s 
1 # kernel parameter -r 
empty# kernel parameter -u 
40 # highest feature index 
33014 # number of training documents 
2447 # number of support vectors plus 1 
1.7707456 # threshold b, each following line is a SV (starting with alpha*y)
-0.7909884379606383353333853847289 1:0 2:0 3:0 4:0 5:-0.43082601 6:0.0027640001 7:0.002532 8:0.015438 9:0.0056599998 10:0.034476001 11:-0.0011849999 12:0.00088499999 13:0.0047920002 14:0.273478 15:0.15273 16:0.084132001 17:0.071806997 18:0.035904001 19:0.179518 20:0.107711 21:0.107711 22:0.071806997 23:0.14361399 24:0.071806997 25:0.21542101 26:0.071806997 27:0.071806997 28:0.035904001 29:0.43084201 30:0 31:0 32:0 33:0.43084201 34:0 35:0 36:0 37:0.43084201 38:0 39:0 40:0 #
-0.7909884379606383353333853847289 1:0 2:0 3:0 4:0 5:-0.407076 6:0.00183 7:0.001579 8:0.012759 9:0.0067380001 10:0.017426001 11:-0.006457 12:0.0090190005 13:-0.0091829998 14:0.32912299 15:0.264938 16:0.050409999 17:0.101771 18:0 19:0.203541 20:0 21:0.101771 22:0 23:0.203541 24:0 25:0.101771 26:0.203541 27:0 28:0 29:0.407083 30:0 31:0 32:0 33:0.407083 34:0 35:0 36:0 37:0.407083 38:0 39:0 40:0 #
-0.7909884379606383353333853847289 1:0 2:0 3:0 4:0 5:-0.42908701 6:0.0027590001 7:0.0026090001 8:0.023313999 9:0.013948 10:0.059168998 11:-0.013753 12:0.0087850001 13:-0.001547 14:0.27453399 15:0.13697401 16:0.12055 17:0.183902 18:0.122601 19:0.061301 20:0 21:0.183902 22:0.122601 23:0.061301 24:0 25:0.061301 26:0.061301 27:0.183902 28:0.061301 29:0.429104 30:0 31:0 32:0 33:0.429104 34:0 35:0 36:0 37:0.429104 38:0 39:0 40:0 #
-0.7909884379606383353333853847289 1:0 2:0 3:0 4:0 5:-0.41850901 6:0.002685 7:0.002542 8:0.031753 9:0.0071330001 10:0.015173 11:0.012575 12:-0.0032339999 13:-0.006484 14:0.29710799 15:0.17772201 16:0.117355 17:0.104631 18:0 19:0.209263 20:0 21:0.104631 22:0 23:0.209263 24:0 25:0.104631 26:0.209263 27:0 28:0 29:0.41852501 30:0 31:0 32:0 33:0.41852501 34:0 35:0 36:0 37:0.41852501 38:0 39:0 40:0 #
-0.7909884379606383353333853847289 1:0 2:0 3:0 4:0 5:-0.34629601 6:0.0021589999 7:0.0020389999 8:0.0099259997 9:0.013008 10:0.0085110003 11:-0.0074900002 12:0.0087270001 13:-0.0090669999 14:0.30223501 15:0.25816 16:0.044073999 17:0.34630901 18:0 19:0 20:0 21:0.34630901 22:0 23:0 24:0 25:0.34630901 26:0 27:0 28:0 29:0.34630901 30:0 31:0 32:0 33:0.34630901 34:0 35:0 36:0 37:0.34630901 38:0 39:0 40:0 #
-0.7909884379606383353333853847289 1:0 2:1e-06 3:0 4:1e-06 5:-0.225822 6:0.001294 7:0.001107 8:0.127652 9:0.828152 10:0.047563002 11:-0.202932 12:-0.029672001 13:0.091591001 14:0.20112801 15:0.18453 16:0.0084950002 17:0.092840999 18:0.092840999 19:0.037638001 20:0 21:0.090331003 22:0.087821998 23:0.042656001 24:0.002509 25:0.017564001 26:0.070257999 27:0.055202998 28:0.080294997 29:0.183172 30:0.002509 31:0.007528 32:0.017564001 33:0.027601 34:0.060221002 35:0.005018 36:0 37:0.170626 38:0.002509 39:0.020074001 40:0.025092 #
-0.7909884379606383353333853847289 1:2e-06 2:0 3:0 4:0 5:0.43794999 6:-0.013041 7:0.027928 8:0.0052479999 9:0.0038640001 10:0.10036 11:-0.00073199999 12:0.018030001 13:0.0056579998 14:0.41692099 15:0.39817399 16:0.015382 17:0.062719002 18:0.18815701 19:0.125438 20:0 21:0.062719002 22:0.18815701 23:0.125438 24:0 25:0.062719002 26:0.125438 27:0.18815701 28:0 29:0.37631401 30:0 31:0 32:0 33:0.125438 34:0 35:0 36:0 37:0.37631401 38:0 39:0 40:0 #
0.7909884379606383353333853847289 1:0 2:1e-06 3:1e-06 4:0 5:-0.260438 6:0.001664 7:0.001778 8:0.80333501 9:0.066974998 10:0.118083 11:-0.146864 12:-0.031458002 13:-0.002932 14:0.219458 15:0.18842299 16:0.021079 17:0.170956 18:0.064251997 19:0.017209999 20:0.007458 21:0.167514 22:0.071135998 23:0.013195 24:0.0080310004 25:0.016062999 26:0.018931 27:0.078019999 28:0.146861 29:0.116456 30:0.062531002 31:0.059089001 32:0.021226 33:0.129077 34:0.079167001 35:0.011474 36:0 37:0.11703 38:0.054499 39:0.069989003 40:0.018358 #
0.7909884379606383353333853847289 1:0 2:1e-06 3:1e-06 4:0 5:-0.254444 6:0.001619 7:0.001731 8:0.80869597 9:0.072690003 10:0.116443 11:-0.180996 12:-0.03125 13:0.012516 14:0.217345 15:0.18795601 16:0.021667 17:0.12539101 18:0.082895003 19:0.039349001 20:0.006296 21:0.16526499 22:0.044594999 23:0.037774999 24:0.006296 25:0.012067 26:0.024659 27:0.073976003 28:0.14323001 29:0.133261 30:0.047743 31:0.053514 32:0.017837999 33:0.058235999 34:0.118571 35:0.024134001 36:0 37:0.121194 38:0.069778003 39:0.054039001 40:0.0083940001 #
-0.7909884379606383353333853847289 1:2e-06 2:0 3:0 4:0 5:0.43794999 6:-0.013041 7:0.027928 8:0.0052479999 9:0.0038640001 10:0.10036 11:-0.00073199999 12:0.018030001 13:0.0056579998 14:0.41692099 15:0.39817399 16:0.015382 17:0.062719002 18:0.18815701 19:0.125438 20:0 21:0.062719002 22:0.18815701 23:0.125438 24:0 25:0.062719002 26:0.125438 27:0.18815701 28:0 29:0.37631401 30:0 31:0 32:0 33:0.125438 34:0 35:0 36:0 37:0.37631401 38:0 39:0 40:0 #
0.7909884379606383353333853847289 1:2e-06 2:1e-06 3:1e-06 4:1e-06 5:0.42117199 6:-0.017990001 7:0.028395999 8:0.17570101 9:0.04964 10:0.13531999 11:-0.068015002 12:0.138217 13:-0.067001998 14:0.384056 15:0.35791799 16:0.013822 17:0.1779 18:0.111187 19:0.044475 20:0.066711999 21:0.155662 22:0.088950001 23:0.088950001 24:0.066711999 25:0.155662 26:0.066711999 27:0.044475 28:0.133425 29:0.40027401 30:0 31:0 32:0 33:0.044475 34:0 35:0 36:0 37:0.40027401 38:0 39:0 40:0 #
-0.7909884379606383353333853847289 1:0 2:1e-06 3:0 4:1e-06 5:-0.369665 6:0.002137 7:0.00185 8:0.37805301 9:0.454034 10:0.084940001 11:-0.25815099 12:0.036469001 13:-0.083851002 14:0.27799699 15:0.212258 16:0.039799001 17:0.15474799 18:0.137554 19:0.034387998 20:0.034387998 21:0.15474799 22:0.120359 23:0.051583 24:0.034387998 25:0.051583 26:0.111762 27:0.137554 28:0.060180001 29:0.292301 30:0 31:0.025791001 32:0.034387998 33:0.060180001 34:0.068777002 35:0 36:0 37:0.292301 38:0 39:0.025791001 40:0.034387998 #
0.7909884379606383353333853847289 1:1e-06 2:3.0000001e-06 3:3.0000001e-06 4:1e-06 5:0.237325 6:-0.0079380004 7:0.016107 8:0.77824402 9:0.13748901 10:0.022815 11:0.26172099 12:-0.076701999 13:-0.034247998 14:0.22309101 15:0.21154501 16:0.0081799999 17:0.075158998 18:0.075158998 19:0.025053 20:0.050106 21:0.100212 22:0.062632002 23:0.012526 24:0.050106 25:0.062632002 26:0.025053 27:0.050106 28:0.087684996 29:0.225477 30:0 31:0 32:0 33:0.025053 34:0 35:0 36:0 37:0.225477 38:0 39:0 40:0 #
0.7909884379606383353333853847289 1:1e-06 2:3.0000001e-06 3:2e-06 4:1e-06 5:0.26009601 6:-0.011209 7:0.015199 8:0.684838 9:0.25211 10:0.091765001 11:0.32427099 12:0.004675 13:0.011293 14:0.21761 15:0.19346 16:0.0051290002 17:0.030680001 18:0.069030002 19:0.030680001 20:0.12272 21:0.023010001 22:0.069030002 23:0.030680001 24:0.13039 25:0.1534 26:0.053690001 27:0.030680001 28:0.01534 29:0.253111 30:0 31:0 32:0 33:0.01534 34:0 35:0 36:0 37:0.253111 38:0 39:0 40:0 #
0.7909884379606383353333853847289 1:1e-06 2:4e-06 3:4e-06 4:1e-06 5:0.241979 6:-0.0074140001 7:0.016581001 8:0.80411899 9:0.160822 10:0.045577999 11:0.18793499 12:-0.028596999 13:-0.024953 14:0.205659 15:0.17831001 16:0.017697999 17:0.059785999 18:0.098471001 19:0.063303001 20:0.017584 21:0.045719001 22:0.105504 23:0.070335999 24:0.017584 25:0.066818997 26:0.098471001 27:0.049235001 28:0.024618 29:0.225076 30:0 31:0.003517 32:0 33:0.017584 34:0.017584 35:0 36:0 37:0.225076 38:0 39:0.014067 40:0 #
-0.7909884379606383353333853847289 1:0 2:0 3:0 4:0 5:-0.426936 6:0.0030360001 7:0.0029120001 8:0.016807999 9:0.027349999 10:0.068673998 11:-0.001656 12:0.011825 13:-0.00721 14:0.27417299 15:0.17526899 16:0.045026001 17:0.213478 18:0.071158998 19:0 20:0.071158998 21:0.213478 22:0 23:0.071158998 24:0.071158998 25:0.14231899 26:0.071158998 27:0 28:0.14231899 29:0.42695701 30:0 31:0 32:0 33:0.42695701 34:0 35:0 36:0 37:0.42695701 38:0 39:0 40:0 #
0.7909884379606383353333853847289 1:0 2:0 3:0 4:0 5:-0.41685399 6:0.0027300001 7:0.002473 8:0.033371001 9:0.107898 10:0.017817 11:-0.005692 12:-0.0079309996 13:0.030634001 14:0.30932599 15:0.22021499 16:0.070678003 17:0.092638001 18:0.046319 19:0.185275 20:0.046319 21:0.092638001 22:0.046319 23:0.185275 24:0.046319 25:0.092638001 26:0.185275 27:0.046319 28:0.046319 29:0.41687 30:0 31:0 32:0 33:0.41687 34:0 35:0 36:0 37:0.41687 38:0 39:0 40:0 #
0.7909884379606383353333853847289 1:0 2:1e-06 3:0 4:1e-06 5:-0.22306199 6:0.001365 7:0.001207 8:0.11876 9:0.80158198 10:0.038302001 11:-0.28868499 12:-0.020486999 13:0.027055001 14:0.21139701 15:0.20193499 16:0.007253 17:0.046962 18:0.058701999 19:0.105664 20:0 21:0.046962 22:0.058701999 23:0.105664 24:0 25:0.070442997 26:0.093924001 27:0.023481 28:0.023481 29:0.187848 30:0 31:0.01174 32:0 33:0.046962 34:0.023481 35:0 36:0 37:0.187848 38:0 39:0.01174 40:0 #
0.7909884379606383353333853847289 1:0 2:1e-06 3:0 4:1e-06 5:-0.17830101 6:0.001129 7:0.00099900004 8:0.123314 9:0.82547098 10:0.045074999 11:-0.31416899 12:-0.037468001 13:0.081390001 14:0.171211 15:0.164517 16:0.0062930002 17:0.032419998 18:0 19:0 20:0.129678 21:0.032419998 22:0 23:0 24:0.129678 25:0.129678 26:0.016209999 27:0 28:0 29:0.16209801 30:0 31:0 32:0 33:0.032419998 34:0 35:0 36:0 37:0.16209801 38:0 39:0 40:0 #
-0.7909884379606383353333853847289 1:0 2:1e-06 3:0 4:1e-06 5:-0.369665 6:0.002137 7:0.00185 8:0.37805301 9:0.454034 10:0.084940001 11:-0.25815099 12:0.036469001 13:-0.083851002 14:0.27799699 15:0.212258 16:0.039799001 17:0.15474799 18:0.137554 19:0.034387998 20:0.034387998 21:0.15474799 22:0.120359 23:0.051583 24:0.034387998 25:0.051583 26:0.111762 27:0.137554 28:0.060180001 29:0.292301 30:0 31:0.025791001 32:0.034387998 33:0.060180001 34:0.068777002 35:0 36:0 37:0.292301 38:0 39:0.025791001 40:0.034387998 #
-0.7909884379606383353333853847289 1:0 2:1e-06 3:0 4:1e-06 5:-0.30629599 6:0.00177 7:0.001514 8:0.114626 9:0.68010497 10:0.077574 11:-0.203886 12:-0.057220999 13:0.119415 14:0.27066299 15:0.24667799 16:0.012329 17:0.028362 18:0.119118 19:0.096428998 20:0.056722999 21:0.068067998 22:0.096428998 23:0.079411998 24:0.056722999 25:0.062394999 26:0.096428998 27:0.085084997 28:0.056722999 29:0.27794299 30:0 31:0.0056719999 32:0 33:0.034033999 34:0.022689 35:0 36:0 37:0.27794299 38:0 39:0.017016999 40:0 #
0.7909884379606383353333853847289 1:2e-06 2:0 3:0 4:0 5:0.376937 6:-0.012325 7:0.024975 8:0 9:0 10:0 11:0 12:0 13:0 14:0.37796399 15:0 16:0 17:0 18:0.37796399 19:0 20:0 21:0 22:0.37796399 23:0 24:0 25:0 26:0.37796399 27:0 28:0 29:0 30:0.37796399 31:0 32:0 33:0 34:0.37796399 35:0 36:0 37:0 #
0.7909884379606383353333853847289 1:1e-06 2:0 3:0 4:0 5:0.37694901 6:-0.013031 7:0.024424 8:0 9:0 10:0 11:0 12:0 13:0 14:0.37796399 15:0 16:0 17:0 18:0.37796399 19:0 20:0 21:0 22:0.37796399 23:0 24:0 25:0 26:0.37796399 27:0 28:0 29:0 30:0.37796399 31:0 32:0 33:0 34:0.37796399 35:0 36:0 37:0 #
-0.7909884379606383353333853847289 1:2e-06 2:0 3:0 4:0 5:0.43794999 6:-0.013041 7:0.027928 8:0.0052479999 9:0.0038640001 10:0.10036 11:-0.00073199999 12:0.018030001 13:0.0056579998 14:0.41692099 15:0.39817399 16:0.015382 17:0.062719002 18:0.18815701 19:0.125438 20:0 21:0.062719002 22:0.18815701 23:0.125438 24:0 25:0.062719002 26:0.125438 27:0.18815701 28:0 29:0.37631401 30:0 31:0 32:0 33:0.125438 34:0 35:0 36:0 37:0.37631401 38:0 39:0 40:0 #
0.7909884379606383353333853847289 1:0 2:0 3:0 4:0 5:-0.425937 6:0.0029780001 7:0.0027399999 8:0.12999 9:0.044923 10:0.018776 11:-0.0050539998 12:0.028410001 13:-0.0043210001 14:0.301743 15:0.203178 16:0.072915003 17:0.094656996 18:0.094656996 19:0.094656996 20:0.094656996 21:0.094656996 22:0.094656996 23:0.094656996 24:0.094656996 25:0.141985 26:0.141985 27:0.047327999 28:0.047327999 29:0.42595601 30:0 31:0 32:0 33:0.42595601 34:0 35:0 36:0 37:0.42595601 38:0 39:0 40:0 #
0.7909884379606383353333853847289 1:0 2:1e-06 3:0 4:1e-06 5:-0.202012 6:0.001257 7:0.001111 8:0.112473 9:0.81080198 10:0.030107999 11:-0.29435799 12:-0.016836001 13:0.033661 14:0.194923 15:0.18871801 16:0.005314 17:0.118835 18:0.059416998 19:0 20:0.011883 21:0.118835 22:0.059416998 23:0 24:0.011883 25:0.023767 26:0.023767 27:0.011883 28:0.13071799 29:0.190136 30:0 31:0 32:0 33:0.011883 34:0.011883 35:0 36:0 37:0.190136 38:0 39:0 40:0 #
-0.7909884379606383353333853847289 1:2e-06 2:0 3:0 4:0 5:0.377103 6:-0.010791 7:0.023115 8:0 9:0 10:0 11:0 12:0 13:0 14:0.37796399 15:0 16:0 17:0 18:0.37796399 19:0 20:0 21:0 22:0.37796399 23:0 24:0 25:0 26:0.37796399 27:0 28:0 29:0 30:0.37796399 31:0 32:0 33:0 34:0.37796399 35:0 36:0 37:0 #
-0.7909884379606383353333853847289 1:3.0000001e-06 2:0 3:0 4:0 5:-0.373546 6:0.007394 7:0.057149 8:0 9:0 10:0 11:0 12:0 13:0 14:0.37796399 15:0 16:0 17:0 18:0.37796399 19:0 20:0 21:0 22:0.37796399 23:0 24:0 25:0 26:0.37796399 27:0 28:0 29:0 30:0.37796399 31:0 32:0 33:0 34:0.37796399 35:0 36:0 37:0 #
-0.6421613953024305487815581727773 1:0 2:0 3:0 4:0 5:-0.41427001 6:0.003003 7:0.0030380001 8:0.0094299996 9:0.014667 10:0.022414999 11:-0.001451 12:-0.012579 13:0.0018420001 14:0.270978 15:0.143344 16:0.111955 17:0.082859002 18:0 19:0.248576 20:0 21:0.082859002 22:0 23:0.248576 24:0 25:0.082859002 26:0.248576 27:0 28:0 29:0.41429299 30:0 31:0 32:0 33:0.41429299 34:0 35:0 36:0 37:0.41429299 38:0 39:0 40:0 #
0.7909884379606383353333853847289 1:2e-06 2:0 3:0 4:0 5:0.37879199 6:-0.015859 7:0.024003001 8:0.034813002 9:0.0046700002 10:2e-06 11:0.011003 12:0.000122 13:-2e-06 14:0.36947101 15:0.359063 16:0.010405 17:0.22792999 18:0 19:0 20:0 21:0.22792999 22:0 23:0 24:0.075976998 25:0.151953 26:0 27:0 28:0.151953 29:0.37988299 30:0 31:0 32:0 33:0.37988299 34:0 35:0 36:0 37:0.37988299 38:0 39:0 40:0 #
-0.7909884379606383353333853847289 1:0 2:1e-06 3:0 4:1e-06 5:-0.30629599 6:0.00177 7:0.001514 8:0.114626 9:0.68010497 10:0.077574 11:-0.203886 12:-0.057220999 13:0.119415 14:0.27066299 15:0.24667799 16:0.012329 17:0.028362 18:0.119118 19:0.096428998 20:0.056722999 21:0.068067998 22:0.096428998 23:0.079411998 24:0.056722999 25:0.062394999 26:0.096428998 27:0.085084997 28:0.056722999 29:0.27794299 30:0 31:0.0056719999 32:0 33:0.034033999 34:0.022689 35:0 36:0 37:0.27794299 38:0 39:0.017016999 40:0 #
-0.68717599892691438867586839478463 1:2e-06 2:2e-06 3:2e-06 4:2e-06 5:0.43430701 6:-0.016082 7:0.027539 8:0.35941401 9:0.26398599 10:0.29049301 11:0.069775 12:-0.096334003 13:-0.07903 14:0.227366 15:0.112676 16:0.021271 17:0.22033399 18:0.16395301 19:0.0319 20:0.018547 21:0.25149301 22:0.134278 23:0.031158 24:0.017805001 25:0.036350999 26:0.060833 27:0.124634 28:0.212916 29:0.259653 30:0.072702996 31:0.089766003 32:0.012612 33:0.066026002 34:0.26410499 35:0.015579 36:0.011128 37:0.211432 38:0.074187003 39:0.076412 40:0.071961001 #
-0.7909884379606383353333853847289 1:0 2:1e-06 3:0 4:1e-06 5:-0.369665 6:0.002137 7:0.00185 8:0.37805301 9:0.454034 10:0.084940001 11:-0.25815099 12:0.036469001 13:-0.083851002 14:0.27799699 15:0.212258 16:0.039799001 17:0.15474799 18:0.137554 19:0.034387998 20:0.034387998 21:0.15474799 22:0.120359 23:0.051583 24:0.034387998 25:0.051583 26:0.111762 27:0.137554 28:0.060180001 29:0.292301 30:0 31:0.025791001 32:0.034387998 33:0.060180001 34:0.068777002 35:0 36:0 37:0.292301 38:0 39:0.025791001 40:0.034387998 #
-0.7909884379606383353333853847289 1:0 2:1e-06 3:0 4:1e-06 5:-0.341618 6:0.001957 7:0.0016749999 8:0.130015 9:0.63043302 10:0.116393 11:-0.166925 12:-0.020060999 13:0.04879 14:0.267214 15:0.223452 16:0.01311 17:0.083099 18:0.156964 19:0.046165999 20:0.046165999 21:0.120032 22:0.129265 23:0.0277 24:0.055399001 25:0.055399001 26:0.110798 27:0.036933001 28:0.129265 29:0.31392899 30:0 31:0.0092329998 32:0 33:0.0277 34:0.0277 35:0 36:0 37:0.31392899 38:0 39:0.018466 40:0 #
-0.7909884379606383353333853847289 1:0 2:0 3:0 4:0 5:-0.40193701 6:0.0026700001 7:0.0025269999 8:0.0092489999 9:0.0099160001 10:0.060476001 11:0.001746 12:0.0049840002 13:-0.018874001 14:0.33839399 15:0.28557 16:0.042087998 17:0.17226601 18:0.057422001 19:0.057422001 20:0.057422001 21:0.229688 22:0 23:0.114844 24:0 25:0.057422001 26:0 27:0.114844 28:0.17226601 29:0.401954 30:0 31:0 32:0 33:0.401954 34:0 35:0 36:0 37:0.401954 38:0 39:0 40:0 #
-0.7909884379606383353333853847289 1:0 2:1e-06 3:0 4:0 5:-0.40092099 6:0.002328 7:0.002016 8:0.34185901 9:0.37910101 10:0.083241999 11:-0.218281 12:0.035766002 13:-0.040440001 14:0.29182801 15:0.221322 16:0.031907 17:0.112543 18:0.12661099 19:0.105509 20:0.049237002 21:0.098475002 22:0.112543 23:0.133644 24:0.049237002 25:0.063304998 26:0.16178 27:0.112543 28:0.056271002 29:0.35169601 30:0 31:0.028136 32:0 33:0.007034 34:0.077372998 35:0.014068 36:0 37:0.35169601 38:0.007034 39:0.014068 40:0.021102 #
0.7909884379606383353333853847289 1:1e-06 2:4e-06 3:4e-06 4:1e-06 5:0.248454 6:-0.0074669998 7:0.01691 8:0.81397802 9:0.115432 10:0.077595003 11:0.149689 12:-0.021948 13:-0.017479001 14:0.209188 15:0.185919 16:0.0065839998 17:0.079912998 18:0.084614001 19:0.056409001 20:0.023504 21:0.056409001 22:0.103417 23:0.061110001 24:0.023504 25:0.037606001 26:0.094015002 27:0.084614001 28:0.028205 29:0.220936 30:0 31:0 32:0 33:0.056409001 34:0 35:0 36:0 37:0.220936 38:0 39:0 40:0 #
0.7909884379606383353333853847289 1:2e-06 2:0 3:0 4:1e-06 5:0.433184 6:-0.019033 7:0.026590999 8:0.0081879999 9:0.077151 10:0.115216 11:-0.011915 12:0.001861 13:-0.072531998 14:0.37178701 15:0.31733999 16:0.046264 17:0.054302 18:0 19:0.32581201 20:0 21:0.054302 22:0 23:0.32581201 24:0 25:0.054302 26:0.217208 27:0.108604 28:0 29:0.38011399 30:0 31:0 32:0 33:0.054302 34:0.108604 35:0 36:0 37:0.32581201 38:0 39:0 40:0 #
0.7909884379606383353333853847289 1:1e-06 2:4e-06 3:3.0000001e-06 4:1e-06 5:0.24143299 6:-0.0083999997 7:0.016341999 8:0.81254798 9:0.113022 10:0.022910999 11:0.191181 12:-0.019117 13:-0.01261 14:0.22004101 15:0.203325 16:0.011341 17:0.050678998 18:0.123881 19:0.045047998 20:0.016892999 21:0.090094998 22:0.090094998 23:0.039416999 24:0.016892999 25:0.033785999 26:0.050678998 27:0.073201999 28:0.078832999 29:0.20271499 30:0 31:0.0056309998 32:0.028155001 33:0.016892999 34:0.056310002 35:0 36:0 37:0.20271499 38:0 39:0.0056309998 40:0.028155001 #
-0.7909884379606383353333853847289 1:2e-06 2:0 3:0 4:0 5:0.377103 6:-0.010791 7:0.023115 8:0 9:0 10:0 11:0 12:0 13:0 14:0.37796399 15:0 16:0 17:0 18:0.37796399 19:0 20:0 21:0 22:0.37796399 23:0 24:0 25:0 26:0.37796399 27:0 28:0 29:0 30:0.37796399 31:0 32:0 33:0 34:0.37796399 35:0 36:0 37:0 #
-0.7909884379606383353333853847289 1:2e-06 2:9.0000003e-06 3:8e-06 4:1e-06 5:0.235563 6:-0.003701 7:0.022082999 8:0.78464699 9:0.079457998 10:0.028232001 11:0.246911 12:-0.003574 13:-0.0031989999 14:0.22871999 15:0.221201 16:0.0071330001 17:0.046393 18:0.129527 19:0.029831 20:0.030858999 21:0.123823 22:0.065127999 23:0.019122999 24:0.028535999 25:0.051739 26:0.060035001 27:0.072084002 28:0.052751999 29:0.200434 30:0.016189 31:0.0098740002 32:0.010113 33:0.028044 34:0.017053001 35:0.048493002 36:0.138642 37:0.198245 38:0.015831999 39:0.0054359999 40:0.017098 #
0.7909884379606383353333853847289 1:0 2:1e-06 3:0 4:1e-06 5:-0.33687699 6:0.0020949999 7:0.0022740001 8:0.16619501 9:0.60608703 10:0.137979 11:-0.180793 12:-0.049848001 13:0.159677 14:0.26608399 15:0.227422 16:0.0065159998 17:0.093782999 18:0.157519 19:0.073752001 20:0.010926 21:0.16116101 22:0.115636 23:0.051899001 24:0.0072840001 25:0.046436001 26:0.083768003 27:0.134757 28:0.07102 29:0.29591799 30:0.024584001 31:0.010926 32:0.003642 33:0.0081949998 34:0.016388999 35:0.061914999 36:0.020942001 37:0.28408101 38:0.044615 39:0.0054629999 40:0.001821 #
0.7909884379606383353333853847289 1:0 2:1e-06 3:0 4:1e-06 5:-0.29900599 6:0.001865 7:0.002023 8:0.210059 9:0.67113501 10:0.117057 11:-0.245766 12:-0.036270998 13:0.12612499 14:0.24032401 15:0.205741 16:0.01047 17:0.057259001 18:0.144738 19:0.072369002 20:0.023858 21:0.089864999 22:0.124061 23:0.066007003 24:0.018291 25:0.031810999 26:0.077936001 27:0.120085 28:0.068392999 29:0.268004 30:0.0087479996 31:0.0095429998 32:0.011134 33:0.003181 34:0.025448 35:0.03022 36:0.017495999 37:0.25607499 38:0.015905 39:0.017495999 40:0.003976 #
0.7909884379606383353333853847289 1:3.0000001e-06 2:1e-06 3:0 4:1e-06 5:-0.38723901 6:0.007553 7:0.047483999 8:0.047405001 9:0.059062 10:0.010086 11:-0.044020999 12:-0.020175001 13:0.015549 14:0.349145 15:0.31032601 16:0.036571 17:0.037163001 18:0.018581999 19:0.148653 20:0.167234 21:0.037163001 22:0.018581999 23:0.148653 24:0.167234 25:0.20439699 26:0.130071 27:0.018581999 28:0.018581999 29:0.39021301 30:0 31:0 32:0 33:0.39021301 34:0 35:0 36:0 37:0.39021301 38:0 39:0 40:0 #
-0.7909884379606383353333853847289 1:2e-06 2:9.0000003e-06 3:8e-06 4:1e-06 5:0.235563 6:-0.003701 7:0.022082999 8:0.78464699 9:0.079457998 10:0.028232001 11:0.246911 12:-0.003574 13:-0.0031989999 14:0.22871999 15:0.221201 16:0.0071330001 17:0.046393 18:0.129527 19:0.029831 20:0.030858999 21:0.123823 22:0.065127999 23:0.019122999 24:0.028535999 25:0.051739 26:0.060035001 27:0.072084002 28:0.052751999 29:0.200434 30:0.016189 31:0.0098740002 32:0.010113 33:0.028044 34:0.017053001 35:0.048493002 36:0.138642 37:0.198245 38:0.015831999 39:0.0054359999 40:0.017098 #
-0.7909884379606383353333853847289 1:2e-06 2:1e-06 3:1e-06 4:1e-06 5:0.48772299 6:-0.01816 7:0.031461999 8:0.19543999 9:0.16033401 10:0.160761 11:-0.012144 12:-0.069080003 13:0.079348996 14:0.26699999 15:0.107894 16:0.096138 17:0.156987 18:0.217366 19:0.096607 20:0.012076 21:0.132835 22:0.23548 23:0.096607 24:0.018114001 25:0.054342002 26:0.16302501 27:0.187177 28:0.078492999 29:0.398505 30:0 31:0.054342002 32:0.024152 33:0.036228001 34:0.042266 35:0.096607 36:0 37:0.39246699 38:0.0060379999 39:0.060380001 40:0.018114001 #
0.7909884379606383353333853847289 1:1e-06 2:0 3:0 4:0 5:0.37689799 6:-0.013296 7:0.025072001 8:0 9:0 10:0 11:0 12:0 13:0 14:0.37796399 15:0 16:0 17:0 18:0.37796399 19:0 20:0 21:0 22:0.37796399 23:0 24:0 25:0 26:0.37796399 27:0 28:0 29:0 30:0.37796399 31:0 32:0 33:0 34:0.37796399 35:0 36:0 37:0 #
0.7909884379606383353333853847289 1:1e-06 2:0 3:0 4:0 5:0.376872 6:-0.013465 7:0.025357001 8:0 9:0 10:0 11:0 12:0 13:0 14:0.37796399 15:0 16:0 17:0 18:0.37796399 19:0 20:0 21:0 22:0.37796399 23:0 24:0 25:0 26:0.37796399 27:0 28:0 29:0 30:0.37796399 31:0 32:0 33:0 34:0.37796399 35:0 36:0 37:0 #
-0.7909884379606383353333853847289 1:2e-06 2:0 3:0 4:0 5:0.376977 6:-0.011556 7:0.024739999 8:0 9:0 10:0 11:0 12:0 13:0 14:0.37796399 15:0 16:0 17:0 18:0.37796399 19:0 20:0 21:0 22:0.37796399 23:0 24:0 25:0 26:0.37796399 27:0 28:0 29:0 30:0.37796399 31:0 32:0 33:0 34:0.37796399 35:0 36:0 37:0 #
0.7909884379606383353333853847289 1:1e-06 2:4e-06 3:3.0000001e-06 4:1e-06 5:0.27938801 6:-0.0089950003 7:0.018943001 8:0.77006602 9:0.12549999 10:0.061260998 11:0.17654601 12:0.014471 13:0.012534 14:0.238833 15:0.214371 16:0.007582 17:0.074432001 18:0.133416 19:0.056175001 20:0.015448 21:0.12920301 22:0.096199997 23:0.038619999 24:0.015448 25:0.035110001 26:0.073729999 27:0.13201199 28:0.038619999 29:0.202231 30:0.040025 31:0.028790001 32:0.0084260004 33:0.015448 34:0.064602003 35:0.075134002 36:0.025279 37:0.19239999 38:0.046344999 39:0.033002999 40:0.0077240001 #
-0.7909884379606383353333853847289 1:2e-06 2:1e-06 3:1e-06 4:1e-06 5:0.48772299 6:-0.01816 7:0.031461999 8:0.19543999 9:0.16033401 10:0.160761 11:-0.012144 12:-0.069080003 13:0.079348996 14:0.26699999 15:0.107894 16:0.096138 17:0.156987 18:0.217366 19:0.096607 20:0.012076 21:0.132835 22:0.23548 23:0.096607 24:0.018114001 25:0.054342002 26:0.16302501 27:0.187177 28:0.078492999 29:0.398505 30:0 31:0.054342002 32:0.024152 33:0.036228001 34:0.042266 35:0.096607 36:0 37:0.39246699 38:0.0060379999 39:0.060380001 40:0.018114001 #
0.7909884379606383353333853847289 1:0 2:1e-06 3:1e-06 4:0 5:-0.307477 6:0.001913 7:0.001703 8:0.61615503 9:0.31404001 10:0.064966999 11:0.323257 12:-0.034542002 13:-0.0085399998 14:0.25441799 15:0.220125 16:0.015518 17:0.105615 18:0.125669 19:0.056150001 20:0.019385001 21:0.11631 22:0.11631 23:0.054813001 24:0.019385001 25:0.044117998 26:0.104947 27:0.109626 28:0.048128001 29:0.232621 30:0.030749001 31:0.024733 32:0.017379999 33:0.027406 34:0.062166002 35:0.074867003 36:0.022727 37:0.212567 38:0.051470999 39:0.029412 40:0.012701 #
0.7909884379606383353333853847289 1:4.9999999e-06 2:1.5e-05 3:1.3e-05 4:7.0000001e-06 5:-0.29166099 6:0.005562 7:0.077471003 8:0.61573601 9:0.244755 10:0.119618 11:0.25963101 12:-0.15381999 13:-0.096217997 14:0.24561299 15:0.20990101 16:0.01521 17:0.114981 18:0.091985002 19:0.063239999 20:0.028744999 21:0.112107 22:0.089110002 23:0.068989001 24:0.028744999 25:0.077611998 26:0.060364999 27:0.080486998 28:0.080486998 29:0.29607701 30:0 31:0 32:0 33:0.0057489998 34:0.0057489998 35:0 36:0 37:0.29607701 38:0 39:0 40:0 #
-0.7909884379606383353333853847289 1:2e-06 2:2e-06 3:2e-06 4:2e-06 5:0.49403399 6:-0.0165 7:0.033799 8:0.17929301 9:0.207119 10:0.240749 11:-0.02385 12:-0.041244999 13:0.032083001 14:0.222946 15:0.074634001 16:0.024106 17:0.038465001 18:0.16393299 19:0.085171998 20:0.20697699 21:0.099825002 22:0.130964 23:0.070519 24:0.19324 25:0.23078901 26:0.143785 27:0.089750998 28:0.030222001 29:0.37823701 30:0.057697002 31:0.030222001 32:0.028391 33:0.057697002 34:0.082424998 35:0.144701 36:0.025643 37:0.38373199 38:0.053118002 39:0.030222001 40:0.027474999 #
-0.6564769653644298985639693455596 1:2e-06 2:0 3:0 4:0 5:0.469311 6:-0.014115 7:0.030219 8:0.001804 9:0.0070770001 10:0.064911999 11:-0.002726 12:0.0056150001 13:-0.0077229999 14:0.423794 15:0.38066801 16:0.039551999 17:0.156831 18:0.156831 19:0.052276999 20:0.052276999 21:0.156831 22:0.156831 23:0.052276999 24:0.052276999 25:0.052276999 26:0.052276999 27:0.20910899 28:0.104554 29:0.20910899 30:0 31:0.20910899 32:0 33:0.104554 34:0.31366301 35:0 36:0 37:0.26138601 38:0 39:0.104554 40:0.052276999 #
0.7909884379606383353333853847289 1:0 2:1e-06 3:0 4:1e-06 5:-0.346863 6:0.00173 7:0.00136 8:0.14608 9:0.62406701 10:0.050519001 11:-0.16121399 12:0.034784999 13:-0.05012 14:0.28687999 15:0.243453 16:0.026866 17:0.103579 18:0.144529 19:0.081900001 20:0.014453 21:0.110806 22:0.125258 23:0.089125998 24:0.019270999 25:0.062628999 26:0.086717002 27:0.108397 28:0.086717002 29:0.30351099 30:0.0048179999 31:0.016861999 32:0.016861999 33:0.021679001 34:0.055403002 35:0.0072260001 36:0 37:0.30351099 38:0.0048179999 39:0.012044 40:0.014453 #
0.7909884379606383353333853847289 1:0 2:1e-06 3:1e-06 4:1e-06 5:-0.26733199 6:0.001666 7:0.001801 8:0.50975102 9:0.49003801 10:0.108903 11:-0.408907 12:-0.035211001 13:0.076439999 14:0.221018 15:0.190523 16:0.014665 17:0.078034997 18:0.13294899 19:0.041908 20:0.013969 21:0.139211 22:0.085743003 23:0.032274 24:0.0096340002 25:0.017340999 26:0.068883002 27:0.099229999 28:0.081407003 29:0.200387 30:0.028419999 31:0.026975 32:0.011079 33:0.014451 34:0.078034997 35:0.058766998 36:0.018305 37:0.157998 38:0.058766998 39:0.039018001 40:0.0096340002 #
-0.7909884379606383353333853847289 1:0 2:1e-06 3:1e-06 4:1e-06 5:-0.36987099 6:0.0021929999 7:0.001898 8:0.41099501 9:0.40648901 10:0.090089999 11:-0.274382 12:0.034430999 13:-0.050375 14:0.280855 15:0.225086 16:0.022511 17:0.052839998 18:0.123294 19:0.132101 20:0.052839998 21:0.105681 22:0.070454001 23:0.132101 24:0.052839998 25:0.114487 26:0.070454001 27:0.105681 28:0.061647002 29:0.30823499 30:0.017612999 31:0.017612999 32:0.017612999 33:0.0088069998 34:0.079260997 35:0.026419999 36:0 37:0.31704199 38:0 39:0.026419999 40:0 #
0.7909884379606383353333853847289 1:2e-06 2:0 3:0 4:0 5:0.46366 6:-0.019881001 7:0.031246001 8:0.021002 9:0.066482998 10:0.050907999 11:-0.035835002 12:-0.02221 13:0.041095 14:0.39819601 15:0.33561301 16:0.058224 17:0.103364 18:0.25840899 19:0.051681999 20:0.025841 21:0.077523001 22:0.25840899 23:0.025841 24:0.077523001 25:0.103364 26:0.051681999 27:0.129205 28:0.155045 29:0.36177301 30:0 31:0.077523001 32:0 33:0.077523001 34:0.077523001 35:0.051681999 36:0 37:0.36177301 38:0.025841 39:0.025841 40:0 #
-0.7909884379606383353333853847289 1:0 2:1e-06 3:0 4:1e-06 5:-0.30629599 6:0.00177 7:0.001514 8:0.114626 9:0.68010497 10:0.077574 11:-0.203886 12:-0.057220999 13:0.119415 14:0.27066299 15:0.24667799 16:0.012329 17:0.028362 18:0.119118 19:0.096428998 20:0.056722999 21:0.068067998 22:0.096428998 23:0.079411998 24:0.056722999 25:0.062394999 26:0.096428998 27:0.085084997 28:0.056722999 29:0.27794299 30:0 31:0.0056719999 32:0 33:0.034033999 34:0.022689 35:0 36:0 37:0.27794299 38:0 39:0.017016999 40:0 #
0.7909884379606383353333853847289 1:4e-06 2:1e-06 3:1e-06 4:1e-06 5:-0.45629901 6:0.0090779997 7:0.060449999 8:0.071423002 9:0.090855002 10:0.040862001 11:-0.055961002 12:0.026876001 13:-0.016919 14:0.332351 15:0.245434 16:0.045811001 17:0.345281 18:0.038364999 19:0.038364999 20:0 21:0.30691701 22:0.076729 23:0.038364999 24:0 25:0.038364999 26:0.038364999 27:0.076729 28:0.26855201 29:0.345281 30:0 31:0 32:0 33:0.230187 34:0 35:0 36:0 37:0.345281 38:0 39:0 40:0 #
-0.7909884379606383353333853847289 1:3.0000001e-06 2:0 3:0 4:0 5:-0.337089 6:0.0068890001 7:0.048055999 8:0.0020639999 9:0.0057979999 10:0.010926 11:0.003458 12:0.0040440001 13:0.0068689999 14:0.31740701 15:0.294247 16:0.023159999 17:0.34056699 18:0 19:0 20:0 21:0.34056699 22:0 23:0 24:0 25:0.34056699 26:0 27:0 28:0 29:0.34056699 30:0 31:0 32:0 33:0.34056699 34:0 35:0 36:0 37:0.34056699 38:0 39:0 40:0 #
0.7909884379606383353333853847289 1:0 2:0 3:0 4:0 5:-0.47538599 6:0.0036549999 7:0.0038119999 8:0.095409997 9:0.092197999 10:0.054411002 11:0.034474999 12:-0.039053999 13:-0.05012 14:0.323102 15:0.204007 16:0.085876003 17:0.095082998 18:0.22186001 19:0.120438 20:0.031693999 21:0.12677699 22:0.20284399 23:0.095082998 24:0.044372 25:0.057050001 26:0.164811 27:0.145794 28:0.101422 29:0.443721 30:0.019017 31:0.0063390001 32:0 33:0.0063390001 34:0.0063390001 35:0.031693999 36:0.025355 37:0.43738201 38:0.012678 39:0.019017 40:0 #
0.7909884379606383353333853847289 1:0 2:0 3:0 4:0 5:-0.44797501 6:0.0031109999 7:0.003032 8:0.028487001 9:0.14367101 10:0.066503003 11:-0.040052 12:-0.035388 13:0.068409003 14:0.37493399 15:0.31560501 16:0.045596 17:0.158116 18:0.13176399 19:0.105411 20:0.026353 21:0.158116 22:0.105411 23:0.13176399 24:0.026353 25:0.052705001 26:0.184469 27:0.052705001 28:0.13176399 29:0.42164299 30:0 31:0 32:0 33:0.052705001 34:0 35:0 36:0 37:0.42164299 38:0 39:0 40:0 #
-0.7909884379606383353333853847289 1:2e-06 2:2e-06 3:2e-06 4:2e-06 5:0.49403399 6:-0.0165 7:0.033799 8:0.17929301 9:0.207119 10:0.240749 11:-0.02385 12:-0.041244999 13:0.032083001 14:0.222946 15:0.074634001 16:0.024106 17:0.038465001 18:0.16393299 19:0.085171998 20:0.20697699 21:0.099825002 22:0.130964 23:0.070519 24:0.19324 25:0.23078901 26:0.143785 27:0.089750998 28:0.030222001 29:0.37823701 30:0.057697002 31:0.030222001 32:0.028391 33:0.057697002 34:0.082424998 35:0.144701 36:0.025643 37:0.38373199 38:0.053118002 39:0.030222001 40:0.027474999 #
-0.7909884379606383353333853847289 1:2e-06 2:1e-06 3:1e-06 4:1e-06 5:0.48772299 6:-0.01816 7:0.031461999 8:0.19543999 9:0.16033401 10:0.160761 11:-0.012144 12:-0.069080003 13:0.079348996 14:0.26699999 15:0.107894 16:0.096138 17:0.156987 18:0.217366 19:0.096607 20:0.012076 21:0.132835 22:0.23548 23:0.096607 24:0.018114001 25:0.054342002 26:0.16302501 27:0.187177 28:0.078492999 29:0.398505 30:0 31:0.054342002 32:0.024152 33:0.036228001 34:0.042266 35:0.096607 36:0 37:0.39246699 38:0.0060379999 39:0.060380001 40:0.018114001 #
-0.7909884379606383353333853847289 1:2e-06 2:0 3:0 4:0 5:0.47930801 6:-0.014338 7:0.030694 8:0.001316 9:0.011885 10:0.067730002 11:-0.0035620001 12:0.0028510001 13:-1.6e-05 14:0.40285799 15:0.32591 16:0.076249003 17:0.068643004 18:0.068643004 19:0.20592999 20:0.068643004 21:0.068643004 22:0.068643004 23:0.20592999 24:0.068643004 25:0.13728701 26:0.20592999 27:0.068643004 28:0 29:0.34321699 30:0 31:0 32:0 33:0.27457401 34:0 35:0 36:0 37:0.34321699 38:0 39:0 40:0 #
0.7909884379606383353333853847289 1:0 2:0 3:0 4:0 5:-0.33062199 6:0.002544 7:0.0026380001 8:0.0075449999 9:0.122788 10:0.000139 11:-0.030437 12:0.001025 13:-0.0041359998 14:0.330643 15:0.330643 16:0 17:0.330643 18:0 19:0 20:0 21:0.330643 22:0 23:0 24:0 25:0.330643 26:0 27:0 28:0 29:0.330643 30:0 31:0 32:0 33:0.330643 34:0 35:0 36:0 37:0.330643 38:0 39:0 40:0 #
-0.7909884379606383353333853847289 1:3.0000001e-06 2:0 3:0 4:0 5:-0.32926601 6:0.0066530001 7:0.051475 8:0.0018880001 9:0.001808 10:4e-06 11:-0.001848 12:8.2999999e-05 13:-8.1999999e-05 14:0.333332 15:0.333332 16:0 17:0.333332 18:0 19:0 20:0 21:0.333332 22:0 23:0 24:0 25:0.333332 26:0 27:0 28:0 29:0.333332 30:0 31:0 32:0 33:0.333332 34:0 35:0 36:0 37:0.333332 38:0 39:0 40:0 #
0.7909884379606383353333853847289 1:0 2:0 3:1e-06 4:0 5:-0.429598 6:0.002599 7:0.0027699999 8:0.45469499 9:0.0051779998 10:0.20125601 11:0.031051001 12:0.094040997 13:0.016634 14:0.31728801 15:0.20656601 16:0.109118 17:0.097104996 18:0.25011799 19:0.070621997 20:0.0088280002 21:0.094162002 22:0.25011799 23:0.070621997 24:0.01177 25:0.01177 26:0.073564 27:0.258946 28:0.082392 29:0.214807 30:0.073564 31:0.085334003 32:0.047081001 33:0.052965999 34:0.20598 35:0.052965999 36:0 37:0.214807 38:0.052965999 39:0.091219999 40:0.058851 #
-0.7909884379606383353333853847289 1:0 2:1e-06 3:0 4:1e-06 5:-0.326619 6:0.001847 7:0.001581 8:0.151094 9:0.64528 10:0.094364002 11:-0.16875 12:-0.043958999 13:0.104682 14:0.26324499 15:0.225455 16:0.012197 17:0.103927 18:0.144756 19:0.059386998 20:0.014847 21:0.100215 22:0.13733201 23:0.070522003 24:0.014847 25:0.070522003 26:0.066809997 27:0.107639 28:0.077945001 29:0.30435801 30:0 31:0.014847 32:0 33:0.011135 34:0.029693 35:0.0037120001 36:0 37:0.30435801 38:0 39:0.018557999 40:0 #
-0.7909884379606383353333853847289 1:1e-06 2:0 3:0 4:0 5:-0.50512999 6:0.00251 7:0.002165 8:0.0060200002 9:0.014275 10:0.019524001 11:-0.0028669999 12:-0.00046700001 13:0.000332 14:0.24838699 15:0.056503002 16:0.127014 17:0.123479 18:0.20205601 19:0.078576997 20:0.089803003 21:0.044900998 22:0.20205601 23:0.123479 24:0.123479 25:0.101028 26:0.17960601 27:0.15715501 28:0.056127001 29:0.46023899 30:0.022451 31:0.011225 32:0 33:0.022451 34:0 35:0.011225 36:0.056127001 37:0.48269001 38:0 39:0 40:0 #
-0.7909884379606383353333853847289 1:0 2:1e-06 3:0 4:0 5:-0.40092099 6:0.002328 7:0.002016 8:0.34185901 9:0.37910101 10:0.083241999 11:-0.218281 12:0.035766002 13:-0.040440001 14:0.29182801 15:0.221322 16:0.031907 17:0.112543 18:0.12661099 19:0.105509 20:0.049237002 21:0.098475002 22:0.112543 23:0.133644 24:0.049237002 25:0.063304998 26:0.16178 27:0.112543 28:0.056271002 29:0.35169601 30:0 31:0.028136 32:0 33:0.007034 34:0.077372998 35:0.014068 36:0 37:0.35169601 38:0.007034 39:0.014068 40:0.021102 #
0.30631005416410223007872559719544 1:1e-06 2:0 3:0 4:0 5:0.37687901 6:-0.016503001 7:0.023396 8:0 9:0 10:0 11:0 12:0 13:0 14:0.37796399 15:0 16:0 17:0 18:0.37796399 19:0 20:0 21:0 22:0.37796399 23:0 24:0 25:0 26:0.37796399 27:0 28:0 29:0 30:0.37796399 31:0 32:0 33:0 34:0.37796399 35:0 36:0 37:0 #
-0.7909884379606383353333853847289 1:0 2:1e-06 3:0 4:0 5:-0.42213401 6:0.0024659999 7:0.002134 8:0.34768599 9:0.32359999 10:0.061641 11:-0.18057799 12:0.057548001 13:-0.062132001 14:0.30630401 15:0.217035 16:0.062696002 17:0.046905 18:0.171986 19:0.09381 20:0.09381 21:0.125081 22:0.109446 23:0.078175001 24:0.09381 25:0.156351 26:0.062540002 27:0.109446 28:0.078175001 29:0.35960701 30:0 31:0.031270001 32:0 33:0.09381 34:0 35:0 36:0 37:0.35960701 38:0 39:0.031270001 40:0 #
0.7909884379606383353333853847289 1:2e-06 2:0 3:0 4:0 5:0.490042 6:-0.021543 7:0.032432999 8:0.0065560001 9:0.052377999 10:0.046213001 11:-0.013446 12:-0.0094860001 13:0.034517001 14:0.40793601 15:0.33784601 16:0.056527998 17:0.030724 18:0.092171997 19:0.122897 20:0.18434501 21:0.030724 22:0.092171997 23:0.122897 24:0.122897 25:0.215069 26:0.153621 27:0.092171997 28:0 29:0.36869001 30:0.061448 31:0.030724 32:0 33:0.030724 34:0.092171997 35:0.153621 36:0 37:0.30724201 38:0 39:0.153621 40:0 #
0.7909884379606383353333853847289 1:2e-06 2:0 3:0 4:0 5:0.47308201 6:-0.020693 7:0.031165 8:0.013674 9:0.056779999 10:0.049621999 11:-0.025568999 12:-0.019458 13:0.035604998 14:0.39824301 15:0.327833 16:0.064506002 17:0.018252 18:0.200775 19:0.091260999 20:0.146018 21:0.018252 22:0.182523 23:0.109514 24:0.146018 25:0.146018 26:0.127766 27:0.164271 28:0.018252 29:0.36504599 30:0.073008999 31:0.018252 32:0 33:0.018252 34:0.109514 35:0.091260999 36:0 37:0.36504599 38:0 39:0.036504999 40:0 #
0.7909884379606383353333853847289 1:2e-06 2:1e-06 3:0 4:1e-06 5:0.494311 6:-0.021142 7:0.033064 8:0.028084001 9:0.120096 10:0.053614002 11:-0.051385 12:-0.014215 13:0.045233998 14:0.40131399 15:0.31713501 16:0.073807001 17:0.055096 18:0.15151501 19:0.165289 20:0.110192 21:0.055096 22:0.20661099 23:0.110192 24:0.110192 25:0.082644001 26:0.082644001 27:0.165289 28:0.15151501 29:0.31680301 30:0.082644001 31:0.055096 32:0.027548 33:0.082644001 34:0.123967 35:0.165289 36:0 37:0.303029 38:0.082644001 39:0.068870001 40:0.027548 #
-0.7909884379606383353333853847289 1:2e-06 2:0 3:0 4:0 5:0.47930801 6:-0.014338 7:0.030694 8:0.001316 9:0.011885 10:0.067730002 11:-0.0035620001 12:0.0028510001 13:-1.6e-05 14:0.40285799 15:0.32591 16:0.076249003 17:0.068643004 18:0.068643004 19:0.20592999 20:0.068643004 21:0.068643004 22:0.068643004 23:0.20592999 24:0.068643004 25:0.13728701 26:0.20592999 27:0.068643004 28:0 29:0.34321699 30:0 31:0 32:0 33:0.27457401 34:0 35:0 36:0 37:0.34321699 38:0 39:0 40:0 #
-0.7909884379606383353333853847289 1:2e-06 2:1e-06 3:1e-06 4:1e-06 5:0.48772299 6:-0.01816 7:0.031461999 8:0.19543999 9:0.16033401 10:0.160761 11:-0.012144 12:-0.069080003 13:0.079348996 14:0.26699999 15:0.107894 16:0.096138 17:0.156987 18:0.217366 19:0.096607 20:0.012076 21:0.132835 22:0.23548 23:0.096607 24:0.018114001 25:0.054342002 26:0.16302501 27:0.187177 28:0.078492999 29:0.398505 30:0 31:0.054342002 32:0.024152 33:0.036228001 34:0.042266 35:0.096607 36:0 37:0.39246699 38:0.0060379999 39:0.060380001 40:0.018114001 #
-0.7909884379606383353333853847289 1:2e-06 2:0 3:0 4:0 5:0.518179 6:-0.015585 7:0.033365998 8:0.0010329999 9:0.0092949998 10:0.026874 11:-0.002636 12:-0.001556 13:-0.00082000002 14:0.376919 15:0.236486 16:0.138299 17:0.074212 18:0.222637 19:0 20:0.148425 21:0.074212 22:0.222637 23:0 24:0.148425 25:0.222637 26:0 27:0.222637 28:0 29:0.222637 30:0 31:0.148425 32:0.074212 33:0.148425 34:0 35:0.222637 36:0 37:0.29684901 38:0 39:0.148425 40:0 #
0.7909884379606383353333853847289 1:0 2:0 3:0 4:0 5:-0.40596199 6:0.0028629999 7:0.002817 8:0.033312999 9:0.158648 10:0.078708 11:-0.063469 12:0.0025480001 13:-0.054547999 14:0.30917099 15:0.214247 16:0.093038 17:0.135327 18:0.135327 19:0.067663997 20:0 21:0.135327 22:0 23:0.20299099 24:0 25:0.067663997 26:0.20299099 27:0.067663997 28:0 29:0.40598199 30:0 31:0 32:0 33:0.40598199 34:0 35:0 36:0 37:0.40598199 38:0 39:0 40:0 #
0.7909884379606383353333853847289 1:4e-06 2:1e-06 3:0 4:1e-06 5:-0.383149 6:0.007344 7:0.066684999 8:0.014478 9:0.082183003 10:1.5e-05 11:-0.025251999 12:-0.00043399999 13:0.00102 14:0.36444101 15:0.33990401 16:0.024537001 17:0.043219998 18:0.086439997 19:0.043219998 20:0.172879 21:0.043219998 22:0.086439997 23:0.043219998 24:0.172879 25:0.21609899 26:0.043219998 27:0.086439997 28:0 29:0.388978 30:0 31:0 32:0 33:0.388978 34:0 35:0 36:0 37:0.388978 38:0 39:0 40:0 #
-0.7909884379606383353333853847289 1:0 2:0 3:0 4:0 5:-0.473984 6:0.002572 7:0.0022390001 8:0.023898 9:0.0092080003 10:0.040894002 11:0.009656 12:-0.005138 13:-0.0035679999 14:0.278631 15:0.111431 16:0.139035 17:0.41474599 18:0 19:0 20:0 21:0.41474599 22:0 23:0 24:0 25:0.059248999 26:0 27:0.17774799 28:0.17774799 29:0.29624701 30:0 31:0.118499 32:0 33:0.059248999 34:0.118499 35:0.059248999 36:0 37:0.355497 38:0.059248999 39:0 40:0 #
-0.7909884379606383353333853847289 1:0 2:1e-06 3:0 4:1e-06 5:-0.363563 6:0.0021170001 7:0.0018110001 8:0.116487 9:0.54367203 10:0.102168 11:-0.170292 12:-0.066634998 13:0.113998 14:0.30277601 15:0.260223 16:0.024308 17:0.115132 18:0.15754899 19:0.060596 20:0.024238 21:0.109072 22:0.15754899 23:0.066655003 24:0.024238 25:0.054536 26:0.090893999 27:0.163608 28:0.048477001 29:0.32721701 30:0 31:0.012119 32:0 33:0.048477001 34:0.024238 35:0 36:0 37:0.32721701 38:0 39:0.012119 40:0 #
0.7909884379606383353333853847289 1:2e-06 2:0 3:0 4:0 5:0.51984203 6:-0.022833999 7:0.034387 8:0.0031010001 9:0.012371 10:0.018991999 11:-0.0055269999 12:0.00098799996 13:0.00182 14:0.29465401 15:0.073473997 16:0.215536 17:0.142221 18:0.047407001 19:0.28444299 20:0 21:0.142221 22:0.094814003 23:0.23703501 24:0 25:0.047407001 26:0 27:0.33184999 28:0.047407001 29:0.28444299 30:0 31:0.142221 32:0 33:0.18962801 34:0.142221 35:0.094814003 36:0 37:0.33184999 38:0 39:0.094814003 40:0 #
0.7909884379606383353333853847289 1:2e-06 2:0 3:0 4:0 5:0.495543 6:-0.021726999 7:0.032717999 8:0.0060100001 9:0.014557 10:0.028332001 11:-0.0082069999 12:-0.005773 13:0.011299 14:0.379666 15:0.272246 16:0.097410001 17:0.049710002 18:0.149129 19:0.049710002 20:0.19883899 21:0.049710002 22:0.149129 23:0.049710002 24:0.19883899 25:0.19883899 26:0.099418998 27:0.149129 28:0 29:0.34796801 30:0 31:0.099418998 32:0 33:0.049710002 34:0.049710002 35:0.149129 36:0 37:0.397677 38:0.049710002 39:0 40:0 #
-0.7909884379606383353333853847289 1:0 2:1e-06 3:0 4:1e-06 5:-0.404946 6:0.0023739999 7:0.0020310001 8:0.106878 9:0.45435801 10:0.11391 11:-0.152349 12:-0.051197998 13:0.089207999 14:0.32157999 15:0.26451701 16:0.030746 17:0.167909 18:0.108647 19:0.049385 20:0.069138996 21:0.158032 22:0.128401 23:0.079016 24:0.029631 25:0.049385 26:0.128401 27:0.088892996 28:0.128401 29:0.355573 30:0 31:0.019754 32:0 33:0.059262 34:0.019754 35:0.019754 36:0 37:0.355573 38:0 39:0.019754 40:0 #
-0.7909884379606383353333853847289 1:2e-06 2:0 3:0 4:0 5:0.518179 6:-0.015585 7:0.033365998 8:0.0010329999 9:0.0092949998 10:0.026874 11:-0.002636 12:-0.001556 13:-0.00082000002 14:0.376919 15:0.236486 16:0.138299 17:0.074212 18:0.222637 19:0 20:0.148425 21:0.074212 22:0.222637 23:0 24:0.148425 25:0.222637 26:0 27:0.222637 28:0 29:0.222637 30:0 31:0.148425 32:0.074212 33:0.148425 34:0 35:0.222637 36:0 37:0.29684901 38:0 39:0.148425 40:0 #
-0.7909884379606383353333853847289 1:0 2:1e-06 3:0 4:1e-06 5:-0.382018 6:0.0022209999 7:0.001922 8:0.36302701 9:0.426898 10:0.097130999 11:-0.212703 12:0.081633002 13:-0.116986 14:0.27852499 15:0.200372 16:0.052804001 17:0.107446 18:0.119384 19:0.119384 20:0.023877 21:0.095507003 22:0.15519901 23:0.095507003 24:0.023877 25:0.035815001 26:0.167138 27:0.167138 28:0 29:0.31039801 30:0 31:0.023877 32:0.035815001 33:0.047754001 34:0.071630001 35:0 36:0 37:0.31039801 38:0 39:0.023877 40:0.035815001 #
0.7909884379606383353333853847289 1:0 2:1e-06 3:0 4:1e-06 5:-0.27774999 6:0.0017199999 7:0.0018889999 8:0.084198996 9:0.75817502 10:0.110715 11:-0.089686997 12:-0.021050001 13:0.16042501 14:0.23532601 15:0.214008 16:0.00019999999 17:0.065599002 18:0.130016 19:0.048461001 20:0.033094998 21:0.105195 22:0.098693997 23:0.044915002 24:0.028367 25:0.022457 26:0.065008 27:0.115833 28:0.073872998 29:0.25116801 30:0.0065009999 31:0.016548 32:0.0029549999 33:0.003546 34:0.028958 35:0.01832 36:0.026002999 37:0.23580199 38:0.019502001 39:0.010638 40:0.0041370001 #
0.7909884379606383353333853847289 1:1e-06 2:0 3:0 4:0 5:-0.47776499 6:0.002935 7:0.0025830001 8:0.075142004 9:0.151591 10:0.063583001 11:-0.048549999 12:-0.021867 13:-0.018254999 14:0.28899601 15:0.14820699 16:0.092794001 17:0.27413699 18:0.164482 19:0.031330001 20:0.0026110001 21:0.302856 22:0.135763 23:0.031330001 24:0.0026110001 25:0.013054 26:0.078325003 27:0.16709299 28:0.21669801 29:0.417732 30:0.013054 31:0.028719001 32:0.015665 33:0.018276 34:0.039161999 35:0.078325003 36:0.104433 37:0.35246101 38:0.078325003 39:0.033941001 40:0.010443 #
-0.7909884379606383353333853847289 1:0 2:1e-06 3:0 4:1e-06 5:-0.28065899 6:0.001589 7:0.001359 8:0.087838002 9:0.71430498 10:0.062112998 11:-0.202722 12:-0.039790999 13:0.14103401 14:0.26082501 15:0.249888 16:0.0020320001 17:0.15510599 18:0.059087999 19:0.051702 20:0.0073859999 21:0.14771999 22:0.044316001 23:0.073859997 24:0.0073859999 25:0.029544 26:0.081246004 27:0.088632002 28:0.073859997 29:0.25112301 30:0 31:0.0073859999 32:0.014772 33:0.0073859999 34:0.051702 35:0.0073859999 36:0 37:0.243737 38:0 39:0.022158001 40:0 #
0.7909884379606383353333853847289 1:2e-06 2:0 3:0 4:0 5:0.496833 6:-0.021778001 7:0.032791998 8:0.005717 9:0.013167 10:0.024443001 11:-0.0074740001 12:-0.003633 13:0.0067079999 14:0.33856201 15:0.19117799 16:0.13494 17:0.207662 18:0.24919499 19:0 20:0 21:0.207662 22:0.24919499 23:0 24:0 25:0.041531999 26:0 27:0.24919499 28:0.16613001 29:0.33226001 30:0.041531999 31:0.041531999 32:0.041531999 33:0.16613001 34:0.041531999 35:0.124597 36:0 37:0.33226001 38:0.083065003 39:0 40:0.041531999 #
-0.7909884379606383353333853847289 1:0 2:1e-06 3:0 4:1e-06 5:-0.363563 6:0.0021170001 7:0.0018110001 8:0.116487 9:0.54367203 10:0.102168 11:-0.170292 12:-0.066634998 13:0.113998 14:0.30277601 15:0.260223 16:0.024308 17:0.115132 18:0.15754899 19:0.060596 20:0.024238 21:0.109072 22:0.15754899 23:0.066655003 24:0.024238 25:0.054536 26:0.090893999 27:0.163608 28:0.048477001 29:0.32721701 30:0 31:0.012119 32:0 33:0.048477001 34:0.024238 35:0 36:0 37:0.32721701 38:0 39:0.012119 40:0 #
0.7909884379606383353333853847289 1:2e-06 2:0 3:0 4:0 5:0.520464 6:-0.022844 7:0.034398001 8:0.0030119999 9:0.011616 10:0.01901 11:-0.0051369998 12:0.00094400003 13:0.001803 14:0.30158499 15:0.088391997 16:0.205873 17:0.142391 18:0 19:0 20:0.33224499 21:0.142391 22:0 23:0.047463998 24:0.28478101 25:0.23731799 26:0.142391 27:0 28:0.094926998 29:0.28478101 30:0.047463998 31:0.094926998 32:0.047463998 33:0.189854 34:0.142391 35:0.142391 36:0 37:0.28478101 38:0.094926998 39:0.047463998 40:0.047463998 #
-0.7909884379606383353333853847289 1:2e-06 2:0 3:0 4:0 5:0.376977 6:-0.011556 7:0.024739999 8:0 9:0 10:0 11:0 12:0 13:0 14:0.37796399 15:0 16:0 17:0 18:0.37796399 19:0 20:0 21:0 22:0.37796399 23:0 24:0 25:0 26:0.37796399 27:0 28:0 29:0 30:0.37796399 31:0 32:0 33:0 34:0.37796399 35:0 36:0 37:0 #
0.7909884379606383353333853847289 1:0 2:1e-06 3:0 4:1e-06 5:-0.31709701 6:0.0019670001 7:0.0021820001 8:0.113155 9:0.68056798 10:0.13315099 11:-0.11044 12:-0.017839 13:0.156993 14:0.253894 15:0.21849699 16:0.007578 17:0.111167 18:0.15748601 19:0.039905999 20:0.0071259998 21:0.160337 22:0.113305 23:0.034917999 24:0.0071259998 25:0.038481001 26:0.082662001 27:0.131832 28:0.063422002 29:0.275067 30:0.011402 31:0.018528 32:0.0085509997 33:0.017103 34:0.037055999 35:0.039193001 36:0.024940999 37:0.25725099 38:0.038481001 39:0.01639 40:0.004276 #
-0.7909884379606383353333853847289 1:2e-06 2:0 3:0 4:0 5:0.45994401 6:-0.013794 7:0.029531 8:0.003391 9:0.0094729997 10:0.058952 11:-0.001532 12:0.0051779998 13:0.012202 14:0.39918599 15:0.34759101 16:0.041278001 17:0.184439 18:0 19:0 20:0.184439 21:0.184439 22:0 23:0 24:0.092220001 25:0.27665901 26:0 27:0 28:0.092220001 29:0.36887801 30:0 31:0 32:0 33:0.184439 34:0 35:0 36:0 37:0.36887801 38:0 39:0 40:0 #
0.7909884379606383353333853847289 1:0 2:1e-06 3:0 4:1e-06 5:-0.32480901 6:0.0020109999 7:0.0021869999 8:0.13437399 9:0.64457101 10:0.123279 11:-0.15431701 12:-0.042339999 13:0.15314101 14:0.26255599 15:0.22967 16:0.0035039999 17:0.094276004 18:0.15426899 19:0.065136001 20:0.010285 21:0.093418002 22:0.149984 23:0.065993004 24:0.01457 25:0.047138002 26:0.065136001 27:0.117416 28:0.094276004 29:0.292254 30:0.017140999 31:0.011999 32:0.001714 33:0.0085709998 34:0.016284 35:0.043710001 36:0.021426 37:0.28968301 38:0.022283001 39:0.0077129998 40:0.003428 #
0.7909884379606383353333853847289 1:0 2:1e-06 3:0 4:1e-06 5:-0.34409001 6:0.0020940001 7:0.00185 8:0.15919 9:0.636042 10:0.093065999 11:-0.148766 12:-0.054333001 13:0.13921501 14:0.276701 15:0.230405 16:0.025191 17:0.102064 18:0.125393 19:0.084567003 20:0.029161001 21:0.107896 22:0.122477 23:0.078735001 24:0.032077 25:0.061237998 26:0.102064 27:0.102064 28:0.075819001 29:0.28286299 30:0 31:0.011664 32:0.037909999 33:0.017496999 34:0.116645 35:0.0029160001 36:0 37:0.26828301 38:0.0029160001 39:0.043742001 40:0.023329001 #
-0.7909884379606383353333853847289 1:0 2:1e-06 3:0 4:1e-06 5:-0.280009 6:0.001586 7:0.001357 8:0.181602 9:0.720608 10:0.067020997 11:-0.210976 12:-0.051516999 13:0.095985003 14:0.233714 15:0.200892 16:0.019342 17:0.042860001 18:0.142866 19:0.080004998 20:0.011429 21:0.097149 22:0.122865 23:0.045717001 24:0.011429 25:0.045717001 26:0.065718003 27:0.111435 28:0.054288998 29:0.26001599 30:0 31:0.011429 32:0.005715 33:0.0028570001 34:0.040002 35:0 36:0 37:0.25715899 38:0 39:0.017144 40:0 #
0.7909884379606383353333853847289 1:1e-06 2:0 3:0 4:0 5:0.37711099 6:-0.014128 7:0.021089001 8:0 9:0 10:0 11:0 12:0 13:0 14:0.37796399 15:0 16:0 17:0 18:0.37796399 19:0 20:0 21:0 22:0.37796399 23:0 24:0 25:0 26:0.37796399 27:0 28:0 29:0 30:0.37796399 31:0 32:0 33:0 34:0.37796399 35:0 36:0 37:0 #
-0.7909884379606383353333853847289 1:0 2:1e-06 3:0 4:1e-06 5:-0.28065899 6:0.001589 7:0.001359 8:0.087838002 9:0.71430498 10:0.062112998 11:-0.202722 12:-0.039790999 13:0.14103401 14:0.26082501 15:0.249888 16:0.0020320001 17:0.15510599 18:0.059087999 19:0.051702 20:0.0073859999 21:0.14771999 22:0.044316001 23:0.073859997 24:0.0073859999 25:0.029544 26:0.081246004 27:0.088632002 28:0.073859997 29:0.25112301 30:0 31:0.0073859999 32:0.014772 33:0.0073859999 34:0.051702 35:0.0073859999 36:0 37:0.243737 38:0 39:0.022158001 40:0 #
0.7909884379606383353333853847289 1:1e-06 2:1e-06 3:1e-06 4:1e-06 5:0.31141499 6:-0.011835 7:0.01822 8:0.14995 9:0.12027 10:0.172429 11:-0.129678 12:-0.16038799 13:0.14137299 14:0.30878699 15:0.30540201 16:0.0033849999 17:0.312172 18:0 19:0 20:0 21:0.312172 22:0 23:0 24:0 25:0.312172 26:0 27:0 28:0 29:0.312172 30:0 31:0 32:0 33:0.312172 34:0 35:0 36:0 37:0.312172 38:0 39:0 40:0 #
-0.7909884379606383353333853847289 1:0 2:1e-06 3:0 4:1e-06 5:-0.35476601 6:0.0020620001 7:0.001764 8:0.105246 9:0.59249401 10:0.098959997 11:-0.165327 12:-0.038375001 13:0.106686 14:0.29653901 15:0.26201501 16:0.01081 17:0.15396 18:0.127184 19:0.053551 20:0.013388 21:0.140572 22:0.13387799 23:0.053551 24:0.020082001 25:0.080326997 26:0.087021001 27:0.12049 28:0.060245 29:0.30122501 30:0 31:0.013388 32:0 33:0.0066940002 34:0.100408 35:0.0066940002 36:0 37:0.29453099 38:0 39:0.026776001 40:0.026776001 #
0.7909884379606383353333853847289 1:1e-06 2:0 3:0 4:0 5:0.39196399 6:-0.016962999 7:0.024906 8:0.019692 9:0.00069100002 10:0.046158999 11:-0.0036780001 12:-0.027495001 13:0.0049510002 14:0.37831599 15:0.36351201 16:0.014804 17:0.13104001 18:0 19:0 20:0 21:0.13104001 22:0 23:0 24:0 25:0.26208001 26:0 27:0 28:0 29:0.393121 30:0 31:0 32:0 33:0.393121 34:0 35:0 36:0 37:0.393121 38:0 39:0 40:0 #
0.7909884379606383353333853847289 1:1e-06 2:0 3:0 4:0 5:0.33214 6:-0.014589 7:0.02025 8:0.0071259998 9:0.0026680001 10:0.033672001 11:-0.0043600001 12:-0.01549 13:0.009478 14:0.333076 15:0.333076 16:0 17:0.333076 18:0 19:0 20:0 21:0.333076 22:0 23:0 24:0 25:0.333076 26:0 27:0 28:0 29:0.333076 30:0 31:0 32:0 33:0.333076 34:0 35:0 36:0 37:0.333076 38:0 39:0 40:0 #
-0.7909884379606383353333853847289 1:2e-06 2:0 3:0 4:0 5:0.45994401 6:-0.013794 7:0.029531 8:0.003391 9:0.0094729997 10:0.058952 11:-0.001532 12:0.0051779998 13:0.012202 14:0.39918599 15:0.34759101 16:0.041278001 17:0.184439 18:0 19:0 20:0.184439 21:0.184439 22:0 23:0 24:0.092220001 25:0.27665901 26:0 27:0 28:0.092220001 29:0.36887801 30:0 31:0 32:0 33:0.184439 34:0 35:0 36:0 37:0.36887801 38:0 39:0 40:0 #
0.7909884379606383353333853847289 1:0 2:1e-06 3:0 4:1e-06 5:-0.282949 6:0.001754 7:0.001909 8:0.123391 9:0.73289001 10:0.104969 11:-0.16994201 12:-0.034203999 13:0.15102699 14:0.23873299 15:0.21476801 16:0.003703 17:0.092799 18:0.127028 19:0.041074999 20:0.021298001 21:0.122464 22:0.10573 23:0.031947002 24:0.022058999 25:0.044117998 26:0.047920998 27:0.120182 28:0.069980003 29:0.249493 30:0.01217 31:0.01141 32:0.0083670001 33:0.006085 34:0.025862001 35:0.038793001 36:0.012931 37:0.238083 38:0.017495001 39:0.020538 40:0.0053249998 #
-0.7909884379606383353333853847289 1:1e-06 2:0 3:0 4:0 5:0.332407 6:-0.010176 7:0.021787001 8:0.0024570001 9:0.017223001 10:0 11:-0.0065049999 12:-1.8000001e-05 13:4.8999998e-05 14:0.333276 15:0.333276 16:0 17:0.333276 18:0 19:0 20:0 21:0.333276 22:0 23:0 24:0 25:0.333276 26:0 27:0 28:0 29:0.333276 30:0 31:0 32:0 33:0.333276 34:0 35:0 36:0 37:0.333276 38:0 39:0 40:0 #
0.7909884379606383353333853847289 1:0 2:1e-06 3:0 4:1e-06 5:-0.27795199 6:0.001714 7:0.001515 8:0.147646 9:0.733365 10:0.048199002 11:-0.239384 12:-0.030989001 13:0.019544 14:0.245242 15:0.221751 16:0.014262 17:0.035636 18:0.135417 19:0.04989 20:0.04989 21:0.057018001 22:0.106908 23:0.064144999 24:0.042762998 25:0.04989 26:0.078399003 27:0.099780999 28:0.042762998 29:0.24945199 30:0 31:0.007127 32:0.014254 33:0.014254 34:0.042762998 35:0 36:0 37:0.24945199 38:0 39:0.014254 40:0.007127 #
0.7909884379606383353333853847289 1:0 2:1e-06 3:0 4:1e-06 5:-0.30057999 6:0.001833 7:0.00162 8:0.145926 9:0.72654498 10:0.069337003 11:-0.167942 12:-0.035723999 13:0.066339999 14:0.24869201 15:0.214432 16:0.016623 17:0.089896001 18:0.098324001 19:0.064613 20:0.044948 21:0.095514998 22:0.095514998 23:0.056185 24:0.050567001 25:0.064613 26:0.070230998 27:0.084278002 28:0.078658998 29:0.26126099 30:0 31:0.022474 32:0 33:0.0056190002 34:0.064613 35:0.002809 36:0 37:0.26407 38:0.002809 39:0.0056190002 40:0.025283 #
0.7909884379606383353333853847289 1:0 2:1e-06 3:0 4:1e-06 5:-0.29089901 6:0.001775 7:0.001569 8:0.146378 9:0.71782303 10:0.083416998 11:-0.175946 12:-0.035379 13:0.054892998 14:0.237398 15:0.204135 16:0.013016 17:0.103896 18:0.106865 19:0.071243003 20:0.0059369998 21:0.106865 22:0.103896 23:0.068274997 24:0.0089050001 25:0.062337998 26:0.094990999 27:0.062337998 28:0.068274997 29:0.28497201 30:0 31:0 32:0 33:0.011874 34:0 35:0 36:0 37:0.28497201 38:0 39:0 40:0 #
0.7909884379606383353333853847289 1:1e-06 2:0 3:0 4:0 5:0.33226001 6:-0.011595 7:0.022535 8:0.00063800003 9:0.001479 10:0.024425 11:0.000971 12:0.0039459998 13:0.0060100001 14:0.33322501 15:0.33322501 16:0 17:0.33322501 18:0 19:0 20:0 21:0.33322501 22:0 23:0 24:0 25:0.33322501 26:0 27:0 28:0 29:0.33322501 30:0 31:0 32:0 33:0.33322501 34:0 35:0 36:0 37:0.33322501 38:0 39:0 40:0 #
-0.7909884379606383353333853847289 1:0 2:1e-06 3:0 4:1e-06 5:-0.280009 6:0.001586 7:0.001357 8:0.181602 9:0.720608 10:0.067020997 11:-0.210976 12:-0.051516999 13:0.095985003 14:0.233714 15:0.200892 16:0.019342 17:0.042860001 18:0.142866 19:0.080004998 20:0.011429 21:0.097149 22:0.122865 23:0.045717001 24:0.011429 25:0.045717001 26:0.065718003 27:0.111435 28:0.054288998 29:0.26001599 30:0 31:0.011429 32:0.005715 33:0.0028570001 34:0.040002 35:0 36:0 37:0.25715899 38:0 39:0.017144 40:0 #
-0.7909884379606383353333853847289 1:2e-06 2:0 3:0 4:0 5:0.377103 6:-0.010791 7:0.023115 8:0 9:0 10:0 11:0 12:0 13:0 14:0.37796399 15:0 16:0 17:0 18:0.37796399 19:0 20:0 21:0 22:0.37796399 23:0 24:0 25:0 26:0.37796399 27:0 28:0 29:0 30:0.37796399 31:0 32:0 33:0 34:0.37796399 35:0 36:0 37:0 #
-0.7909884379606383353333853847289 1:2e-06 2:0 3:0 4:0 5:0.376977 6:-0.011556 7:0.024739999 8:0 9:0 10:0 11:0 12:0 13:0 14:0.37796399 15:0 16:0 17:0 18:0.37796399 19:0 20:0 21:0 22:0.37796399 23:0 24:0 25:0 26:0.37796399 27:0 28:0 29:0 30:0.37796399 31:0 32:0 33:0 34:0.37796399 35:0 36:0 37:0 #
0.7909884379606383353333853847289 1:0 2:1e-06 3:0 4:1e-06 5:-0.24556001 6:0.0014750001 7:0.001304 8:0.158536 9:0.73327899 10:0.079911001 11:-0.32860601 12:-0.062043 13:0.090241998 14:0.226604 15:0.208533 16:0.017176 17:0.052622002 18:0.052622002 19:0.070161998 20:0.052622002 21:0.035080999 22:0.070161998 23:0.105243 24:0.017541001 25:0.035080999 26:0.122784 27:0.052622002 28:0.017541001 29:0.228027 30:0 31:0 32:0 33:0.035080999 34:0 35:0 36:0 37:0.228027 38:0 39:0 40:0 #
0.7909884379606383353333853847289 1:0 2:1e-06 3:0 4:1e-06 5:-0.272026 6:0.0017040001 7:0.0015059999 8:0.090579003 9:0.73114198 10:0.055323001 11:-0.242773 12:-0.026425 13:0.059069 14:0.253782 15:0.238023 16:0.013263 17:0.113348 18:0.113348 19:0.022670001 20:0 21:0.113348 22:0.113348 23:0.022670001 24:0 25:0.045338999 26:0.090678997 27:0.045338999 28:0.068008997 29:0.249366 30:0 31:0 32:0 33:0.045338999 34:0 35:0 36:0 37:0.249366 38:0 39:0 40:0 #
0.7909884379606383353333853847289 1:0 2:1e-06 3:0 4:1e-06 5:-0.31057301 6:0.001937 7:0.001711 8:0.124448 9:0.67785501 10:0.064810999 11:-0.21669 12:-0.025339 13:0.018099001 14:0.26990399 15:0.242621 16:0.013885 17:0.116469 18:0.10094 19:0.077646002 20:0.0077650002 21:0.124234 22:0.085410997 23:0.093175001 24:0 25:0.023294 26:0.085410997 27:0.093175001 28:0.10094 29:0.27952501 30:0 31:0.023294 32:0 33:0.0077650002 34:0.054352 35:0.0077650002 36:0 37:0.271761 38:0 39:0.031058 40:0 #
0.7909884379606383353333853847289 1:1e-06 2:0 3:0 4:0 5:0.37694901 6:-0.013064 7:0.024404 8:0 9:0 10:0 11:0 12:0 13:0 14:0.37796399 15:0 16:0 17:0 18:0.37796399 19:0 20:0 21:0 22:0.37796399 23:0 24:0 25:0 26:0.37796399 27:0 28:0 29:0 30:0.37796399 31:0 32:0 33:0 34:0.37796399 35:0 36:0 37:0 #
-0.7909884379606383353333853847289 1:0 2:1e-06 3:0 4:1e-06 5:-0.29616201 6:0.001717 7:0.001471 8:0.218567 9:0.72536403 10:0.10371 11:-0.220658 12:0.01108 13:-0.027782001 14:0.228774 15:0.19033501 16:0.009482 17:0.103457 18:0.075057 19:0.066942997 20:0.048686001 21:0.087228 22:0.081142999 23:0.075057 24:0.050714001 25:0.089257002 26:0.089257002 27:0.068971001 28:0.044628002 29:0.239371 30:0.032457002 31:0.018257 32:0.0040569999 33:0.0142 34:0.048686001 35:0.040571 36:0 37:0.239371 38:0.016229 39:0.0142 40:0.020285999 #
0.7909884379606383353333853847289 1:1e-06 2:0 3:0 4:0 5:0.377069 6:-0.014163 7:0.021802999 8:0 9:0 10:0 11:0 12:0 13:0 14:0.37796399 15:0 16:0 17:0 18:0.37796399 19:0 20:0 21:0 22:0.37796399 23:0 24:0 25:0 26:0.37796399 27:0 28:0 29:0 30:0.37796399 31:0 32:0 33:0 34:0.37796399 35:0 36:0 37:0 #
-0.7909884379606383353333853847289 1:0 2:1e-06 3:0 4:1e-06 5:-0.26917401 6:0.001604 7:0.001372 8:0.120026 9:0.67365903 10:0.072058998 11:-0.200844 12:-0.053470999 13:0.151803 14:0.241166 15:0.223883 16:0.0065509998 17:0.11084 18:0.063336998 19:0.079171002 20:0 21:0.11084 22:0.063336998 23:0.079171002 24:0 25:0.047502998 26:0.079171002 27:0.079171002 28:0.047502998 29:0.269182 30:0 31:0 32:0 33:0.269182 34:0 35:0 36:0 37:0.269182 38:0 39:0 40:0 #
-0.7909884379606383353333853847289 1:2e-06 2:0 3:0 4:0 5:0.376977 6:-0.011556 7:0.024739999 8:0 9:0 10:0 11:0 12:0 13:0 14:0.37796399 15:0 16:0 17:0 18:0.37796399 19:0 20:0 21:0 22:0.37796399 23:0 24:0 25:0 26:0.37796399 27:0 28:0 29:0 30:0.37796399 31:0 32:0 33:0 34:0.37796399 35:0 36:0 37:0 #
0.7909884379606383353333853847289 1:0 2:0 3:0 4:0 5:-0.41403699 6:0.00275 7:0.0024979999 8:0.0084769996 9:0.175456 10:0.045924999 11:-0.032478999 12:-0.014341 13:0.081196003 14:0.39718199 15:0.384359 16:0.0087750005 17:0.310541 18:0 19:0 20:0 21:0.310541 22:0 23:0 24:0 25:0.103514 26:0 27:0 28:0.207027 29:0.310541 30:0 31:0 32:0 33:0.207027 34:0 35:0 36:0 37:0.310541 38:0 39:0 40:0 #
-0.022655545587123682160779480909696 1:0 2:0 3:0 4:0 5:-0.42844599 6:0.0026730001 7:0.0025269999 8:0.016675999 9:0.01512 10:0.030963 11:0.010766 12:-0.00054400001 13:0.010957 14:0.25718999 15:0.102586 16:0.137936 17:0.214231 18:0 19:0.142821 20:0 21:0.142821 22:0.07141 23:0.142821 24:0 25:0.214231 26:0.07141 27:0.07141 28:0 29:0.428462 30:0 31:0 32:0 33:0.428462 34:0 35:0 36:0 37:0.428462 38:0 39:0 40:0 #
0.7909884379606383353333853847289 1:1e-06 2:0 3:0 4:0 5:0.37707901 6:-0.014539 7:0.021379 8:0 9:0 10:0 11:0 12:0 13:0 14:0.37796399 15:0 16:0 17:0 18:0.37796399 19:0 20:0 21:0 22:0.37796399 23:0 24:0 25:0 26:0.37796399 27:0 28:0 29:0 30:0.37796399 31:0 32:0 33:0 34:0.37796399 35:0 36:0 37:0 #
-0.17008636606961358150869045857689 1:0 2:0 3:0 4:0 5:-0.48086199 6:0.002109 7:0.0017359999 8:0.0029839999 9:0.012564 10:0.039795 11:4.3e-05 12:-0.0030990001 13:-0.0068069999 14:0.36179101 15:0.26611501 16:0.072274998 17:0.180326 18:0.180326 19:0 20:0.060109001 21:0.180326 22:0.180326 23:0 24:0.060109001 25:0.060109001 26:0.120217 27:0.060109001 28:0.180326 29:0.42076099 30:0 31:0 32:0 33:0.120217 34:0 35:0 36:0 37:0.42076099 38:0 39:0 40:0 #
-0.7909884379606383353333853847289 1:2e-06 2:0 3:0 4:0 5:0.376984 6:-0.011514 7:0.02465 8:0 9:0 10:0 11:0 12:0 13:0 14:0.37796399 15:0 16:0 17:0 18:0.37796399 19:0 20:0 21:0 22:0.37796399 23:0 24:0 25:0 26:0.37796399 27:0 28:0 29:0 30:0.37796399 31:0 32:0 33:0 34:0.37796399 35:0 36:0 37:0 #
0.7909884379606383353333853847289 1:0 2:0 3:0 4:0 5:-0.38935599 6:0.002476 7:0.0022750001 8:0.02063 9:0.092611998 10:0.143317 11:0.022414999 12:-0.01596 13:-0.098387003 14:0.33843899 15:0.30100501 16:0.023936 17:0.216317 18:0.043263 19:0 20:0.086526997 21:0.216317 22:0.043263 23:0 24:0.086526997 25:0.12978999 26:0 27:0.043263 28:0.12978999 29:0.38936999 30:0 31:0 32:0 33:0.38936999 34:0 35:0 36:0 37:0.38936999 38:0 39:0 40:0 #
-0.7909884379606383353333853847289 1:0 2:0 3:0 4:0 5:-0.383775 6:0.002205 7:0.001886 8:0.193501 9:0.069326997 10:0.028853999 11:0.092931002 12:-0.022314001 13:-0.019300001 14:0.32496399 15:0.286356 16:0.018394999 17:0.191893 18:0 19:0 20:0.095945999 21:0.191893 22:0 23:0 24:0.14392 25:0.239866 26:0.095945999 27:0 28:0 29:0.38378599 30:0 31:0 32:0 33:0.38378599 34:0 35:0 36:0 37:0.38378599 38:0 39:0 40:0 #
-0.7909884379606383353333853847289 1:1e-06 2:0 3:0 4:0 5:0.332407 6:-0.010176 7:0.021787001 8:0.0024570001 9:0.017223001 10:0 11:-0.0065049999 12:-1.8000001e-05 13:4.8999998e-05 14:0.333276 15:0.333276 16:0 17:0.333276 18:0 19:0 20:0 21:0.333276 22:0 23:0 24:0 25:0.333276 26:0 27:0 28:0 29:0.333276 30:0 31:0 32:0 33:0.333276 34:0 35:0 36:0 37:0.333276 38:0 39:0 40:0 #
0.7909884379606383353333853847289 1:0 2:1e-06 3:0 4:1e-06 5:-0.214716 6:0.001274 7:0.001127 8:0.148304 9:0.75517201 10:0.085193999 11:-0.320759 12:-0.056917999 13:0.071929999 14:0.196091 15:0.178004 16:0.017542001 17:0.097600996 18:0 19:0.039041001 20:0.039041001 21:0.097600996 22:0 23:0.039041001 24:0.039041001 25:0.078080997 26:0.039041001 27:0 28:0.039041001 29:0.21472301 30:0 31:0 32:0 33:0.21472301 34:0 35:0 36:0 37:0.21472301 38:0 39:0 40:0 #
-0.20991009908541036210749552992638 1:2e-06 2:0 3:0 4:0 5:0.437565 6:-0.012973 7:0.027776999 8:0.00093899999 9:0.004582 10:0.067668997 11:-0.001651 12:0.0055320002 13:-0.0039329999 14:0.409825 15:0.38145399 16:0.027930001 17:0.087728001 18:0 19:0.263183 20:0.043864001 21:0.087728001 22:0 23:0.307046 24:0 25:0.043864001 26:0.307046 27:0 28:0.043864001 29:0.175455 30:0.043864001 31:0.13159101 32:0.043864001 33:0.043864001 34:0.307046 35:0.043864001 36:0 37:0.219319 38:0.087728001 39:0.043864001 40:0.043864001 #
0.7909884379606383353333853847289 1:0 2:1e-06 3:0 4:1e-06 5:-0.226151 6:0.001397 7:0.001236 8:0.149482 9:0.73167902 10:0.077249996 11:-0.32309401 12:-0.037932999 13:0.038252998 14:0.207334 15:0.188683 16:0.018477 17:0.045232002 18:0.090462998 19:0 20:0.067847997 21:0.045232002 22:0.090462998 23:0.045232002 24:0.022616001 25:0.022616001 26:0.067847997 27:0.113079 28:0 29:0.22615799 30:0 31:0 32:0 33:0.22615799 34:0 35:0 36:0 37:0.22615799 38:0 39:0 40:0 #
0.7909884379606383353333853847289 1:0 2:1e-06 3:0 4:1e-06 5:-0.229975 6:0.001446 7:0.001279 8:0.14566401 9:0.72062099 10:0.062893003 11:-0.31933701 12:-0.046379998 13:0.078125998 14:0.216047 15:0.202436 16:0.013285 17:0.041815002 18:0.104538 19:0.062723003 20:0 21:0.041815002 22:0.062723003 23:0.104538 24:0 25:0.062723003 26:0.083630003 27:0.041815002 28:0 29:0.229983 30:0 31:0 32:0 33:0.229983 34:0 35:0 36:0 37:0.229983 38:0 39:0 40:0 #
0.7909884379606383353333853847289 1:0 2:1e-06 3:0 4:1e-06 5:-0.205025 6:0.00129 7:0.001143 8:0.153247 9:0.75686902 10:0.059124 11:-0.33610901 12:-0.036013 13:0.050367001 14:0.192735 15:0.180548 16:0.012076 17:0.025629001 18:0 19:0 20:0.076886997 21:0.025629001 22:0 23:0 24:0.076886997 25:0.17940301 26:0 27:0 28:0 29:0.20503201 30:0 31:0 32:0 33:0.20503201 34:0 35:0 36:0 37:0.20503201 38:0 39:0 40:0 #
0.7909884379606383353333853847289 1:1e-06 2:0 3:0 4:0 5:-0.50653303 6:0.0033499999 7:0.0030789999 8:0.13758799 9:0.073244996 10:0.051768001 11:0.0080660004 12:0.0099759996 13:-0.03664 14:0.26818201 15:0.073968001 16:0.150057 17:0.182359 18:0.101311 19:0.16209701 20:0.020261999 21:0.141835 22:0.141835 23:0.16209701 24:0.020261999 25:0.081049003 26:0.202622 27:0.081049003 28:0.121573 29:0.44576699 30:0 31:0.040523998 32:0 33:0.040523998 34:0.081049003 35:0 36:0 37:0.44576699 38:0 39:0.040523998 40:0 #
-0.7909884379606383353333853847289 1:0 2:1e-06 3:0 4:1e-06 5:-0.26917401 6:0.001604 7:0.001372 8:0.120026 9:0.67365903 10:0.072058998 11:-0.200844 12:-0.053470999 13:0.151803 14:0.241166 15:0.223883 16:0.0065509998 17:0.11084 18:0.063336998 19:0.079171002 20:0 21:0.11084 22:0.063336998 23:0.079171002 24:0 25:0.047502998 26:0.079171002 27:0.079171002 28:0.047502998 29:0.269182 30:0 31:0 32:0 33:0.269182 34:0 35:0 36:0 37:0.269182 38:0 39:0 40:0 #
-0.23622845248487350788835215098516 1:0 2:1e-06 3:0 4:1e-06 5:-0.25516501 6:0.001447 7:0.001239 8:0.28051099 9:0.71831101 10:0.065631002 11:-0.33363399 12:-0.020562001 13:0.069807999 14:0.21682601 15:0.191581 16:0.012142 17:0.061735 18:0.098775998 19:0.063793004 20:0.02881 21:0.098775998 22:0.072024003 23:0.051445998 24:0.030867999 25:0.04733 26:0.059677001 27:0.086429 28:0.059677001 29:0.19549499 30:0.018521 31:0.022636 32:0.012347 33:0.045272999 34:0.04733 35:0.014405 36:0 37:0.191379 38:0.030867999 39:0.012347 40:0.012347 #
0.7909884379606383353333853847289 1:2e-06 2:0 3:0 4:0 5:0.49688599 6:-0.020877 7:0.034820002 8:0.009842 9:0.0047840001 10:0.038419001 11:-0.001897 12:0.0044999998 13:-0.0028200001 14:0.370157 15:0.280303 16:0.051323 17:0.166181 18:0 19:0 20:0.24927101 21:0.166181 22:0 23:0 24:0.24927101 25:0.166181 26:0.166181 27:0 28:0.08309 29:0.33236101 30:0 31:0.08309 32:0 33:0.166181 34:0.166181 35:0 36:0 37:0.33236101 38:0 39:0.08309 40:0 #
0.7909884379606383353333853847289 1:2e-06 2:0 3:0 4:0 5:0.37715501 6:-0.015759001 7:0.023851 8:0.032170001 9:0.003206 10:3.0000001e-06 11:0.0096779997 12:9.3000002e-05 13:6.0000002e-06 14:0.37532401 15:0.372419 16:0.0028969999 17:0.12607899 18:0 19:0.189118 20:0 21:0.12607899 22:0 23:0.189118 24:0 25:0.063038997 26:0.189118 27:0 28:0.063038997 29:0.37823701 30:0 31:0 32:0 33:0.37823701 34:0 35:0 36:0 37:0.37823701 38:0 39:0 40:0 #
-0.7909884379606383353333853847289 1:2e-06 2:0 3:0 4:0 5:0.45994401 6:-0.013794 7:0.029531 8:0.003391 9:0.0094729997 10:0.058952 11:-0.001532 12:0.0051779998 13:0.012202 14:0.39918599 15:0.34759101 16:0.041278001 17:0.184439 18:0 19:0 20:0.184439 21:0.184439 22:0 23:0 24:0.092220001 25:0.27665901 26:0 27:0 28:0.092220001 29:0.36887801 30:0 31:0 32:0 33:0.184439 34:0 35:0 36:0 37:0.36887801 38:0 39:0 40:0 #
-0.7909884379606383353333853847289 1:1e-06 2:0 3:0 4:0 5:0.332407 6:-0.010176 7:0.021787001 8:0.0024570001 9:0.017223001 10:0 11:-0.0065049999 12:-1.8000001e-05 13:4.8999998e-05 14:0.333276 15:0.333276 16:0 17:0.333276 18:0 19:0 20:0 21:0.333276 22:0 23:0 24:0 25:0.333276 26:0 27:0 28:0 29:0.333276 30:0 31:0 32:0 33:0.333276 34:0 35:0 36:0 37:0.333276 38:0 39:0 40:0 #
-0.7909884379606383353333853847289 1:2e-06 2:0 3:0 4:0 5:0.37125 6:-0.01099 7:0.023528 8:0.001464 9:0.0036559999 10:0.083380997 11:-0.0022780001 12:0.0058010002 13:-0.0065740002 14:0.35469699 15:0.337248 16:0.017436 17:0.279118 18:0 19:0 20:0 21:0.279118 22:0 23:0 24:0 25:0.093038999 26:0 27:0 28:0.186079 29:0.37215701 30:0 31:0 32:0 33:0.37215701 34:0 35:0 36:0 37:0.37215701 38:0 39:0 40:0 #
0.7909884379606383353333853847289 1:0 2:1e-06 3:0 4:1e-06 5:-0.256524 6:0.001602 7:0.001748 8:0.108204 9:0.79254699 10:0.093737997 11:-0.13154399 12:-0.031633999 13:0.133233 14:0.21719 15:0.194922 16:0.0051910002 17:0.092491999 18:0.093074001 19:0.062243 20:0.0081439996 21:0.115179 22:0.075041004 23:0.057588998 24:0.0081439996 25:0.029085999 26:0.071549997 27:0.096564002 28:0.058752999 29:0.227449 30:0.012216 31:0.011634 32:0.004654 33:0.0058169998 34:0.020942001 35:0.035484001 36:0.021523001 37:0.216978 38:0.026177 39:0.011634 40:0.001163 #
0.7909884379606383353333853847289 1:0 2:1e-06 3:0 4:1e-06 5:-0.29294601 6:0.001837 7:0.001991 8:0.28547499 9:0.632438 10:0.121482 11:-0.30700099 12:-0.037579 13:0.108718 14:0.233822 15:0.198024 16:0.01246 17:0.083397001 18:0.143985 19:0.055597998 20:0.0092660002 21:0.104068 22:0.13044199 23:0.049896002 24:0.0078410003 25:0.034214001 26:0.087673999 27:0.13186701 28:0.038490999 29:0.25446799 30:0.019958001 31:0.014256 32:0.0035639999 33:0.0057020001 34:0.028511999 35:0.045619 36:0.018533001 37:0.24021199 38:0.027798999 39:0.016394001 40:0.0071279998 #
-0.7909884379606383353333853847289 1:0 2:1e-06 3:0 4:1e-06 5:-0.280009 6:0.001586 7:0.001357 8:0.181602 9:0.720608 10:0.067020997 11:-0.210976 12:-0.051516999 13:0.095985003 14:0.233714 15:0.200892 16:0.019342 17:0.042860001 18:0.142866 19:0.080004998 20:0.011429 21:0.097149 22:0.122865 23:0.045717001 24:0.011429 25:0.045717001 26:0.065718003 27:0.111435 28:0.054288998 29:0.26001599 30:0 31:0.011429 32:0.005715 33:0.0028570001 34:0.040002 35:0 36:0 37:0.25715899 38:0 39:0.017144 40:0 #
0.7909884379606383353333853847289 1:1e-06 2:0 3:0 4:0 5:0.33217499 6:-0.013607 7:0.021119 8:0.010382 9:0.0073489998 10:0.024276 11:0.0087350002 12:-0.015876001 13:-0.013357 14:0.33312401 15:0.33312401 16:0 17:0.33312401 18:0 19:0 20:0 21:0.33312401 22:0 23:0 24:0 25:0.33312401 26:0 27:0 28:0 29:0.33312401 30:0 31:0 32:0 33:0.33312401 34:0 35:0 36:0 37:0.33312401 38:0 39:0 40:0 #
-0.7909884379606383353333853847289 1:0 2:1e-06 3:0 4:1e-06 5:-0.30629599 6:0.00177 7:0.001514 8:0.114626 9:0.68010497 10:0.077574 11:-0.203886 12:-0.057220999 13:0.119415 14:0.27066299 15:0.24667799 16:0.012329 17:0.028362 18:0.119118 19:0.096428998 20:0.056722999 21:0.068067998 22:0.096428998 23:0.079411998 24:0.056722999 25:0.062394999 26:0.096428998 27:0.085084997 28:0.056722999 29:0.27794299 30:0 31:0.0056719999 32:0 33:0.034033999 34:0.022689 35:0 36:0 37:0.27794299 38:0 39:0.017016999 40:0 #
0.7909884379606383353333853847289 1:2e-06 2:0 3:0 4:0 5:0.46196601 6:-0.020075999 7:0.030715 8:0.043703001 9:0.011501 10:0.020638 11:0.022265 12:0.0041669998 13:0.0036200001 14:0.34152699 15:0.219864 16:0.121434 17:0.30894801 18:0 19:0 20:0.077237003 21:0.30894801 22:0 23:0 24:0.077237003 25:0.15447401 26:0 27:0 28:0.231711 29:0.231711 30:0 31:0 32:0 33:0.46342099 34:0 35:0 36:0 37:0.231711 38:0 39:0 40:0 #
-0.7909884379606383353333853847289 1:2e-06 2:2e-06 3:2e-06 4:2e-06 5:0.49403399 6:-0.0165 7:0.033799 8:0.17929301 9:0.207119 10:0.240749 11:-0.02385 12:-0.041244999 13:0.032083001 14:0.222946 15:0.074634001 16:0.024106 17:0.038465001 18:0.16393299 19:0.085171998 20:0.20697699 21:0.099825002 22:0.130964 23:0.070519 24:0.19324 25:0.23078901 26:0.143785 27:0.089750998 28:0.030222001 29:0.37823701 30:0.057697002 31:0.030222001 32:0.028391 33:0.057697002 34:0.082424998 35:0.144701 36:0.025643 37:0.38373199 38:0.053118002 39:0.030222001 40:0.027474999 #
-0.7909884379606383353333853847289 1:2e-06 2:0 3:0 4:0 5:0.37125 6:-0.01099 7:0.023528 8:0.001464 9:0.0036559999 10:0.083380997 11:-0.0022780001 12:0.0058010002 13:-0.0065740002 14:0.35469699 15:0.337248 16:0.017436 17:0.279118 18:0 19:0 20:0 21:0.279118 22:0 23:0 24:0 25:0.093038999 26:0 27:0 28:0.186079 29:0.37215701 30:0 31:0 32:0 33:0.37215701 34:0 35:0 36:0 37:0.37215701 38:0 39:0 40:0 #
-0.7909884379606383353333853847289 1:2e-06 2:1e-06 3:1e-06 4:2e-06 5:0.51158798 6:-0.016419999 7:0.033613998 8:0.046571001 9:0.242522 10:0.25802901 11:-0.079383001 12:0.047876 13:-0.055590998 14:0.313178 15:0.12774999 16:0.17108101 17:0.132375 18:0.099280998 19:0.148922 20:0.115828 21:0.132375 22:0.099280998 23:0.16546901 24:0.099280998 25:0.115828 26:0.16546901 27:0.099280998 28:0.115828 29:0.21511 30:0.016547 31:0.099280998 32:0.082734004 33:0.364032 34:0.082734004 35:0 36:0 37:0.21511 38:0.033094 39:0.099280998 40:0.049640998 #
0.7909884379606383353333853847289 1:0 2:0 3:0 4:0 5:-0.36935201 6:0.0026100001 7:0.002501 8:0.061345998 9:0.161928 10:0.015548 11:-0.099579997 12:-0.013824 13:0.020555001 14:0.34970099 15:0.33003199 16:0.019669 17:0.369369 18:0 19:0 20:0 21:0.369369 22:0 23:0 24:0 25:0.369369 26:0 27:0 28:0 29:0.246246 30:0 31:0 32:0 33:0.246246 34:0 35:0 36:0 37:0.246246 38:0 39:0 40:0 #
0.7909884379606383353333853847289 1:0 2:1e-06 3:0 4:1e-06 5:-0.32101399 6:0.001951 7:0.001724 8:0.158572 9:0.67586797 10:0.080473997 11:-0.159565 12:-0.049488001 13:0.113766 14:0.26102901 15:0.219724 16:0.022614 17:0.076705001 18:0.125001 19:0.085228004 20:0.03125 21:0.088068999 22:0.119319 23:0.079545997 24:0.03125 25:0.0625 26:0.09375 27:0.113637 28:0.048296001 29:0.28125101 30:0.002841 31:0.011364 32:0.022727 33:0.005682 34:0.065341003 35:0.0085230004 36:0 37:0.28125101 38:0.005682 39:0.014205 40:0.017046001 #
0.7909884379606383353333853847289 1:0 2:1e-06 3:0 4:0 5:-0.376551 6:0.002384 7:0.0023159999 8:0.246133 9:0.45254201 10:0.030466 11:-0.25225201 12:0.002327 13:-0.034784999 14:0.32196701 15:0.279378 16:0.030579999 17:0.024452001 18:0.14182299 19:0.18094701 20:0.019562 21:0.097809002 22:0.092918999 23:0.176056 24:0 25:0.039124001 26:0.176056 27:0.063575998 28:0.092918999 29:0.27875599 30:0 31:0.083137996 32:0 33:0.029343 34:0.161385 35:0.00489 36:0 37:0.27875599 38:0 39:0.083137996 40:0 #
0.7909884379606383353333853847289 1:2e-06 2:0 3:0 4:0 5:0.48198199 6:-0.021175999 7:0.031886 8:0.010123 9:0.016417 10:0.061287999 11:-0.004129 12:-0.019327 13:0.0078539997 14:0.381073 15:0.297759 16:0.064203002 17:0.096699998 18:0.096699998 19:0.096699998 20:0.096699998 21:0.1934 22:0 23:0.096699998 24:0.096699998 25:0.29010001 26:0 27:0.096699998 28:0 29:0.38679999 30:0 31:0 32:0 33:0.1934 34:0 35:0 36:0 37:0.38679999 38:0 39:0 40:0 #
-0.7909884379606383353333853847289 1:0 2:1e-06 3:0 4:1e-06 5:-0.326619 6:0.001847 7:0.001581 8:0.151094 9:0.64528 10:0.094364002 11:-0.16875 12:-0.043958999 13:0.104682 14:0.26324499 15:0.225455 16:0.012197 17:0.103927 18:0.144756 19:0.059386998 20:0.014847 21:0.100215 22:0.13733201 23:0.070522003 24:0.014847 25:0.070522003 26:0.066809997 27:0.107639 28:0.077945001 29:0.30435801 30:0 31:0.014847 32:0 33:0.011135 34:0.029693 35:0.0037120001 36:0 37:0.30435801 38:0 39:0.018557999 40:0 #
-0.7909884379606383353333853847289 1:0 2:1e-06 3:0 4:1e-06 5:-0.40220499 6:0.0023109999 7:0.0020010001 8:0.355654 9:0.38688299 10:0.099639997 11:-0.23497599 12:0.043072 13:-0.032526001 14:0.29242 15:0.22665299 16:0.021737 17:0.110412 18:0.110412 19:0.118299 20:0.055206001 21:0.063092999 22:0.141959 23:0.126185 24:0.063092999 25:0.15773199 26:0.110412 27:0.102526 28:0.02366 29:0.32335001 30:0.031546 31:0.015773 32:0.02366 33:0.0078870002 34:0.102526 35:0.031546 36:0 37:0.32335001 38:0.015773 39:0.015773 40:0.0078870002 #
-0.7909884379606383353333853847289 1:0 2:1e-06 3:0 4:1e-06 5:-0.35476601 6:0.0020620001 7:0.001764 8:0.105246 9:0.59249401 10:0.098959997 11:-0.165327 12:-0.038375001 13:0.106686 14:0.29653901 15:0.26201501 16:0.01081 17:0.15396 18:0.127184 19:0.053551 20:0.013388 21:0.140572 22:0.13387799 23:0.053551 24:0.020082001 25:0.080326997 26:0.087021001 27:0.12049 28:0.060245 29:0.30122501 30:0 31:0.013388 32:0 33:0.0066940002 34:0.100408 35:0.0066940002 36:0 37:0.29453099 38:0 39:0.026776001 40:0.026776001 #
-0.7909884379606383353333853847289 1:0 2:1e-06 3:0 4:1e-06 5:-0.28065899 6:0.001589 7:0.001359 8:0.087838002 9:0.71430498 10:0.062112998 11:-0.202722 12:-0.039790999 13:0.14103401 14:0.26082501 15:0.249888 16:0.0020320001 17:0.15510599 18:0.059087999 19:0.051702 20:0.0073859999 21:0.14771999 22:0.044316001 23:0.073859997 24:0.0073859999 25:0.029544 26:0.081246004 27:0.088632002 28:0.073859997 29:0.25112301 30:0 31:0.0073859999 32:0.014772 33:0.0073859999 34:0.051702 35:0.0073859999 36:0 37:0.243737 38:0 39:0.022158001 40:0 #
0.7909884379606383353333853847289 1:1e-06 2:0 3:0 4:0 5:-0.53693801 6:0.0033849999 7:0.0032860001 8:0.099967003 9:0.120828 10:0.066356003 11:-0.032042999 12:0.019343 13:-0.0083240001 14:0.277091 15:0.123413 16:0.047486998 17:0.188407 18:0.141305 19:0.113044 20:0.084783003 21:0.197827 22:0.122464 23:0.122464 24:0.084783003 25:0.094203003 26:0.13188501 27:0.16956601 28:0.13188501 29:0.41449499 30:0.00942 31:0.047102001 32:0.028261 33:0.075363003 34:0.160146 35:0.028261 36:0 37:0.38623399 38:0.037680998 39:0.065941997 40:0.028261 #
-0.18760420675082989383497533708578 1:0 2:0 3:0 4:0 5:-0.409347 6:0.0020580001 7:0.001685 8:0.0046470002 9:0.0062799999 10:0.048629999 11:-0.0022229999 12:-0.0076939999 13:-0.001493 14:0.34342501 15:0.29092601 16:0.039069001 17:0.116959 18:0 19:0.116959 20:0.116959 21:0.116959 22:0.058479 23:0.058479 24:0.116959 25:0.175438 26:0 27:0.116959 28:0.058479 29:0.409356 30:0 31:0 32:0 33:0.409356 34:0 35:0 36:0 37:0.409356 38:0 39:0 40:0 #
0.7909884379606383353333853847289 1:2e-06 2:1e-06 3:1e-06 4:1e-06 5:0.49481401 6:-0.021957999 7:0.03042 8:0.200452 9:0.049511999 10:0.088655002 11:0.020465 12:0.077455997 13:0.017409001 14:0.35698801 15:0.278119 16:0.018492 17:0.20994499 18:0.20994499 19:0.057257999 20:0 21:0.19086 22:0.20994499 23:0.076343998 24:0 25:0.057257999 26:0.13360199 27:0.19086 28:0.095430002 29:0.28628901 30:0 31:0.076343998 32:0.076343998 33:0.19086 34:0.152688 35:0 36:0 37:0.28628901 38:0 39:0.076343998 40:0.076343998 #
-0.7909884379606383353333853847289 1:2e-06 2:0 3:0 4:0 5:0.37125 6:-0.01099 7:0.023528 8:0.001464 9:0.0036559999 10:0.083380997 11:-0.0022780001 12:0.0058010002 13:-0.0065740002 14:0.35469699 15:0.337248 16:0.017436 17:0.279118 18:0 19:0 20:0 21:0.279118 22:0 23:0 24:0 25:0.093038999 26:0 27:0 28:0.186079 29:0.37215701 30:0 31:0 32:0 33:0.37215701 34:0 35:0 36:0 37:0.37215701 38:0 39:0 40:0 #
-0.7909884379606383353333853847289 1:2e-06 2:0 3:0 4:0 5:0.46103999 6:-0.013616 7:0.029154001 8:0.0029180001 9:0.0084520001 10:0.064007998 11:-0.001163 12:0.010729 13:0.000825 14:0.40370801 15:0.350591 16:0.047777999 17:0.23108099 18:0 19:0.11554 20:0 21:0.23108099 22:0 23:0 24:0.11554 25:0.23108099 26:0 27:0.11554 28:0 29:0.34662101 30:0 31:0 32:0 33:0.23108099 34:0 35:0 36:0 37:0.34662101 38:0 39:0 40:0 #
0.7909884379606383353333853847289 1:0 2:1e-06 3:0 4:1e-06 5:-0.30970499 6:0.001916 7:0.001693 8:0.1329 9:0.70241803 10:0.073615998 11:-0.155316 12:-0.046507999 13:0.067062996 14:0.25578901 15:0.21804 16:0.021573 17:0.091767997 18:0.14147501 19:0.065002002 20:0.0076469998 21:0.095591001 22:0.12617999 23:0.076472998 24:0.0076469998 25:0.087944001 26:0.061177999 27:0.118533 28:0.038237002 29:0.27147901 30:0 31:0.0076469998 32:0.026766 33:0.011471 34:0.061177999 35:0 36:0 37:0.27147901 38:0 39:0.011471 40:0.022941999 #
0.7909884379606383353333853847289 1:0 2:1e-06 3:0 4:1e-06 5:-0.29942799 6:0.00186 7:0.0020280001 8:0.112423 9:0.71679699 10:0.113649 11:-0.115011 12:-0.032933 13:0.140126 14:0.24437 15:0.21421 16:0.0052499999 17:0.091866001 18:0.13394199 19:0.051894002 20:0.021038 21:0.109397 22:0.12973399 23:0.037868001 24:0.021739 25:0.033661 26:0.070827998 27:0.147967 28:0.046282999 29:0.26087099 30:0.02244 31:0.014025 32:0.00070099998 33:0.0042079999 34:0.023843 35:0.046985 36:0.016129 37:0.261572 38:0.025947001 39:0.0098179998 40:0.001403 #
0.7909884379606383353333853847289 1:0 2:1e-06 3:0 4:1e-06 5:-0.302775 6:0.001879 7:0.002043 8:0.136005 9:0.68952101 10:0.114939 11:-0.17209101 12:-0.039749 13:0.15093 14:0.24968401 15:0.221395 16:0.0034749999 17:0.047940999 18:0.13961899 19:0.088312998 20:0.026072999 21:0.098406002 22:0.113546 23:0.063080996 24:0.026914001 25:0.080743 26:0.055511001 27:0.099247001 28:0.066445 29:0.27923799 30:0.011775 31:0.0075699999 32:0.003364 33:0.0050459998 34:0.011775 35:0.03112 36:0.024390999 37:0.27166799 38:0.026072999 39:0.0042050001 40:0 #
-0.7909884379606383353333853847289 1:0 2:1e-06 3:0 4:1e-06 5:-0.280009 6:0.001586 7:0.001357 8:0.181602 9:0.720608 10:0.067020997 11:-0.210976 12:-0.051516999 13:0.095985003 14:0.233714 15:0.200892 16:0.019342 17:0.042860001 18:0.142866 19:0.080004998 20:0.011429 21:0.097149 22:0.122865 23:0.045717001 24:0.011429 25:0.045717001 26:0.065718003 27:0.111435 28:0.054288998 29:0.26001599 30:0 31:0.011429 32:0.005715 33:0.0028570001 34:0.040002 35:0 36:0 37:0.25715899 38:0 39:0.017144 40:0 #
0.7909884379606383353333853847289 1:2e-06 2:0 3:0 4:0 5:0.38517499 6:-0.016844001 7:0.026017001 8:0.015625 9:0.060253002 10:0.103794 11:-0.030239001 12:0.036850002 13:-0.076722004 14:0.37836999 15:0.37031901 16:0.0080500003 17:0.12880699 18:0 19:0 20:0 21:0.12880699 22:0 23:0 24:0 25:0.257613 26:0 27:0 28:0 29:0.38642001 30:0 31:0 32:0 33:0.38642001 34:0 35:0 36:0 37:0.38642001 38:0 39:0 40:0 #
-0.7909884379606383353333853847289 1:2e-06 2:9.0000003e-06 3:8e-06 4:1e-06 5:0.235563 6:-0.003701 7:0.022082999 8:0.78464699 9:0.079457998 10:0.028232001 11:0.246911 12:-0.003574 13:-0.0031989999 14:0.22871999 15:0.221201 16:0.0071330001 17:0.046393 18:0.129527 19:0.029831 20:0.030858999 21:0.123823 22:0.065127999 23:0.019122999 24:0.028535999 25:0.051739 26:0.060035001 27:0.072084002 28:0.052751999 29:0.200434 30:0.016189 31:0.0098740002 32:0.010113 33:0.028044 34:0.017053001 35:0.048493002 36:0.138642 37:0.198245 38:0.015831999 39:0.0054359999 40:0.017098 #
0.7909884379606383353333853847289 1:0 2:0 3:0 4:0 5:-0.37149501 6:0.002383 7:0.0020959999 8:0.00257 9:0.00017699999 10:0.039482001 11:8e-06 12:-0.0091570001 13:-0.00090300001 14:0.36639801 15:0.36174399 16:0.0041970001 17:0.27863199 18:0 19:0 20:0 21:0.27863199 22:0 23:0 24:0 25:0.092877001 26:0 27:0.092877001 28:0.092877001 29:0.37150899 30:0 31:0 32:0 33:0.37150899 34:0 35:0 36:0 37:0.37150899 38:0 39:0 40:0 #
-0.7909884379606383353333853847289 1:2e-06 2:0 3:0 4:0 5:0.47930801 6:-0.014338 7:0.030694 8:0.001316 9:0.011885 10:0.067730002 11:-0.0035620001 12:0.0028510001 13:-1.6e-05 14:0.40285799 15:0.32591 16:0.076249003 17:0.068643004 18:0.068643004 19:0.20592999 20:0.068643004 21:0.068643004 22:0.068643004 23:0.20592999 24:0.068643004 25:0.13728701 26:0.20592999 27:0.068643004 28:0 29:0.34321699 30:0 31:0 32:0 33:0.27457401 34:0 35:0 36:0 37:0.34321699 38:0 39:0 40:0 #
-0.7909884379606383353333853847289 1:2e-06 2:0 3:0 4:0 5:0.48086801 6:-0.014444 7:0.030924 8:0.0010310001 9:0.0075030001 10:0.048799001 11:-0.0026149999 12:0.001055 13:-0.00064899999 14:0.41061899 15:0.33995399 16:0.069871999 17:0.281212 18:0.080346003 19:0 20:0.080346003 21:0.281212 22:0.080346003 23:0 24:0.080346003 25:0.120519 26:0 27:0.080346003 28:0.24103899 29:0.24103899 30:0.080346003 31:0.040173002 32:0.040173002 33:0.080346003 34:0.200866 35:0.080346003 36:0 37:0.281212 38:0.080346003 39:0.080346003 40:0 #
0.7909884379606383353333853847289 1:0 2:0 3:0 4:0 5:-0.39152801 6:0.0032210001 7:0.003359 8:0.032653999 9:0.076718003 10:0.059760001 11:0.02331 12:0.025992 13:0.040791001 14:0.28497699 15:0.217354 16:0.028666001 17:0.335619 18:0 19:0 20:0 21:0.335619 22:0 23:0 24:0 25:0.055937 26:0.055937 27:0 28:0.111873 29:0.39155599 30:0 31:0 32:0 33:0.39155599 34:0 35:0 36:0 37:0.39155599 38:0 39:0 40:0 #
0.7909884379606383353333853847289 1:0 2:0 3:0 4:0 5:-0.396745 6:0.001756 7:0.0013520001 8:0.074530996 9:0.02004 10:0.041979 11:0.034942999 12:0.015039 13:0.017382 14:0.28905201 15:0.183493 16:0.103419 17:0.31740099 18:0 19:0 20:0 21:0.31740099 22:0 23:0 24:0 25:0.079350002 26:0 27:0 28:0.158701 29:0.39675099 30:0 31:0 32:0 33:0.39675099 34:0 35:0 36:0 37:0.39675099 38:0 39:0 40:0 #
0.7909884379606383353333853847289 1:3.0000001e-06 2:0 3:0 4:0 5:-0.36677599 6:0.0072389999 7:0.042257998 8:0.00141 9:0.012263 10:1e-06 11:-0.0023920001 12:-4.4e-05 13:9.9999997e-05 14:0.344787 15:0.320301 16:0.024486 17:0.28721201 18:0.041030001 19:0 20:0 21:0.28721201 22:0.041030001 23:0 24:0 25:0.041030001 26:0 27:0.041030001 28:0.24618199 29:0.36927301 30:0 31:0 32:0 33:0.36927301 34:0 35:0 36:0 37:0.36927301 38:0 39:0 40:0 #
0.41439681478921819302030371545698 1:2e-06 2:0 3:0 4:0 5:0.494077 6:-0.021691 7:0.032662999 8:0.0065179998 9:0.014369 10:0.026076 11:-0.0082099997 12:-0.0039599999 13:0.0070349998 14:0.33257899 15:0.183622 16:0.134863 17:0.22528601 18:0.22528601 19:0 20:0 21:0.22528601 22:0.22528601 23:0 24:0 25:0.045056999 26:0 27:0.22528601 28:0.18022899 29:0.31540099 30:0 31:0.090115003 32:0 33:0.045056999 34:0.13517199 35:0.090115003 36:0 37:0.40551499 38:0 39:0.045056999 40:0 #
-0.74698787726889659399631682390464 1:0 2:0 3:0 4:0 5:-0.46636 6:0.0020270001 7:0.001662 8:0.0050130002 9:0.0099520003 10:0.045790002 11:-0.0040139998 12:-0.0079939999 13:0.0027360001 14:0.36551499 15:0.27980101 16:0.070574 17:0.186547 18:0.186547 19:0.046636999 20:0 21:0.186547 22:0.186547 23:0 24:0.046636999 25:0.093273997 26:0 27:0.186547 28:0.13991 29:0.41973099 30:0 31:0 32:0 33:0.046636999 34:0.046636999 35:0 36:0 37:0.41973099 38:0 39:0 40:0 #
-0.76741350599115532027383324020775 1:1e-06 2:0 3:0 4:0 5:-0.47980499 6:0.0028899999 7:0.00257 8:0.012399 9:0.03081 10:0.094081998 11:-0.004886 12:-0.011216 13:0.029184001 14:0.37418699 15:0.306281 16:0.030179 17:0.146386 18:0.195181 19:0.121988 20:0.0081329998 21:0.13012099 22:0.25210899 23:0.089458004 24:0 25:0.024398001 26:0.040663 27:0.27650699 28:0.13012099 29:0.292772 30:0.13012099 31:0.040663 32:0.0081329998 33:0.065059997 34:0.121988 35:0.162651 36:0.0081329998 37:0.325302 38:0.089458004 39:0.024398001 40:0.032529999 #
0.7909884379606383353333853847289 1:2e-06 2:0 3:0 4:0 5:0.48070201 6:-0.020935001 7:0.032079 8:0.014983 9:0.065384001 10:0.049771 11:0.018568 12:-0.007406 13:-0.040566001 14:0.381751 15:0.30723199 16:0.048563998 17:0.24111301 18:0.060277998 19:0 20:0.120557 21:0.24111301 22:0.060277998 23:0 24:0.120557 25:0.18083499 26:0 27:0.120557 28:0.120557 29:0.36166999 30:0 31:0 32:0 33:0.18083499 34:0.060277998 35:0 36:0 37:0.36166999 38:0 39:0.060277998 40:0 #
-0.7909884379606383353333853847289 1:1e-06 2:0 3:0 4:0 5:-0.529751 6:0.0023419999 7:0.001929 8:0.0055180001 9:0.024153 10:0.024435 11:-0.0062850001 12:0.001177 13:-0.0036830001 14:0.28596899 15:0.077394001 16:0.17335901 17:0.088293001 18:0.088293001 19:0.176586 20:0.088293001 21:0.088293001 22:0.176586 23:0.088293001 24:0.088293001 25:0.176586 26:0.088293001 27:0.176586 28:0 29:0.441466 30:0 31:0 32:0 33:0.176586 34:0 35:0 36:0 37:0.441466 38:0 39:0 40:0 #
0.7909884379606383353333853847289 1:1e-06 2:4e-06 3:4e-06 4:1e-06 5:0.27352601 6:-0.0086350003 7:0.018611001 8:0.78687 9:0.118603 10:0.070412003 11:0.158425 12:0.023686999 13:0.013912 14:0.231445 15:0.207004 16:0.0060330001 17:0.112491 18:0.086295001 19:0.046229001 20:0.027737999 21:0.10941 22:0.090917997 23:0.044688001 24:0.027737999 25:0.041606002 26:0.061639 27:0.107869 28:0.061639 29:0.21265499 30:0.021574 31:0.024656 32:0.013869 33:0.024656 34:0.058557 35:0.041606002 36:0 37:0.208032 38:0.027737999 39:0.030820001 40:0.0061639999 #
-0.7909884379606383353333853847289 1:2e-06 2:0 3:0 4:0 5:0.47930801 6:-0.014338 7:0.030694 8:0.001316 9:0.011885 10:0.067730002 11:-0.0035620001 12:0.0028510001 13:-1.6e-05 14:0.40285799 15:0.32591 16:0.076249003 17:0.068643004 18:0.068643004 19:0.20592999 20:0.068643004 21:0.068643004 22:0.068643004 23:0.20592999 24:0.068643004 25:0.13728701 26:0.20592999 27:0.068643004 28:0 29:0.34321699 30:0 31:0 32:0 33:0.27457401 34:0 35:0 36:0 37:0.34321699 38:0 39:0 40:0 #
-0.7909884379606383353333853847289 1:2e-06 2:9.0000003e-06 3:8e-06 4:1e-06 5:0.235563 6:-0.003701 7:0.022082999 8:0.78464699 9:0.079457998 10:0.028232001 11:0.246911 12:-0.003574 13:-0.0031989999 14:0.22871999 15:0.221201 16:0.0071330001 17:0.046393 18:0.129527 19:0.029831 20:0.030858999 21:0.123823 22:0.065127999 23:0.019122999 24:0.028535999 25:0.051739 26:0.060035001 27:0.072084002 28:0.052751999 29:0.200434 30:0.016189 31:0.0098740002 32:0.010113 33:0.028044 34:0.017053001 35:0.048493002 36:0.138642 37:0.198245 38:0.015831999 39:0.0054359999 40:0.017098 #
-0.7909884379606383353333853847289 1:2e-06 2:9.0000003e-06 3:8e-06 4:1e-06 5:0.231342 6:-0.0036279999 7:0.021769 8:0.79024202 9:0.080274001 10:0.027403001 11:0.24947099 12:-0.010818 13:-0.0048429999 14:0.224985 15:0.217917 16:0.0067289998 17:0.059 18:0.116579 19:0.023226 20:0.033574 21:0.123729 22:0.061051 23:0.015912 24:0.031686999 25:0.050949 26:0.056813002 27:0.072711997 28:0.051906001 29:0.198135 30:0.014982 31:0.0097599998 32:0.0095009999 33:0.026315 34:0.016690999 35:0.044496 36:0.140269 37:0.195278 38:0.014887 39:0.0058229999 40:0.016391 #
0.7909884379606383353333853847289 1:0 2:0 3:0 4:0 5:-0.42091399 6:0.0025609999 7:0.0021540001 8:0.028007001 9:0.004216 10:0.018386999 11:0.0057589998 12:0.0026529999 13:-0.0030129999 14:0.246739 15:0.090204 16:0.13888299 17:0.210463 18:0.070153996 19:0.070153996 20:0 21:0.210463 22:0.14030901 23:0 24:0 25:0.070153996 26:0 27:0 28:0.28061801 29:0.42092699 30:0 31:0 32:0 33:0.42092699 34:0 35:0 36:0 37:0.42092699 38:0 39:0 40:0 #
0.7909884379606383353333853847289 1:1e-06 2:0 3:0 4:0 5:-0.507025 6:0.0035669999 7:0.0034179999 8:0.040164001 9:0.070670001 10:0.056763001 11:-0.052979 12:-0.0029269999 13:0.000374 14:0.334692 15:0.16295899 16:0.17110801 17:0.25352499 18:0 19:0 20:0 21:0.25352499 22:0 23:0 24:0 25:0.25352499 26:0 27:0 28:0.126762 29:0.38028699 30:0 31:0 32:0 33:0.25352499 34:0 35:0 36:0 37:0.38028699 38:0 39:0 40:0 #
0.68149354116362492739256140339421 1:2e-06 2:1e-06 3:1e-06 4:1e-06 5:-0.41347101 6:0.0087179998 7:0.041591 8:0.095076002 9:0.131836 10:0.068668 11:-0.015034 12:0.059831001 13:-0.002204 14:0.213597 15:0.039760999 16:0.145621 17:0.29095399 18:0.041565001 19:0 20:0 21:0.29095399 22:0.041565001 23:0 24:0 25:0.124695 26:0.041565001 27:0 28:0.124695 29:0.415649 30:0 31:0 32:0 33:0.415649 34:0 35:0 36:0 37:0.415649 38:0 39:0 40:0 #
0.7909884379606383353333853847289 1:1e-06 2:4e-06 3:3.0000001e-06 4:1e-06 5:0.29951599 6:-0.0097190002 7:0.020227 8:0.72682601 9:0.12888201 10:0.060924999 11:0.18212099 12:0.029042 13:0.01967 14:0.255411 15:0.22822 16:0.0094370004 17:0.091288999 18:0.15419801 19:0.040205002 20:0.01419 21:0.148995 22:0.108317 23:0.029325999 24:0.013244 25:0.035948001 26:0.062909 27:0.128656 28:0.072369002 29:0.22325601 30:0.032637 31:0.028379999 32:0.015136 33:0.018920001 34:0.058651999 35:0.084193997 36:0.042096999 37:0.212377 38:0.053449001 39:0.029325999 40:0.0047300002 #
-0.7909884379606383353333853847289 1:0 2:0 3:0 4:0 5:-0.43242201 6:0.0027590001 7:0.002604 8:0.025041001 9:0.0084819999 10:0.023562999 11:7.5999997e-05 12:0.0030700001 13:-0.002628 14:0.20902 15:0.046328001 16:0.101965 17:0.25946301 18:0.086488001 19:0 20:0 21:0.25946301 22:0.086488001 23:0 24:0 25:0.086488001 26:0 27:0.086488001 28:0.172976 29:0.432439 30:0 31:0 32:0 33:0.432439 34:0 35:0 36:0 37:0.432439 38:0 39:0 40:0 #
-0.7909884379606383353333853847289 1:0 2:0 3:0 4:0 5:-0.47387001 6:0.0031729999 7:0.002997 8:0.019621 9:0.010368 10:0.041021999 11:-0.010933 12:-0.0056159999 13:0.0019499999 14:0.28774199 15:0.122034 16:0.14526799 17:0.315927 18:0 19:0.052654002 20:0.052654002 21:0.315927 22:0 23:0.052654002 24:0.052654002 25:0.105309 26:0.052654002 27:0 28:0.26327199 29:0.421235 30:0 31:0 32:0 33:0.052654002 34:0.052654002 35:0 36:0 37:0.421235 38:0 39:0 40:0 #
0.7909884379606383353333853847289 1:1e-06 2:0 3:0 4:0 5:0.37704 6:-0.01442 7:0.022139 8:0 9:0 10:0 11:0 12:0 13:0 14:0.37796399 15:0 16:0 17:0 18:0.37796399 19:0 20:0 21:0 22:0.37796399 23:0 24:0 25:0 26:0.37796399 27:0 28:0 29:0 30:0.37796399 31:0 32:0 33:0 34:0.37796399 35:0 36:0 37:0 #
-0.7909884379606383353333853847289 1:0 2:0 3:0 4:0 5:-0.41250899 6:0.0026440001 7:0.002503 8:0.047341999 9:0.005386 10:0.021018 11:0.013497 12:-0.0023940001 13:-0.0063510002 14:0.290106 15:0.167687 16:0.122419 17:0.27501699 18:0 19:0 20:0 21:0.27501699 22:0 23:0 24:0 25:0.137508 26:0 27:0 28:0.137508 29:0.412525 30:0 31:0 32:0 33:0.412525 34:0 35:0 36:0 37:0.412525 38:0 39:0 40:0 #
-0.7909884379606383353333853847289 1:2e-06 2:0 3:0 4:0 5:0.376984 6:-0.011514 7:0.02465 8:0 9:0 10:0 11:0 12:0 13:0 14:0.37796399 15:0 16:0 17:0 18:0.37796399 19:0 20:0 21:0 22:0.37796399 23:0 24:0 25:0 26:0.37796399 27:0 28:0 29:0 30:0.37796399 31:0 32:0 33:0 34:0.37796399 35:0 36:0 37:0 #
0.7909884379606383353333853847289 1:0 2:0 3:0 4:0 5:-0.43134299 6:0.002666 7:0.002451 8:0.058058999 9:0.025331 10:0.056582998 11:0.016957 12:0.0071450002 13:-0.029475 14:0.230804 15:0.035489999 16:0.190075 17:0.154056 18:0.123245 19:0.123245 20:0 21:0.154056 22:0.123245 23:0.123245 24:0 25:0.030811001 26:0.123245 27:0.154056 28:0.092433996 29:0.43135801 30:0 31:0 32:0 33:0.43135801 34:0 35:0 36:0 37:0.43135801 38:0 39:0 40:0 #
0.7909884379606383353333853847289 1:1e-06 2:0 3:0 4:0 5:0.37701899 6:-0.014549 7:0.022415999 8:0 9:0 10:0 11:0 12:0 13:0 14:0.37796399 15:0 16:0 17:0 18:0.37796399 19:0 20:0 21:0 22:0.37796399 23:0 24:0 25:0 26:0.37796399 27:0 28:0 29:0 30:0.37796399 31:0 32:0 33:0 34:0.37796399 35:0 36:0 37:0 #
-0.7909884379606383353333853847289 1:0 2:0 3:0 4:0 5:-0.39130899 6:0.0024699999 7:0.002113 8:0.23537099 9:0.179608 10:0.052510999 11:0.13235401 12:-0.093249001 13:-0.088815004 14:0.327645 15:0.266119 16:0.059374999 17:0.111806 18:0.055902999 19:0.055902999 20:0.055902999 21:0.111806 22:0.055902999 23:0.055902999 24:0.055902999 25:0.16771001 26:0.055902999 27:0.055902999 28:0.055902999 29:0.39132199 30:0 31:0 32:0 33:0.39132199 34:0 35:0 36:0 37:0.39132199 38:0 39:0 40:0 #
-0.7909884379606383353333853847289 1:2e-06 2:0 3:0 4:0 5:0.376984 6:-0.011514 7:0.02465 8:0 9:0 10:0 11:0 12:0 13:0 14:0.37796399 15:0 16:0 17:0 18:0.37796399 19:0 20:0 21:0 22:0.37796399 23:0 24:0 25:0 26:0.37796399 27:0 28:0 29:0 30:0.37796399 31:0 32:0 33:0 34:0.37796399 35:0 36:0 37:0 #
0.7909884379606383353333853847289 1:0 2:0 3:0 4:0 5:-0.329303 6:0.002208 7:0.002173 8:0.056745 9:0.104852 10:0.020747 11:-0.077134997 12:-0.034311999 13:0.046641 14:0.32931799 15:0.32931799 16:0 17:0.32931799 18:0 19:0 20:0 21:0.32931799 22:0 23:0 24:0 25:0.32931799 26:0 27:0 28:0 29:0.32931799 30:0 31:0 32:0 33:0.32931799 34:0 35:0 36:0 37:0.32931799 38:0 39:0 40:0 #
0.7909884379606383353333853847289 1:1e-06 2:0 3:0 4:0 5:0.37686899 6:-0.013499 7:0.025395 8:0 9:0 10:0 11:0 12:0 13:0 14:0.37796399 15:0 16:0 17:0 18:0.37796399 19:0 20:0 21:0 22:0.37796399 23:0 24:0 25:0 26:0.37796399 27:0 28:0 29:0 30:0.37796399 31:0 32:0 33:0 34:0.37796399 35:0 36:0 37:0 #
0.7909884379606383353333853847289 1:1e-06 2:0 3:0 4:0 5:0.37703699 6:-0.014851 7:0.021906 8:0 9:0 10:0 11:0 12:0 13:0 14:0.37796399 15:0 16:0 17:0 18:0.37796399 19:0 20:0 21:0 22:0.37796399 23:0 24:0 25:0 26:0.37796399 27:0 28:0 29:0 30:0.37796399 31:0 32:0 33:0 34:0.37796399 35:0 36:0 37:0 #
-0.7909884379606383353333853847289 1:0 2:0 3:0 4:0 5:-0.39130899 6:0.0024699999 7:0.002113 8:0.23537099 9:0.179608 10:0.052510999 11:0.13235401 12:-0.093249001 13:-0.088815004 14:0.327645 15:0.266119 16:0.059374999 17:0.111806 18:0.055902999 19:0.055902999 20:0.055902999 21:0.111806 22:0.055902999 23:0.055902999 24:0.055902999 25:0.16771001 26:0.055902999 27:0.055902999 28:0.055902999 29:0.39132199 30:0 31:0 32:0 33:0.39132199 34:0 35:0 36:0 37:0.39132199 38:0 39:0 40:0 #
-0.7909884379606383353333853847289 1:0 2:1e-06 3:0 4:0 5:-0.42213401 6:0.0024659999 7:0.002134 8:0.34768599 9:0.32359999 10:0.061641 11:-0.18057799 12:0.057548001 13:-0.062132001 14:0.30630401 15:0.217035 16:0.062696002 17:0.046905 18:0.171986 19:0.09381 20:0.09381 21:0.125081 22:0.109446 23:0.078175001 24:0.09381 25:0.156351 26:0.062540002 27:0.109446 28:0.078175001 29:0.35960701 30:0 31:0.031270001 32:0 33:0.09381 34:0 35:0 36:0 37:0.35960701 38:0 39:0.031270001 40:0 #
0.7909884379606383353333853847289 1:1e-06 2:0 3:0 4:0 5:0.376858 6:-0.013633 7:0.025483999 8:0 9:0 10:0 11:0 12:0 13:0 14:0.37796399 15:0 16:0 17:0 18:0.37796399 19:0 20:0 21:0 22:0.37796399 23:0 24:0 25:0 26:0.37796399 27:0 28:0 29:0 30:0.37796399 31:0 32:0 33:0 34:0.37796399 35:0 36:0 37:0 #
0.7909884379606383353333853847289 1:1e-06 2:0 3:0 4:0 5:0.37682599 6:-0.013852 7:0.025837 8:0 9:0 10:0 11:0 12:0 13:0 14:0.37796399 15:0 16:0 17:0 18:0.37796399 19:0 20:0 21:0 22:0.37796399 23:0 24:0 25:0 26:0.37796399 27:0 28:0 29:0 30:0.37796399 31:0 32:0 33:0 34:0.37796399 35:0 36:0 37:0 #
-0.7909884379606383353333853847289 1:2e-06 2:0 3:0 4:0 5:0.376984 6:-0.011514 7:0.02465 8:0 9:0 10:0 11:0 12:0 13:0 14:0.37796399 15:0 16:0 17:0 18:0.37796399 19:0 20:0 21:0 22:0.37796399 23:0 24:0 25:0 26:0.37796399 27:0 28:0 29:0 30:0.37796399 31:0 32:0 33:0 34:0.37796399 35:0 36:0 37:0 #
0.7909884379606383353333853847289 1:0 2:0 3:0 4:0 5:-0.40513399 6:0.0025259999 7:0.0024039999 8:0.094664998 9:0.042805001 10:0.139761 11:0.056262001 12:-0.072944999 13:-0.056976002 14:0.33271599 15:0.26854399 16:0.055909 17:0.151931 18:0.050643999 19:0.050643999 20:0.101287 21:0.151931 22:0.050643999 23:0.050643999 24:0.101287 25:0.151931 26:0.050643999 27:0.050643999 28:0.101287 29:0.40514901 30:0 31:0 32:0 33:0.40514901 34:0 35:0 36:0 37:0.40514901 38:0 39:0 40:0 #
-0.7909884379606383353333853847289 1:2e-06 2:0 3:0 4:0 5:0.377009 6:-0.011366 7:0.024335001 8:0 9:0 10:0 11:0 12:0 13:0 14:0.37796399 15:0 16:0 17:0 18:0.37796399 19:0 20:0 21:0 22:0.37796399 23:0 24:0 25:0 26:0.37796399 27:0 28:0 29:0 30:0.37796399 31:0 32:0 33:0 34:0.37796399 35:0 36:0 37:0 #
0.7909884379606383353333853847289 1:0 2:1e-06 3:0 4:1e-06 5:-0.34802201 6:0.002235 7:0.0021240001 8:0.34365901 9:0.43805301 10:0.104717 11:-0.30945301 12:-0.086829998 13:0.005597 14:0.27878901 15:0.219519 16:0.049293 17:0.069606997 18:0.092808999 19:0.046404999 20:0.116012 21:0.046404999 22:0.116012 23:0.046404999 24:0.116012 25:0.208821 26:0.023202 27:0.092808999 28:0 29:0.32483301 30:0 31:0 32:0 33:0.046404999 34:0 35:0 36:0 37:0.32483301 38:0 39:0 40:0 #
-0.7909884379606383353333853847289 1:0 2:0 3:0 4:0 5:-0.403595 6:0.0020280001 7:0.001749 8:0.0024900001 9:0.081828997 10:0.164896 11:-0.0061619999 12:-0.0042969999 13:0.043313 14:0.29733399 15:0.194315 16:0.099766999 17:0.067267001 18:0 19:0.067267001 20:0.201802 21:0.067267001 22:0 23:0.067267001 24:0.201802 25:0.26906899 26:0.067267001 27:0 28:0 29:0.403604 30:0 31:0 32:0 33:0.403604 34:0 35:0 36:0 37:0.403604 38:0 39:0 40:0 #
-0.7909884379606383353333853847289 1:0 2:1e-06 3:0 4:1e-06 5:-0.404946 6:0.0023739999 7:0.0020310001 8:0.106878 9:0.45435801 10:0.11391 11:-0.152349 12:-0.051197998 13:0.089207999 14:0.32157999 15:0.26451701 16:0.030746 17:0.167909 18:0.108647 19:0.049385 20:0.069138996 21:0.158032 22:0.128401 23:0.079016 24:0.029631 25:0.049385 26:0.128401 27:0.088892996 28:0.128401 29:0.355573 30:0 31:0.019754 32:0 33:0.059262 34:0.019754 35:0.019754 36:0 37:0.355573 38:0 39:0.019754 40:0 #
-0.7909884379606383353333853847289 1:0 2:0 3:0 4:0 5:-0.403595 6:0.0020280001 7:0.001749 8:0.0024900001 9:0.081828997 10:0.164896 11:-0.0061619999 12:-0.0042969999 13:0.043313 14:0.29733399 15:0.194315 16:0.099766999 17:0.067267001 18:0 19:0.067267001 20:0.201802 21:0.067267001 22:0 23:0.067267001 24:0.201802 25:0.26906899 26:0.067267001 27:0 28:0 29:0.403604 30:0 31:0 32:0 33:0.403604 34:0 35:0 36:0 37:0.403604 38:0 39:0 40:0 #
0.7909884379606383353333853847289 1:2e-06 2:0 3:0 4:0 5:0.376802 6:-0.014849 7:0.025629001 8:0 9:0 10:0 11:0 12:0 13:0 14:0.37796399 15:0 16:0 17:0 18:0.37796399 19:0 20:0 21:0 22:0.37796399 23:0 24:0 25:0 26:0.37796399 27:0 28:0 29:0 30:0.37796399 31:0 32:0 33:0 34:0.37796399 35:0 36:0 37:0 #
-0.7909884379606383353333853847289 1:2e-06 2:0 3:0 4:0 5:0.377009 6:-0.011366 7:0.024335001 8:0 9:0 10:0 11:0 12:0 13:0 14:0.37796399 15:0 16:0 17:0 18:0.37796399 19:0 20:0 21:0 22:0.37796399 23:0 24:0 25:0 26:0.37796399 27:0 28:0 29:0 30:0.37796399 31:0 32:0 33:0 34:0.37796399 35:0 36:0 37:0 #
-0.70396615856697020152665800196701 1:0 2:0 3:0 4:0 5:-0.33999401 6:0.002171 7:0.0020600001 8:0.016237 9:0.002753 10:4.9999999e-06 11:-0.0048500001 12:0.00028000001 13:-8.1999999e-05 14:0.31870401 15:0.2974 16:0.021303 17:0.34000701 18:0 19:0 20:0 21:0.34000701 22:0 23:0 24:0 25:0.34000701 26:0 27:0 28:0 29:0.34000701 30:0 31:0 32:0 33:0.34000701 34:0 35:0 36:0 37:0.34000701 38:0 39:0 40:0 #
-0.7909884379606383353333853847289 1:2e-06 2:0 3:0 4:0 5:0.377009 6:-0.011366 7:0.024335001 8:0 9:0 10:0 11:0 12:0 13:0 14:0.37796399 15:0 16:0 17:0 18:0.37796399 19:0 20:0 21:0 22:0.37796399 23:0 24:0 25:0 26:0.37796399 27:0 28:0 29:0 30:0.37796399 31:0 32:0 33:0 34:0.37796399 35:0 36:0 37:0 #
